3098 100
drugs -0.0053341435 -0.027340768 0.013592342 0.01477397 -0.0050791753 -0.025797894 0.021347532 -0.042780817 -0.043505084 -0.009683306 -0.005399774 0.022453032 0.023295792 0.012918875 0.010276389 -0.021456834 -0.03239448 -0.013753635 0.017716542 -0.01003141 -0.04154667 0.03185876 0.002600012 -0.018019466 0.0077546607 -0.032947063 0.0038190163 0.00839173 -0.0057338076 -0.066844255 -0.011316677 0.026678974 0.007936488 -0.02495916 -0.037348595 -0.024137573 0.018428318 0.006049427 -0.0048281737 -0.023796977 0.03020171 -0.029784728 0.0242176 -0.00055859116 0.04360588 0.0117199635 0.025719997 -0.025181353 -0.018706998 -0.023203615 -0.0028306558 0.02291237 0.023990031 -0.0442152 -0.040579032 0.025588196 -0.009800798 0.03563422 0.0038996781 -0.006901069 -0.019894274 0.03521856 0.006902757 0.030085672 0.0041039926 0.010967529 -0.012743056 0.012388611 0.0066210004 -0.0034631179 -0.009763242 -0.020501787 0.0035072933 0.0009644667 0.059067238 -0.035251368 -0.0045069717 -0.028847603 0.019830788 0.0076857335 0.010326053 0.0072219106 -0.021242822 0.015016059 -0.014348016 -0.0010857417 -0.0199844 -0.0024207705 -0.02606699 0.0024501735 0.03946762 -0.026923066 0.01964234 -0.0018428738 -0.0409718 -0.023186972 -0.0077807377 -0.0061527765 0.0051676226 -0.048922405
lives -0.009781262 -0.03387604 0.016016437 0.018057398 -0.0045724986 -0.027102513 0.014256684 -0.034374874 -0.03825299 -0.0065656365 -0.0069525912 0.02684363 0.023041673 0.009708816 0.009465018 -0.016138455 -0.027663609 -0.018786717 0.014275061 -0.011256015 -0.04090071 0.037657563 -0.00065785035 -0.014353521 0.002922455 -0.028219027 0.011650982 0.012340608 -0.0022630475 -0.06754595 -0.013788819 0.027309932 0.007198276 -0.018625403 -0.0395869 -0.018009102 0.018096901 0.015138769 -0.011148175 -0.019138185 0.03319947 -0.033779122 0.028942537 0.004694929 0.04727786 0.011735314 0.022145327 -0.023321982 -0.014624529 -0.026784515 -0.0011594986 0.016545113 0.016953379 -0.043726634 -0.039543875 0.02749839 -0.0010899232 0.032955132 0.0025418946 -0.009276677 -0.021359857 0.035487942 0.004627995 0.027727444 0.009263337 0.007931129 -0.012233538 0.006661367 0.012431489 -0.0064396565 -0.009730048 -0.016076522 0.0041762046 -0.0034494349 0.051648308 -0.035616558 -0.0062277173 -0.025532063 0.021532333 0.011037845 0.005800556 0.009312435 -0.027461167 0.008883232 -0.021979693 -0.008907595 -0.011138821 -0.0034717275 -0.026732925 0.00597919 0.038147427 -0.026076278 0.016776888 -0.000434559 -0.04226413 -0.024927385 -0.0061899177 -0.008329585 0.011447599 -0.048590094
medications -0.01336211 -0.030953012 0.00892685 0.022765366 -0.011439938 -0.021406079 0.015157929 -0.04096784 -0.04336274 -0.010090769 -0.006953574 0.027785515 0.024137111 0.0074449233 0.014444048 -0.017454436 -0.028754381 -0.017293358 0.013617337 -0.009393915 -0.04699272 0.0313082 -8.7158034e-05 -0.017071972 0.0047632717 -0.027577018 0.01281625 0.0043747225 -0.002261251 -0.06542698 -0.012137789 0.02658165 0.0060306154 -0.01742742 -0.04130137 -0.023192905 0.01738274 0.010081472 -0.0060667694 -0.024067355 0.025854161 -0.030976836 0.031002473 0.005235324 0.048687015 0.018962447 0.022718042 -0.021418963 -0.014377936 -0.018544367 0.001572899 0.016756708 0.020710291 -0.042021245 -0.03412333 0.029243391 -0.0065002195 0.035155177 0.0044710874 -0.002875916 -0.013136503 0.031588126 0.0026305532 0.030895453 0.009352878 0.010025135 -0.0091227135 0.010290196 0.005890747 -0.009100344 -0.0008189117 -0.013887632 0.0013451301 0.006444341 0.049817104 -0.030853096 -0.0009595644 -0.020140227 0.022278478 0.008520533 0.006088386 0.0073547317 -0.026208414 0.013586264 -0.018934313 -0.010283015 -0.018097822 0.0016812348 -0.03175068 0.009784649 0.03728265 -0.027532242 0.01609272 0.0032916667 -0.040915422 -0.022806427 -0.003966906 -0.0014774856 0.010856953 -0.05069301
tylenol -0.005563616 -0.022858586 0.009661536 0.013094792 -0.0047958996 -0.023311177 0.018826885 -0.029776897 -0.03355897 -0.008948492 -0.004310362 0.02050974 0.016695444 0.006985028 0.005449441 -0.014104003 -0.022290826 -0.0065344064 0.011502485 -0.002995793 -0.04106763 0.03107343 -0.0020199677 -0.013204279 0.008728221 -0.024573524 0.0066147195 0.0036460974 -0.008186855 -0.056519333 -0.0041624554 0.026205592 0.0124363825 -0.013794934 -0.038608823 -0.018058188 0.015482699 0.008061591 -0.0053131306 -0.02136929 0.025805533 -0.028589474 0.019579798 0.0012450499 0.041625705 0.015515764 0.02120017 -0.02397423 -0.015177269 -0.020845333 -0.0015917354 0.011881993 0.019349752 -0.031148892 -0.034070466 0.0245578 -0.009064291 0.02594502 0.0024392062 -0.009309081 -0.011624609 0.030219538 0.007830425 0.022891074 0.008202179 0.010599626 -0.007856019 0.0073128827 0.013970224 -0.0071545136 -0.0019796686 -0.013836803 -0.002895699 0.0053474954 0.046476703 -0.03040894 -0.0006516821 -0.021075943 0.023317588 0.0081641525 0.0073490026 0.0021481134 -0.024833793 0.010606047 -0.010160025 -0.0061672726 -0.016958944 -0.0040870006 -0.023377066 0.0034610212 0.029824186 -0.030643845 0.0156606 0.0013161891 -0.03249737 -0.027455699 -0.00040450657 -0.0074936007 0.006014376 -0.04721242
 -0.004632835 -0.02804831 0.014301795 0.01951304 -0.008911748 -0.017970754 0.019426785 -0.028551247 -0.03507223 -0.0013921302 -0.0111231 0.023116421 0.022205427 0.008655323 0.013397231 -0.018527523 -0.024985755 -0.015616581 0.01684411 -0.0016828635 -0.0361344 0.027541148 -0.0020888303 -0.018135866 0.0066811345 -0.028082151 0.011924612 0.011259872 -0.0023975594 -0.057088215 -0.008286567 0.025331074 0.0103499945 -0.019185804 -0.038015652 -0.02282692 0.014347389 0.010026969 -0.011598374 -0.01743453 0.029738063 -0.022985956 0.019766796 0.0055673104 0.04258985 0.015288767 0.018545756 -0.017102735 -0.007884268 -0.017388163 0.001922565 0.013296879 0.021564232 -0.037273802 -0.0342033 0.020373296 -0.0042528617 0.032894198 0.005636448 -0.008710192 -0.013000595 0.028609145 0.0027379915 0.024525216 -0.0003428664 0.012689447 -0.011764791 0.0059307003 0.009454528 -0.0077932663 -0.007877759 -0.01904609 0.003504409 0.0026471855 0.05091511 -0.03103271 -0.0054503214 -0.025632558 0.019174548 0.005560362 0.010037802 0.007379755 -0.025511842 0.014480725 -0.01854686 -0.005616111 -0.01746845 -0.0016629982 -0.019365098 0.0073937722 0.030666025 -0.026136005 0.013834981 -0.0009984056 -0.037461944 -0.023705756 -0.0042558606 -0.0062605687 0.011448069 -0.049640413
suicide -0.010673593 -0.024001924 0.008696932 0.01140169 -0.008683524 -0.019537803 0.0110012805 -0.028761452 -0.038047187 -0.0076625864 -0.0025100645 0.024582615 0.023392236 0.014118539 0.004909322 -0.018756943 -0.023735482 -0.007209485 0.00880256 -0.0075918143 -0.040042043 0.03178356 -0.0013668156 -0.018591363 -0.00026790207 -0.026322989 0.011178431 0.006549474 0.0012383122 -0.05439376 -0.0074210465 0.019889776 0.0046096225 -0.015712487 -0.03358432 -0.018019333 0.01221576 0.009973277 -0.0044408245 -0.01738642 0.019510819 -0.021239592 0.022485655 0.0028623785 0.037548885 0.01117359 0.019435136 -0.0154624 -0.012853097 -0.020138402 0.0025669422 0.011588341 0.020831585 -0.03612592 -0.037757885 0.017553765 -0.0038233714 0.021991495 0.0043905615 -0.011564962 -0.018345704 0.027876671 0.0056589786 0.02459648 0.008728315 0.011252228 -0.007744899 0.0048294426 0.014345871 -0.0066072806 -0.0069580944 -0.011539905 0.004643911 -0.0024335887 0.040650178 -0.0298923 -0.0009032017 -0.018019155 0.01878471 0.011454332 0.009135264 0.0031899738 -0.020102764 0.0060057812 -0.010125961 -0.0027207108 -0.012446819 -0.0014602653 -0.024489816 0.005603558 0.029113237 -0.02810933 0.010868723 -0.002338251 -0.03357981 -0.026784899 -0.008010492 -0.0011115149 0.0073233373 -0.03992844
recommended -0.0020664907 -0.01465464 0.0050044362 0.011003135 -0.001540181 -0.020400234 0.012495954 -0.026208436 -0.025423454 -0.0034799997 -0.01021542 0.018617174 0.018405631 0.0079655405 0.008391796 -0.009519553 -0.012523497 -0.004915361 0.0111172 0.00068209524 -0.02747885 0.022339184 0.0005100023 -0.007109698 -0.00064354256 -0.01743324 0.002790072 0.007202598 -0.0027530666 -0.04273411 -0.010221458 0.011771964 0.010318977 -0.012629451 -0.023276376 -0.018019976 0.012774441 0.0018090613 -0.0044756494 -0.013296715 0.016668284 -0.020412639 0.021759512 -0.00016579342 0.033099893 0.0043954775 0.016529815 -0.016293628 -0.0038271302 -0.01407827 0.0037640186 0.011014386 0.012347424 -0.019922996 -0.025445897 0.015468559 0.0006411744 0.024266098 0.0021925948 -0.006958475 -0.009269375 0.020919485 0.0045858207 0.02131252 0.005788271 0.009719953 -0.008964421 0.004154264 0.0020763422 -0.003926169 -0.00813244 -0.0082110455 0.0037878419 -8.3488696e-05 0.028030457 -0.023999698 -0.0051047173 -0.013167446 0.018574689 0.001822425 -0.00036054835 0.008318985 -0.011508956 0.011906394 -0.0068016653 -0.003990319 -0.007738568 -0.0015874587 -0.020195894 0.002332627 0.021861395 -0.01880899 0.0072458107 0.0023430947 -0.021279695 -0.02093961 -0.0009937803 -0.0006718504 0.0046177967 -0.03655675
attempts -0.004107229 -0.024992982 0.011431858 0.012102047 -0.0055351686 -0.02231315 0.019379338 -0.031224117 -0.037158784 -0.0049518105 -0.012152426 0.021696188 0.020575816 0.0065959385 0.009367327 -0.015523836 -0.019089542 -0.014653075 0.009030516 -0.009092988 -0.03907918 0.031102711 -0.004182062 -0.011225348 0.008399662 -0.026520086 0.003946712 0.0016753605 -0.0041881995 -0.049301576 -0.010003861 0.020084575 0.012523884 -0.017820682 -0.03501831 -0.020212924 0.015993742 0.0095332125 -0.008913814 -0.022150556 0.026476096 -0.025718499 0.017575808 0.0017892937 0.035313252 0.015808724 0.02313115 -0.014833044 -0.008576052 -0.01536463 -0.0027388642 0.009998607 0.018207537 -0.027151458 -0.030602971 0.019711109 -0.002678774 0.027447985 0.008860486 -0.008049342 -0.01666098 0.027099134 0.008640981 0.020773763 0.009465042 0.010082887 -0.009575704 0.0034578324 0.009008568 -0.006390511 -0.0014680909 -0.012092449 -0.0018031006 0.0059183002 0.041872907 -0.025998611 -0.008826637 -0.015583082 0.022428172 0.005080487 0.0006657649 0.0025188718 -0.018520372 0.008464531 -0.0152019765 -0.0053315633 -0.0089553995 0.004525232 -0.018633965 0.0057928353 0.03066361 -0.025211738 0.018723613 0.002022539 -0.03110902 -0.018330365 -0.008363681 -0.002816633 0.011484403 -0.046601024
transferred -0.0042164563 -0.022872746 0.011173121 0.012807832 -0.002417416 -0.017837716 0.012047909 -0.034454696 -0.03160444 -0.0028851042 -0.011858699 0.019849831 0.017517345 0.0137197245 0.010928611 -0.018186472 -0.019104352 -0.010955723 0.0171945 -0.009198445 -0.036336742 0.030292833 -0.0020489309 -0.018305995 0.0047505302 -0.026849374 0.0052295467 0.0037940058 -0.0011859154 -0.057151165 -0.0073653604 0.023728637 0.0050468403 -0.01970472 -0.0279734 -0.0147471735 0.01024197 0.012352709 -0.007049488 -0.016956761 0.0237583 -0.025328085 0.025479034 0.007887793 0.033830054 0.015891097 0.019510966 -0.018032292 -0.014504629 -0.015215068 0.005884401 0.014089419 0.015580812 -0.036044437 -0.03551743 0.016832333 -0.0044363313 0.028337464 0.00716728 -0.0076892087 -0.010038247 0.028255198 0.010399831 0.026932484 0.002115411 0.012205879 -0.007646964 0.005891244 0.011213788 -0.0074853357 -0.0066321096 -0.009710576 -0.00044240733 0.003294247 0.040077988 -0.021383546 -0.0049273 -0.019297693 0.018413141 0.0059524085 0.0015251262 0.010966949 -0.020933814 0.01027561 -0.015286855 -0.003741405 -0.016015623 0.0034592885 -0.019872183 0.0057410193 0.030623382 -0.021714183 0.018686203 -0.0012573857 -0.03062992 -0.02387264 -0.009757784 -0.008173002 0.0049953833 -0.037453376
admitted -0.0065890877 -0.02516323 0.009945963 0.017132964 -0.0066210898 -0.021883609 0.015388239 -0.032088496 -0.03638096 -0.0048343497 -0.009847545 0.017333504 0.014238344 0.011628897 0.003763108 -0.020090677 -0.017391775 -0.012224751 0.011825108 -0.007838861 -0.0366066 0.029253177 0.0035253004 -0.009742157 0.0014223609 -0.02364972 0.0012073274 0.0051539647 -0.006083752 -0.053153932 -0.011933606 0.019096944 0.010606949 -0.013301356 -0.034030557 -0.021065231 0.011236335 0.0030092993 -0.00475256 -0.0127541 0.016490523 -0.020545568 0.022271777 0.0032166825 0.03938951 0.008874493 0.021823332 -0.016499244 -0.00897689 -0.011898142 0.0010944788 0.017859973 0.0155422855 -0.025450174 -0.029745137 0.018031703 -0.008573242 0.020989561 0.0040163137 -0.0070066433 -0.015070725 0.02791534 0.0077798497 0.017789232 0.0009495488 0.010260797 -0.005102406 0.009442895 0.011801361 -0.0075027794 -0.00670669 -0.013569206 -3.5002748e-05 0.0024996358 0.04231666 -0.020865534 -0.0034272592 -0.018610664 0.017981581 0.008357031 0.0027008983 0.0052709747 -0.015445443 0.012375455 -0.015488354 -0.00069042604 -0.011550608 -0.00060119317 -0.024348041 0.00015462413 0.027519567 -0.02742498 0.010668295 -0.0031296974 -0.024891097 -0.021764642 -0.007913542 -0.007130965 0.009378125 -0.034965433
psychiatry -0.00759275 -0.029493479 0.010348596 0.010735607 -0.006040027 -0.016992884 0.015526383 -0.026159955 -0.0367283 -0.0032553396 -0.009463879 0.017879602 0.023047376 0.013187373 0.012175146 -0.016175559 -0.023231983 -0.0066913855 0.013482135 -0.0019441516 -0.038611986 0.033882394 0.003351342 -0.019701464 0.0005320213 -0.029478805 0.003922538 0.0064346297 -0.0069952556 -0.05526475 -0.00641476 0.016991852 0.0069798045 -0.016699173 -0.03297818 -0.015230428 0.015471853 0.0065917317 -0.0046035647 -0.014795602 0.020738259 -0.021504808 0.018938582 0.0066643455 0.04121771 0.014868812 0.014596025 -0.020732453 -0.01568892 -0.02317316 0.00062515953 0.014611233 0.021848472 -0.0325494 -0.036441598 0.0259374 -0.0014100835 0.030317776 0.0021888723 -0.009473665 -0.012489865 0.022422366 0.006232325 0.024841584 0.002847124 0.005618178 -0.0063281353 0.010927195 0.0054189353 -0.0053455806 -0.001923433 -0.018518066 0.0046496233 0.0037193445 0.040714405 -0.021425536 -0.0071218186 -0.015899219 0.017099543 0.0051516206 0.005027781 0.0038930315 -0.017831067 0.0071505336 -0.014520436 -0.004371617 -0.013054044 -0.0025506292 -0.02688374 0.00845882 0.026221605 -0.027955128 0.01592107 0.003712453 -0.026563672 -0.022920342 -0.0050001834 -0.0027798885 0.0030474882 -0.044246465
respiratory -0.00995114 -0.027786609 0.007084038 0.01241612 -0.009573975 -0.02171118 0.016132116 -0.028059311 -0.034798216 -0.007012628 -0.009627389 0.014687617 0.01657233 0.009101749 0.008745335 -0.016913813 -0.02181921 -0.012623524 0.007870113 -0.002624682 -0.038152233 0.025535433 -0.0027391487 -0.01603382 0.002753115 -0.021669196 0.00475088 0.005885787 -0.004186299 -0.05291113 -0.012626712 0.023763938 0.0049994746 -0.019832717 -0.029333642 -0.01999166 0.0114468355 0.008955371 -0.004012482 -0.017763462 0.020334952 -0.02137571 0.02071128 0.006851919 0.039383184 0.006132309 0.01629588 -0.019896222 -0.0118652545 -0.016709426 -0.0033805782 0.011765216 0.011216141 -0.030569933 -0.034088288 0.02116579 -0.007551811 0.027220348 0.007578165 -0.00062604423 -0.007362561 0.026132898 0.0019648497 0.017757718 0.00035730487 0.010658849 -0.011686995 0.0006559181 0.0126607595 -0.008598321 5.0928542e-05 -0.01764502 -0.002367802 -0.0011144282 0.035377394 -0.02559023 -0.0024646986 -0.019025782 0.018817822 0.002574184 0.0074104024 0.009999727 -0.021428056 0.012072362 -0.011613522 -0.0042046946 -0.013344212 -0.003986418 -0.024978643 0.002298833 0.030956883 -0.019462742 0.015190937 0.003065839 -0.03217344 -0.024085026 0.00018416042 -0.0081099365 0.0066134534 -0.044054195
been -0.005865425 -0.030422233 0.010570464 0.015874498 -0.0076897563 -0.024124468 0.017472291 -0.035548106 -0.040544905 -0.010024056 -0.0034464623 0.017069226 0.024371458 0.009410888 0.014014385 -0.017584702 -0.020010853 -0.008272323 0.016852656 -0.008939417 -0.044821728 0.03638991 0.0019514071 -0.021150364 0.008669732 -0.026329415 0.005840092 0.009217425 -0.0005508376 -0.061982352 -0.0130028725 0.020277621 0.007954056 -0.016219158 -0.040196393 -0.015820967 0.013571589 0.0068477537 -0.0068772705 -0.022878222 0.027367532 -0.031482533 0.028225284 0.008132586 0.045800522 0.013363365 0.022661941 -0.02324119 -0.013158252 -0.02104088 -0.0012062574 0.013854629 0.02220693 -0.036006212 -0.038163688 0.023176773 -0.0035777995 0.028713344 0.009159888 -0.010361097 -0.011248345 0.024986025 0.0022762998 0.027471973 -0.00010607508 0.007660539 -0.008790289 0.004137064 0.014172913 -0.0030695847 -0.001529547 -0.019881992 0.0016325695 0.004757708 0.050514355 -0.027968721 -0.008575564 -0.024315106 0.017589293 0.0070897513 0.006550439 0.008674387 -0.022926744 0.011400896 -0.01186488 -0.006500809 -0.0143863205 -0.00010488885 -0.027242094 0.0043122675 0.029563172 -0.030149134 0.016082352 -0.0009373305 -0.03749109 -0.019884158 -0.0024768915 -0.00074163976 0.012605417 -0.04907923
psychiatric -0.0059851324 -0.026915763 0.0113856625 0.011931193 -0.0086294385 -0.021397201 0.017889656 -0.025776949 -0.03211989 -0.009007673 -0.003167186 0.013625779 0.013805282 0.009723658 0.005544072 -0.020190572 -0.022217304 -0.0072573964 0.00860246 -0.00630348 -0.031955246 0.02461348 0.0019869155 -0.013481357 0.007651116 -0.019259717 0.006108059 0.0014652018 -0.001700328 -0.045559656 -0.0075114793 0.016743144 0.009253654 -0.016774552 -0.02795106 -0.017829016 0.012259013 0.007134221 -0.01027163 -0.017331503 0.01778289 -0.019187046 0.023790259 0.003821804 0.035347644 0.012379874 0.02040999 -0.0164518 -0.013227765 -0.01801322 -0.0015247982 0.015997881 0.012855057 -0.03390684 -0.030700954 0.024170384 0.00024560417 0.028108029 0.010364953 -0.0044831433 -0.009714649 0.026701534 0.0035546657 0.016956812 0.0010386854 0.0042312257 -0.010799055 0.009085829 0.0033830148 -0.00041017696 -0.007830172 -0.011443624 0.0024967415 0.005587075 0.037298366 -0.018387469 -0.00935464 -0.0145055745 0.014715866 0.0026447156 0.005466047 0.0060745818 -0.01903421 0.0065930616 -0.018062154 -0.004230441 -0.015781844 -0.0037734283 -0.019846616 0.007611889 0.021750549 -0.020945122 0.0118491575 -0.0017187932 -0.02913405 -0.022324873 -0.003358245 -0.005557225 0.0025678915 -0.043056525
attending -0.009023396 -0.029005252 0.00809458 0.014621998 -0.005935517 -0.023983961 0.0141250715 -0.035543535 -0.034639455 -0.010935495 -0.0070970356 0.020911893 0.022643035 0.0048296363 0.013733863 -0.01688337 -0.023749078 -0.015816618 0.009881366 -0.0025054407 -0.04309241 0.02627973 -0.0021828124 -0.01130236 0.0025813032 -0.031207085 0.007598698 0.009073248 0.00040446056 -0.062261578 -0.013335504 0.018240673 0.009305095 -0.0213351 -0.039731927 -0.02201682 0.012945635 0.0058240774 -0.010809033 -0.021648567 0.02794436 -0.031218838 0.020080421 0.005992258 0.042581838 0.010674386 0.020620698 -0.019853441 -0.014379867 -0.01648223 -0.0009434548 0.019601703 0.022701357 -0.032435976 -0.029525159 0.018475475 -0.0017022061 0.030400319 0.0060315584 -0.005312848 -0.010572358 0.032161787 0.011111078 0.023083972 0.0067978753 0.007962912 -0.0068168985 0.010722684 0.014607465 -0.006135299 -0.0027677347 -0.012047324 0.0047597475 -0.0028118214 0.04374567 -0.027040072 -0.0072255987 -0.018514784 0.020840477 0.011948292 0.008861633 0.003094809 -0.017809326 0.00839683 -0.0145812305 -0.00039774147 -0.015459092 0.0017283947 -0.02370576 0.005504248 0.033916824 -0.021317001 0.018517133 0.0036272726 -0.031347267 -0.022909552 -0.0018578807 -0.0029413868 0.010975293 -0.040738545
diagnosis -0.0076134554 -0.024585173 0.006830509 0.013488057 -0.0061896383 -0.026058706 0.012696104 -0.033334278 -0.030697025 -0.0061201337 -0.0039283433 0.018563418 0.02274893 0.006481952 0.003981011 -0.020756023 -0.020142563 -0.009072927 0.016711753 -0.0061471374 -0.035362814 0.030058004 -0.0029379334 -0.019317098 0.008316473 -0.024031665 0.0072585437 0.0029715342 -0.0074363486 -0.057450287 -0.012718233 0.022315403 0.009403144 -0.015209464 -0.03574721 -0.019370671 0.017434986 0.010536272 -0.0064275926 -0.018686261 0.023145095 -0.025748307 0.018238585 0.007411802 0.041519795 0.011137926 0.016267082 -0.019642282 -0.015566464 -0.015333173 0.00091420655 0.01855078 0.013290305 -0.033645455 -0.037800293 0.021266056 -0.009539135 0.030887065 0.009168116 -0.0056811813 -0.017868942 0.022946216 0.0029122022 0.027512051 6.889481e-05 0.012599624 -0.012232722 0.005422534 0.008138651 -0.008050908 -0.0023232228 -0.011580762 0.004910721 0.0054324013 0.04423465 -0.024164602 -0.006541498 -0.024895666 0.017655179 0.0071601253 0.004263759 0.0030352657 -0.018419174 0.010409093 -0.012050923 -0.00012294576 -0.010020578 -0.0024841488 -0.025002103 0.0041285614 0.02731534 -0.020515744 0.010264819 -0.00031199688 -0.03458399 -0.025871353 -0.0061851023 -0.0068934103 0.0030733086 -0.04652911
secondary -0.0037556868 -0.022129776 0.0080430815 0.011617027 -0.0070967814 -0.015433991 0.016622605 -0.032888614 -0.036134206 -0.00043670906 -0.009750456 0.017860886 0.022216402 0.008175713 0.0062302817 -0.015102028 -0.020725995 -0.005586403 0.010153007 -0.0032351194 -0.0371916 0.029034173 -0.00042314857 -0.014505506 0.0051875873 -0.027663114 0.0064561334 0.0033983684 -0.001146417 -0.050960615 -0.01124897 0.024320284 0.006838114 -0.015288365 -0.03367899 -0.015674226 0.012933948 0.011816932 -0.0027800412 -0.015186054 0.018943 -0.025379803 0.016167158 -0.00071815215 0.03724955 0.014355689 0.018252186 -0.022860814 -0.009451719 -0.015015051 0.0029599834 0.017845673 0.012897287 -0.0308626 -0.02737271 0.023729956 0.000435158 0.028465584 0.0040747933 -0.0088964775 -0.013428029 0.026835237 0.0021834336 0.024807993 0.0008826316 0.0070087495 -0.007356486 0.0064360513 0.0135362195 -0.00235722 -0.005781693 -0.009978847 0.0015515559 -0.0019297866 0.04469334 -0.02719575 -0.0071958536 -0.02062845 0.01309607 0.004312966 0.0022072191 0.0039852676 -0.013330739 0.0085127475 -0.016491821 -0.0016253262 -0.013918927 -0.0018284428 -0.018920068 0.0030355994 0.029268201 -0.026900556 0.012065435 0.0061840066 -0.03128109 -0.022246145 -0.0032228557 -0.0057239276 0.010446293 -0.037215352
etoh -0.0034807438 -0.023055356 0.013873774 0.020436931 -0.0076049725 -0.022344032 0.013987339 -0.035731886 -0.035988066 -0.007321911 -0.003752532 0.01605331 0.015485111 0.0072101587 0.0072321375 -0.020765707 -0.019223174 -0.012964912 0.01206844 -0.00060837786 -0.039902993 0.032078438 0.0018937025 -0.013722028 -0.001318168 -0.02680504 0.007711211 0.0056318166 -0.0064856075 -0.051971033 -0.0042155907 0.021006856 0.011745502 -0.021377217 -0.037493058 -0.01673582 0.009050987 0.012176313 -0.0023240796 -0.02020271 0.021651927 -0.026178999 0.018328128 0.007592149 0.035670627 0.009132711 0.02370617 -0.016305055 -0.006425969 -0.01787151 0.00230864 0.017027548 0.020350432 -0.03041259 -0.036048662 0.016434608 -0.0065327715 0.027810054 0.0073366542 -0.0065995837 -0.01771005 0.025293682 0.0062120245 0.02576093 0.005938405 0.010504887 -0.015166118 0.0028343124 0.01304794 -0.0027500526 -0.0028844632 -0.012774744 -0.00032049313 0.003426742 0.04924714 -0.023515763 -0.0028572523 -0.022514017 0.015003205 0.004950335 0.00969603 0.007845964 -0.022772217 0.013020637 -0.009364059 -0.0021389676 -0.007841612 0.00048754844 -0.027423887 0.005004836 0.02634923 -0.024012895 0.0121781 -0.0016791184 -0.029987564 -0.020706322 -0.009596186 -0.006809726 0.002594593 -0.03993878
hospital1 -0.0061505185 -0.018437838 0.0082863085 0.013089208 -0.010541576 -0.015456424 0.016505495 -0.031868093 -0.03277245 -0.00192751 -0.0055772928 0.016398508 0.02176748 0.0070068785 0.006052119 -0.018277066 -0.024385046 -0.01311842 0.008868108 -0.005059164 -0.03727141 0.031756382 0.0016658603 -0.010031672 0.0005253345 -0.02149462 0.0024676402 0.008079494 -0.0019585981 -0.054700762 -0.003219638 0.02378797 0.009105445 -0.01304543 -0.028539296 -0.021517493 0.0070962184 0.005639905 -0.0027239756 -0.020989122 0.025560465 -0.028083442 0.023775965 0.0058238823 0.03982435 0.011143028 0.019497685 -0.023239901 -0.008981181 -0.0182222 -0.0029292398 0.012412925 0.016827717 -0.030173205 -0.03461542 0.01931112 -0.0046102665 0.025336187 0.008737602 -0.0037618645 -0.0146648465 0.025164004 0.00060084154 0.024375636 0.0049925954 0.007748112 -0.014088524 0.0072530587 0.012893276 -0.006249215 -0.0075681414 -0.009470757 0.0058685015 -0.0037168497 0.042179283 -0.027576761 -0.0034540675 -0.0208067 0.017282976 0.009014467 0.0002773765 0.0093899295 -0.018296737 0.012810113 -0.00956492 -0.00072085013 -0.013114884 -0.0041007968 -0.018731076 0.006406381 0.025577277 -0.019801881 0.011118981 0.0011834702 -0.030186208 -0.020525511 -0.0037908019 -0.00012325338 0.007460574 -0.03893774
were -0.007250917 -0.022951158 0.010120721 0.013775417 -0.00603593 -0.018002125 0.010985232 -0.033663843 -0.03965766 -0.0061532115 -0.011824817 0.022425605 0.015796127 0.0051356307 0.0042126714 -0.0146037005 -0.01820033 -0.010926503 0.016462544 -0.00327869 -0.04101341 0.02724242 -0.0038379433 -0.01138267 0.008149544 -0.026026279 0.0038093575 0.0065092347 -0.0060006236 -0.05866154 -0.01061877 0.0248232 0.004337207 -0.015931185 -0.031999927 -0.024343416 0.008140249 0.005305704 -0.0030028278 -0.019580537 0.029417453 -0.030904124 0.028732944 0.0006905437 0.038503688 0.011809517 0.02137194 -0.024374511 -0.01613074 -0.01541622 7.2054696e-05 0.013128666 0.01741573 -0.031696543 -0.034952827 0.020025024 -0.0042225607 0.031783532 0.00992512 -0.00744693 -0.011514649 0.030974919 0.004471916 0.020410905 0.007777994 0.007647942 -0.011408846 0.0035071739 0.012763165 -0.0020281696 -0.006780338 -0.01993464 0.0008977417 0.005146545 0.04211787 -0.02498995 -0.009402944 -0.016321054 0.02060556 0.011865433 0.00055928645 0.0017876371 -0.018954083 0.0059238565 -0.015460505 -0.007955186 -0.011990483 0.0035639533 -0.021929285 0.0029946768 0.03376148 -0.023797138 0.01663728 0.0053986 -0.03634776 -0.019917712 -0.0017024523 -0.008816472 0.0074771247 -0.045624495
suicidal -0.0075449888 -0.029439231 0.005358797 0.018945655 -0.0031782978 -0.024205545 0.01939413 -0.03083522 -0.036242045 -0.0009765122 -0.00803691 0.017148178 0.01695965 0.01360604 0.009368538 -0.016972844 -0.022473184 -0.0137455575 0.008740677 -0.004031022 -0.03796157 0.03245132 -0.0026586093 -0.015650524 0.00062434125 -0.029043553 0.00909817 0.0068379235 0.00046777233 -0.056817606 -0.0042127525 0.017349089 0.007093012 -0.013182493 -0.037467882 -0.017968066 0.013247386 0.012805906 -0.007301721 -0.014307092 0.026915034 -0.022701135 0.020019516 -0.00040267734 0.038319647 0.011267849 0.018933153 -0.022282014 -0.010099813 -0.02170322 -0.0028894076 0.016071312 0.021854261 -0.03487363 -0.034850024 0.021852955 -0.0025643946 0.023052325 0.00062787783 -0.0042250827 -0.014769543 0.023318255 0.0078536775 0.027662087 0.0013429412 0.0092109535 -0.006722075 0.011077871 0.005799209 -0.0039793984 -2.2780916e-05 -0.018525168 -0.003352233 0.004328101 0.04451548 -0.021469401 -0.004929645 -0.014240218 0.023010314 0.010111208 0.0068070428 0.0028705425 -0.017220538 0.006270554 -0.0136406 -0.00057006825 -0.00987494 0.0042232196 -0.026731927 0.0035009705 0.026354838 -0.02196755 0.015738657 0.005372787 -0.027741678 -0.02468643 -0.004831999 -0.0027345566 0.0074822945 -0.04038373
seen -0.0057124686 -0.02489389 0.008951288 0.020036042 -0.005321101 -0.023185553 0.011042056 -0.0286961 -0.03964927 -0.005058683 -0.006430153 0.024373328 0.023330808 0.009137862 0.0062725698 -0.012584869 -0.024593474 -0.0120713 0.015589256 -0.0044786916 -0.034865562 0.031824928 -0.0028005147 -0.017580355 0.0055669085 -0.021184936 0.008538221 0.0035467062 -0.00886174 -0.05512446 -0.005004393 0.01939027 0.0050373143 -0.015531864 -0.039137747 -0.020559868 0.015334318 0.01367999 -0.0022901306 -0.015393201 0.027509285 -0.025701953 0.024879586 0.0032487593 0.040382154 0.015496102 0.018336678 -0.01727742 -0.008965935 -0.022761697 0.004183977 0.015016206 0.014649214 -0.031817332 -0.03679516 0.018889206 -0.0031370611 0.031913508 0.0015082912 -0.00225026 -0.0183526 0.03183169 0.0018841012 0.02702726 -5.6367344e-06 0.005652087 -0.01123056 0.0032183705 0.0073039774 -0.005901515 -0.009507598 -0.017544772 0.0017476225 0.0006927856 0.04043898 -0.02545322 -0.005423534 -0.0154811125 0.014705655 0.011309508 0.007563325 0.008638373 -0.017280849 0.010463605 -0.019636333 -0.009428251 -0.012521669 0.003539299 -0.02470209 -0.00021665201 0.029481491 -0.023074625 0.01613367 0.004434653 -0.033977527 -0.019838022 -0.00137517 -0.0042830007 0.0027090956 -0.04568191
surgical -0.0066444585 -0.018585881 0.011241252 0.009491888 -0.0021963688 -0.017352808 0.013725836 -0.021882063 -0.03328925 -0.00092418847 -0.008781689 0.012581092 0.015527779 0.003953129 0.004941949 -0.011782255 -0.015157447 -0.014350573 0.010687322 -0.00196284 -0.030680899 0.026482739 -0.0031233665 -0.013986174 0.0060166772 -0.025005728 0.006552549 0.0067092893 0.00053893466 -0.051687572 -0.0050563924 0.020132076 0.01177568 -0.018956728 -0.033159077 -0.016145807 0.011596744 0.012239924 -0.0005460749 -0.017442042 0.022203775 -0.019017074 0.022712734 0.0035128186 0.030691557 0.013791667 0.016471017 -0.012940463 -0.009447035 -0.016928332 0.003428188 0.01077841 0.014738027 -0.03351714 -0.027947674 0.014683594 -0.008801409 0.018516228 0.0030021097 -0.0103033455 -0.011918411 0.01862679 0.0034021619 0.019090975 0.00020118177 0.009387407 -0.012669371 0.009342391 0.008362509 -0.0006877018 -0.002545173 -0.016651941 1.2753384e-05 0.00043393087 0.040368687 -0.02710609 -0.0072450913 -0.02121464 0.017586881 0.0060205427 0.0065060803 0.0006454579 -0.019928385 0.0062567815 -0.012026902 -0.0035649794 -0.014998535 -0.004668995 -0.018266322 0.0074154283 0.023567164 -0.024086235 0.016451854 0.0046448135 -0.02911935 -0.01962782 -0.008495865 -0.0013117279 0.002564546 -0.0361544
medically -0.0051354985 -0.023539752 0.008152391 0.014971555 -0.0070953174 -0.02112996 0.014984504 -0.026629513 -0.027251566 -0.0008114051 -0.007467832 0.01579167 0.015623333 0.004014272 0.00299405 -0.012509454 -0.016394421 -0.014240043 0.009406674 -0.0059657884 -0.026194269 0.026480442 0.0031837511 -0.017015632 0.005300389 -0.022878218 0.0069658593 0.006769608 -0.0057465048 -0.044074245 -0.0032097567 0.015427836 0.005150245 -0.008657504 -0.026618795 -0.019899802 0.0074573765 0.008341858 -0.007879641 -0.012020304 0.02378722 -0.022918673 0.021883687 0.006789428 0.0323485 0.0060614944 0.012328445 -0.014151952 -0.006048232 -0.015846036 0.0038538086 0.00836527 0.017825918 -0.024193177 -0.024274776 0.018775944 -0.006881209 0.018556349 0.009075477 -0.001841289 -0.008877536 0.024910588 0.007267291 0.024044733 0.0030377593 0.0065851887 -0.012745638 0.00999259 0.011205493 -0.008236874 -0.0052321944 -0.010283102 0.0042139105 0.0022029844 0.04063289 -0.023147918 -0.003998846 -0.013979977 0.01703865 0.0007021991 0.0030834996 0.007970982 -0.020158352 0.008058204 -0.011120403 -0.0065292106 -0.008973783 -0.004148262 -0.014618092 0.0049249874 0.027232176 -0.021939883 0.015272214 0.005964367 -0.02493968 -0.016396467 -0.0057000634 -0.0023958278 0.0014602653 -0.03969338
psych -0.00338194 -0.024237493 0.012587207 0.015226481 -0.006822816 -0.019901587 0.017843228 -0.029718816 -0.035932142 -0.01143627 -0.004959716 0.025779845 0.021884795 0.012226407 0.0073789055 -0.016544795 -0.027798263 -0.011627344 0.014186168 -0.0070754113 -0.04272333 0.033995606 -0.004523429 -0.01639378 0.0045837727 -0.023281548 0.007423525 0.009401568 -0.008685725 -0.058921915 -0.009599523 0.019686773 0.010091818 -0.017337337 -0.03754574 -0.016389124 0.008879987 0.0067387745 -0.0016820006 -0.02070225 0.020939019 -0.025731748 0.028206795 0.0045597143 0.03838479 0.015739916 0.016776921 -0.024355592 -0.007275281 -0.021964986 0.004525934 0.015789688 0.017351668 -0.03224169 -0.033680905 0.026971078 -0.006220914 0.025575396 0.0019925889 -0.010112984 -0.017776506 0.026848616 0.0089271525 0.021454833 -7.361941e-05 0.011577999 -0.012544783 0.0054330905 0.013059245 -0.0044740806 7.9978105e-05 -0.011916554 -0.002169373 0.0014052354 0.050545778 -0.031121792 -0.004748132 -0.020909622 0.016788289 0.009202673 0.0029791042 0.008809951 -0.017025126 0.015251977 -0.0146739725 -0.007541165 -0.011274048 0.0041152528 -0.02756281 0.0034620804 0.03176281 -0.030901954 0.014507813 -0.0004988107 -0.036077093 -0.027439734 -0.008455713 -0.007320524 0.008755477 -0.046738822
known -0.0034108432 -0.021671725 0.008585456 0.016138949 -0.0059337113 -0.017220328 0.00770863 -0.025137782 -0.021578507 -0.0036290786 -0.005813214 0.011012673 0.012229617 0.0048700166 0.0077389935 -0.010300549 -0.018069519 -0.004693712 0.009867731 -0.0018085738 -0.024395756 0.023152858 -0.001781881 -0.01561349 -0.0021098037 -0.02262999 0.008970264 0.0071017076 -1.0827187e-05 -0.041408755 -0.010609902 0.019532066 0.011758567 -0.016335586 -0.02937228 -0.016046438 0.004761351 0.009556734 -2.7109561e-05 -0.01750639 0.01739623 -0.017260153 0.0126695605 -0.0024553183 0.02595968 0.009935019 0.009589754 -0.017033843 -0.009620422 -0.018677766 -0.00036701598 0.011989006 0.013644076 -0.028420802 -0.02373815 0.014630063 -0.00011519647 0.023404777 0.0010548616 -0.0038793227 -0.011950325 0.01571559 0.006762643 0.020425634 0.0008404153 0.002409187 -0.005444223 0.00873004 0.009239834 -0.008636976 -0.006126958 -0.0142507665 0.0032622819 -0.0031877903 0.030664366 -0.018584773 -0.0073713018 -0.010970391 0.017127309 0.008667389 0.00024955158 0.004907372 -0.013865723 0.011307716 -0.012780022 -0.0012241356 -0.009762294 0.0047920537 -0.018526943 -0.001363361 0.020496212 -0.014964389 0.013524725 0.0032784396 -0.02689261 -0.018285222 -0.0006757461 -0.006255876 0.007587349 -0.033980615
ideation -0.004093058 -0.025855388 0.010095195 0.009630376 -0.0032975539 -0.01424361 0.013588983 -0.026512964 -0.03381421 0.00013808445 -0.008919207 0.013376367 0.014901645 0.0077518406 0.008960962 -0.017040154 -0.023071256 -0.006484804 0.011014794 -0.0031762486 -0.028109562 0.027772719 -0.0020228834 -0.016986351 0.006980923 -0.026315914 0.008797075 0.0063745687 -0.0009957515 -0.050683837 -0.010272219 0.016176475 0.0044303034 -0.01405166 -0.03334864 -0.013152287 0.006145352 0.011383552 -0.004187836 -0.01694704 0.018807273 -0.022930574 0.014704817 -0.0004472467 0.036355324 0.014681958 0.013375783 -0.02103864 -0.004713144 -0.016444009 -0.00018425187 0.010523406 0.017931553 -0.025926534 -0.02624919 0.021716293 -0.001873899 0.02380802 0.0072476207 -0.008325233 -0.0071651675 0.023652062 0.0056730523 0.018405357 0.005538732 0.0110714175 -0.007243638 0.0026298987 0.002932297 -0.0099567445 -0.00456659 -0.015268162 0.0037380198 0.0058539785 0.03494661 -0.026623325 -0.0007692797 -0.015969457 0.011702381 0.0063570873 0.0044679553 0.0011395868 -0.018496072 0.011063618 -0.011248044 -0.003905048 -0.013703154 -0.00039894122 -0.017356217 0.00854254 0.026464032 -0.018510753 0.00727968 0.0035534038 -0.02991553 -0.017375413 -0.0059275543 0.0011812246 0.008537132 -0.038902517
consulted -0.0021441027 -0.023903126 0.012919042 0.009576337 -0.00520648 -0.016398156 0.008547648 -0.026182828 -0.027434422 -0.0086837 -0.00440353 0.012972328 0.01629928 0.012559168 0.009954794 -0.013486167 -0.022131225 -0.008696693 0.012311268 -0.00876259 -0.030041894 0.022782037 0.000999548 -0.013022327 0.0069772615 -0.024019415 0.003457259 0.0056128534 -0.00019468169 -0.04942047 -0.0095121125 0.020770563 0.011810904 -0.013389884 -0.030075623 -0.013987328 0.009756327 0.008464669 -0.0026351209 -0.018927462 0.021757418 -0.020294148 0.020825049 0.0071652755 0.035255972 0.009275867 0.022140468 -0.020205297 -0.009267285 -0.019928658 0.0015724318 0.014745135 0.017232241 -0.03189484 -0.025482075 0.016691951 -0.0069671785 0.020127049 0.007271064 -0.006695224 -0.012110303 0.019177342 0.008858136 0.01601251 0.0012440175 0.008378267 -0.0073508206 0.010192673 0.009808967 -0.0026461843 -0.008045795 -0.01623442 0.006248749 -0.0031098495 0.03975541 -0.017461821 -0.000142585 -0.013569111 0.017917916 0.0027096414 0.006276318 0.0061645745 -0.020680016 0.008813846 -0.011738494 -0.00042756536 -0.013105569 0.0052139526 -0.01897712 0.005142487 0.024751185 -0.023016574 0.014105993 0.0052604116 -0.02350908 -0.018948805 -0.0035796158 -0.0065848446 0.0016445166 -0.034436457
inpatient -0.0055013513 -0.02600685 0.006135099 0.0149182305 -0.0033824432 -0.017374802 0.013885841 -0.024190402 -0.032891467 -0.0012471657 -0.0065756347 0.01327766 0.015805751 0.007037281 0.011768903 -0.01057761 -0.01495748 -0.011624441 0.015689168 -0.0077818017 -0.035209432 0.027377514 0.004072903 -0.018141808 0.004271524 -0.026507275 0.0057834648 0.007438603 0.0014376456 -0.05325873 -0.002299849 0.017850567 0.0065077185 -0.010419889 -0.033658456 -0.021156946 0.008867732 0.009898961 -0.009319225 -0.0115320515 0.023017835 -0.02732231 0.02283548 0.0013158638 0.033497304 0.010149369 0.017392283 -0.015608186 -0.008696035 -0.017925512 -0.0021059967 0.014965568 0.015654288 -0.030722965 -0.028281277 0.022676336 -0.0035860983 0.027418876 0.007649671 -0.0024644777 -0.013883846 0.02602854 0.0012973233 0.020021783 -0.00020407188 0.007864253 -0.008614296 0.006626548 0.012630836 -0.005944659 -0.0023370087 -0.007452634 0.00016937089 0.0043265345 0.039781757 -0.023367057 -0.008457761 -0.017800905 0.017441 0.0064540543 0.006845802 0.0016883564 -0.020953178 0.0056578275 -0.008353351 -0.0066107158 -0.013439522 0.0009481761 -0.016366387 0.002444518 0.02529983 -0.022266801 0.017437518 -0.0015662597 -0.02776526 -0.018942263 -0.005796979 -0.0037813717 0.007442112 -0.037373953
chronic -0.009895982 -0.024395337 0.0062640067 0.0125053255 -0.005554706 -0.011789867 0.007199116 -0.027588362 -0.02911071 0.00027545076 -0.008920191 0.013209293 0.017083667 0.004955415 0.0065058195 -0.01736851 -0.016288351 -0.0072349766 0.0053065894 -0.0057822973 -0.033829633 0.025358088 0.00545735 -0.007754546 -0.001263298 -0.018260011 0.0038355493 0.0075867074 -0.0026222446 -0.047388777 -0.008032595 0.012461023 0.010625245 -0.007809781 -0.02869013 -0.017363269 0.010678497 0.0058530807 -0.0071920156 -0.009247001 0.017164364 -0.023275238 0.021426924 0.006496266 0.0351121 0.0063387905 0.016444989 -0.012939348 -0.009112882 -0.010601962 0.0020862143 0.0135295605 0.010939154 -0.028845552 -0.028835606 0.014948174 -0.007878564 0.017316453 0.00023956096 -0.009157246 -0.0061657308 0.025181605 0.008660927 0.018112285 -0.0016791007 0.0108574 -0.0063039847 0.0069364454 0.010458823 -0.0025302258 -0.0047027073 -0.013509 0.003162547 -0.000112617265 0.03807548 -0.015203341 -0.008127348 -0.01072185 0.018702375 0.0043667653 -0.0005987622 0.0058471956 -0.0142870005 0.009222304 -0.012721067 -0.0016953938 -0.0053590415 0.00086686295 -0.017660758 0.007921399 0.01882236 -0.023723107 0.014201593 -0.001577579 -0.026979018 -0.02240751 -0.00087892433 -0.0024671324 0.008706856 -0.036175065
further -0.006588394 -0.02091153 0.005472403 0.015148512 -0.008211184 -0.016371531 0.00962161 -0.021544112 -0.027817355 -0.009793488 -0.006735716 0.021511108 0.017457297 0.012328329 0.004559196 -0.016233154 -0.021467354 -0.008613563 0.009224107 -0.0060394583 -0.031899493 0.028527249 0.0011594499 -0.009418079 -0.0013180852 -0.019266093 0.007882516 0.0046019075 -0.001634549 -0.04315121 -0.0027522356 0.020437516 0.0112470025 -0.017077632 -0.02661302 -0.015171991 0.009790601 0.0041878344 -0.010588219 -0.017504573 0.020444905 -0.02287076 0.021805566 0.0059909346 0.030268766 0.012405384 0.019948384 -0.012011665 -0.013074874 -0.012927314 0.004933328 0.013004715 0.009436831 -0.027012883 -0.032708608 0.018101793 -7.067946e-05 0.021672761 0.0015863698 -0.0031234643 -0.008192824 0.024451936 0.0057315812 0.022407085 0.005288779 0.009489335 -0.0052158358 0.0032819207 0.0079430705 -0.007969622 -0.0046844375 -0.008472768 -0.0009459012 0.0060339305 0.035991244 -0.02227325 -0.0037025963 -0.013344346 0.019735048 0.0069246744 0.0086307395 0.010348524 -0.013795605 0.007903441 -0.009109035 -0.006846079 -0.014211084 -0.0020675508 -0.014700052 -0.00020120163 0.01976941 -0.019563925 0.008896042 -0.0008832156 -0.025392052 -0.016091162 -0.0029809834 0.001123291 0.007218972 -0.04170513
bipolar -0.010707647 -0.020299114 0.008055302 0.011786785 -0.004370603 -0.012461838 0.014822735 -0.022195 -0.02493526 -0.0067567164 -0.0075171203 0.012638663 0.012807952 0.004237587 0.0015810705 -0.013809202 -0.012922607 -0.009491544 0.006884571 -0.006879523 -0.026966227 0.020190204 0.003693572 -0.015844211 0.0035649778 -0.024697084 0.0060960073 0.0024498352 -0.0070711356 -0.04830266 -0.01082437 0.01525323 0.0055364063 -0.015600263 -0.029979361 -0.017496902 0.014191034 0.005325174 -0.004396295 -0.0193039 0.018938035 -0.023679707 0.020399284 -0.0022167307 0.031567704 0.0065698875 0.0195256 -0.01881371 -0.005394255 -0.011635672 -0.0038772647 0.016558038 0.017074686 -0.03064086 -0.028859183 0.020983104 -0.0023613155 0.017250257 0.0023255427 -0.00887913 -0.0073667173 0.025312604 0.008583954 0.019461785 -0.0002318162 0.006064291 -0.010703756 0.00057583035 0.011851388 -0.0073112277 -0.004815709 -0.008314983 0.00028073293 0.0034016157 0.03269562 -0.021349553 -0.0038082427 -0.019179035 0.01099801 0.008555259 0.00485934 0.0070078955 -0.014978344 0.0040325997 -0.012176769 0.00039972278 -0.014873713 -0.0036523407 -0.021149505 0.0019098796 0.021468896 -0.01994147 0.008231913 0.0010494982 -0.02494415 -0.01609864 -0.007254292 -0.0016982802 0.0035908087 -0.03909627
discharged -0.007298606 -0.021077475 0.0068003135 0.0075446954 -0.00015126372 -0.017256334 0.011043561 -0.01999619 -0.02394069 0.0008340952 -0.0080075925 0.017102765 0.012999643 0.0064045824 0.00871401 -0.007949212 -0.017325578 -0.006995527 0.012603696 0.00042956887 -0.031151036 0.022087285 0.0014481036 -0.013107344 0.0015407035 -0.018402662 0.008355715 0.008531686 -0.0073436424 -0.035291806 -0.0029299806 0.011576719 0.010884645 -0.012649767 -0.024801325 -0.011204578 0.012373918 0.0100603225 -0.007327431 -0.015927264 0.017752368 -0.013464068 0.019469623 0.00029964003 0.023640111 0.0046646046 0.015515015 -0.01714863 -0.010270802 -0.018380309 -0.0027084611 0.014172311 0.015763508 -0.019696461 -0.023281526 0.015879568 -0.0066895983 0.023167305 0.00028587866 -0.0032088747 -0.01120895 0.017459918 0.00033696266 0.017837048 0.00030523978 0.0071517397 -0.010245714 0.0073726587 0.006080721 -0.0026348839 0.00025194962 -0.01234145 -0.004097833 -0.0025782005 0.03392422 -0.016605886 0.000593697 -0.01729423 0.014185056 0.0037973137 -0.00030124054 0.0053076465 -0.009409058 0.0081904195 -0.011658479 -0.00045854758 -0.012073101 -0.0038324518 -0.015458936 0.0036137563 0.024278417 -0.014360605 0.011001693 0.0023701922 -0.016966132 -0.012073289 -0.007106508 -0.007284878 0.009633952 -0.036086902
felt -0.0019659195 -0.022974668 0.010783811 0.013226905 -0.004404063 -0.01757706 0.00868338 -0.02473105 -0.025537092 -0.0076602274 -0.0024924444 0.014402398 0.019669602 0.0069600767 0.004338536 -0.010758655 -0.0171849 -0.006889291 0.008331568 0.00052119826 -0.03256283 0.02555878 -0.0019489318 -0.0074335975 0.00083579833 -0.022091076 0.00097464107 0.004193799 -0.0006484263 -0.044524837 -0.0023765324 0.01741136 0.002399613 -0.013914472 -0.03102985 -0.016475294 0.00762911 0.009380931 -0.006321615 -0.01676405 0.022135977 -0.024969567 0.015526419 -0.002058459 0.03469785 0.005606458 0.012859561 -0.019268982 -0.013330785 -0.017829672 -0.002797833 0.015917396 0.008812823 -0.02211813 -0.030789476 0.02203387 -0.00041962342 0.023917371 0.0071042287 -0.006283984 -0.010581128 0.01994994 0.008002297 0.020611918 0.0027713622 0.010232898 -0.0037714771 0.0066434 0.0089833075 -0.004021813 0.00066184264 -0.015492158 -0.0029940587 0.0033960072 0.033538718 -0.020817116 0.0006759834 -0.011290199 0.010625203 0.0011170626 0.008769168 0.0034134968 -0.018026404 0.0131523525 -0.013986701 -0.008441462 -0.004896236 0.001528099 -0.019812267 0.008591278 0.019245822 -0.016159318 0.011184104 0.0011431837 -0.026249032 -0.014068386 -0.008196029 -0.004374157 0.0082359 -0.037930615
years -0.009100526 -0.023917675 0.007825777 0.016368987 -0.0071128337 -0.021511706 0.016162207 -0.027473008 -0.033358414 -0.004988748 -0.009837275 0.011375505 0.015110392 0.007861645 0.0083205765 -0.012638554 -0.017005056 -0.0060265083 0.010060835 -0.002291957 -0.02973304 0.024111139 -0.001201063 -0.01726257 0.0019302947 -0.022594744 0.009677399 0.002050561 -0.0017129974 -0.04916644 -0.0066059874 0.020794928 0.01156494 -0.016005868 -0.023314761 -0.011121879 0.013890775 0.01123768 -0.0103208525 -0.012273806 0.024761936 -0.020896612 0.019820642 -0.0020280643 0.03337566 0.012399926 0.021285607 -0.016316382 -0.0144962855 -0.017284282 -0.0018344517 0.017215297 0.012457318 -0.03079497 -0.022259321 0.017454255 -0.003488197 0.019449655 0.0005531409 -0.0037363048 -0.010027164 0.019708544 0.0038955528 0.017598888 0.008170526 0.0066364324 -0.013048819 0.006992324 0.008051079 -0.0036230765 -0.005104558 -0.013599995 0.0028837477 0.0007180419 0.03786776 -0.02640611 -0.0078416 -0.0149307605 0.012741299 0.0065480378 0.0043954724 0.009883013 -0.016367756 0.008375883 -0.013472801 0.0009939835 -0.0134592485 0.0015832528 -0.014584485 0.0018231074 0.019155776 -0.019655898 0.013853759 0.0045085126 -0.026629524 -0.02151031 -0.009137843 0.0005705366 0.0015617353 -0.039765067
seizures -0.008426998 -0.017067812 0.007149718 0.008745217 -0.007903222 -0.013784287 0.013443411 -0.023052907 -0.027653519 0.00086783513 -0.004459859 0.011772574 0.011845961 0.0050892746 0.002581426 -0.016930128 -0.01551699 -0.0093175955 0.0070813666 -0.0029384263 -0.02731078 0.024439475 0.0013468573 -0.013430337 -0.0006421483 -0.01578118 0.00799588 0.0090060895 -0.0032522117 -0.039115228 -0.0074977903 0.018075941 0.011154791 -0.00825732 -0.027818162 -0.017804628 0.007004825 0.0029673094 -5.4007352e-05 -0.013484253 0.014403454 -0.020649536 0.021726212 0.0032249126 0.02453556 0.006925112 0.018396912 -0.013219951 -0.0032000532 -0.018068602 0.0037349528 0.013932525 0.013835901 -0.023872038 -0.020379175 0.019850869 -0.0067520835 0.015855836 0.008680313 -0.0005788303 -0.012691507 0.022675874 0.003673629 0.015162276 0.007964514 0.01161923 -0.008998569 0.00040005668 0.010702061 -0.0051094876 0.0013428493 -0.015326813 0.004462859 0.002084821 0.031648982 -0.016603239 -0.0039156256 -0.012015647 0.017167574 0.003804123 -0.0010063304 0.007848395 -0.010711561 0.010350181 -0.010841597 -0.0033455184 -0.011403902 -0.0046395147 -0.012510975 0.0034031102 0.0252832 -0.023133192 0.013110041 -0.0014045181 -0.027674299 -0.014155446 -0.0030441526 0.0023045777 0.009700262 -0.03559351
acute -0.0065658414 -0.02392849 0.011373121 0.011720414 -0.0014391254 -0.016043548 0.012690675 -0.024547998 -0.030674903 -0.0072929575 -0.0030238214 0.016538696 0.01424408 0.009240912 0.009759172 -0.015764149 -0.020839473 -0.0070265695 0.012428 -0.009068053 -0.032963358 0.026627498 0.003777363 -0.012934474 0.0061838753 -0.016108193 0.0046544336 0.008491056 2.253709e-05 -0.039501887 -0.0049596983 0.013223312 0.009809654 -0.01564776 -0.020997668 -0.011023833 0.011919218 0.009756046 -0.003862639 -0.009807035 0.01913581 -0.023050629 0.014933602 -0.002273699 0.029921994 0.004561845 0.013567763 -0.016549116 -0.008058652 -0.013806918 -0.0021700724 0.011761376 0.008190909 -0.028526228 -0.02366224 0.019285884 -0.005532294 0.021684531 0.0050078654 -0.006109726 -0.012372557 0.017009886 0.0058335485 0.02204331 -0.000635937 0.004554447 -0.0059227287 0.0073042796 0.010112404 -0.0029709341 -0.0039831414 -0.008498502 -0.0014167095 -0.0023957838 0.035979033 -0.024555309 -0.0073642805 -0.015316857 0.017892987 0.00979298 0.008033462 0.008428742 -0.009903066 0.011758091 -0.00605882 -0.004355842 -0.009801981 0.00039954874 -0.013158118 0.0052546556 0.017106883 -0.018840348 0.01078919 0.004274456 -0.018627018 -0.018323885 -0.006548818 0.00013875143 0.008148402 -0.034697656
exam -0.004272297 -0.020929629 0.0046699583 0.016180355 -0.006658045 -0.020547269 0.009302102 -0.02637846 -0.022771437 -0.007811759 -0.008392475 0.013925792 0.01812093 0.0038990336 0.008212521 -0.01016457 -0.016770301 -0.012404106 0.007700677 0.00061915326 -0.02542819 0.01742056 -0.0016480947 -0.0087813595 0.003075557 -0.020791048 0.002662469 0.0045714886 0.0015787573 -0.039901797 -0.006857007 0.018603342 0.009904506 -0.014120246 -0.024890078 -0.012564131 0.012729438 0.011223245 -0.008560298 -0.013962688 0.01600993 -0.023644052 0.019233733 0.003329742 0.032302756 0.009420882 0.016262125 -0.01750382 -0.003393173 -0.01356253 0.0028097467 0.00658788 0.016916545 -0.020839736 -0.024151146 0.016272366 -0.0036064996 0.02434369 0.0075736544 -0.008700061 -0.015160367 0.019442758 0.0038064802 0.018786687 0.0034969966 0.007741204 -0.0031503723 0.0077029965 0.006702331 -0.008709924 2.8755565e-05 -0.0127153015 0.00034726324 0.0011875599 0.031350728 -0.023483636 -0.0076936386 -0.01629595 0.01842689 0.0055569806 0.008632234 0.00048447112 -0.015139348 0.0037531233 -0.007755819 -0.006573274 -0.007046735 0.002088947 -0.017925072 0.0049517816 0.02426741 -0.020590346 0.01517943 0.004696645 -0.020214237 -0.015665475 -0.0022394806 -0.0031986705 0.0071754013 -0.02961942
allergies -0.002346487 -0.02017219 0.0031940443 0.01763848 -0.0023676266 -0.020583168 0.014221749 -0.021884559 -0.033953276 -0.0073273154 -0.0076247687 0.018136479 0.020743668 0.006226171 0.00859456 -0.016953913 -0.0154809635 -0.012591105 0.011502553 -0.004934105 -0.031732265 0.024022883 -0.0040673725 -0.013451264 0.006306359 -0.024167323 0.0060335468 0.007265863 -0.0076833838 -0.049802892 -0.0051662647 0.012729903 0.0107066715 -0.016922856 -0.025393467 -0.015792184 0.01456449 0.007337681 -0.00963958 -0.014016194 0.024490539 -0.023501603 0.015413181 0.0037508232 0.028580267 0.009911222 0.018147003 -0.014139903 -0.014515143 -0.017681418 0.0020345212 0.009464321 0.013292458 -0.026154839 -0.031593487 0.013077512 -0.006351694 0.018806472 0.009074608 -0.007222817 -0.0059578735 0.019317064 0.0019296954 0.023447793 0.0008044415 0.004348092 -0.00583464 0.010205449 0.009658751 -0.0011155095 -0.008268255 -0.009892684 0.006438815 0.0009869003 0.039058104 -0.026111174 -0.0071661365 -0.01991008 0.01925259 0.008518705 0.005920523 0.0026219056 -0.011395362 0.011796234 -0.010894996 -0.0055761794 -0.0096989125 0.0036033238 -0.019238804 0.0070066047 0.023224587 -0.019305326 0.013095795 -0.0018647577 -0.022240942 -0.022875914 -0.0024051685 0.0017984586 0.009672931 -0.036552474
sitter -0.010974063 -0.01822725 0.00864297 0.015106892 -0.0090864925 -0.02180157 0.017505504 -0.021547493 -0.03009319 -0.006633924 -0.010767306 0.01497499 0.014765672 0.008909699 0.0028654225 -0.014695396 -0.02372547 -0.008234535 0.012099936 -0.0028694584 -0.030730344 0.021935826 -0.0026556586 -0.016787652 0.00404996 -0.022418795 0.0055081053 0.004146966 -0.0011139405 -0.048494544 -0.00874197 0.018039567 0.011236764 -0.00929805 -0.031578917 -0.02041546 0.007536256 0.011302259 -0.0024761336 -0.016162295 0.024901245 -0.025510356 0.015040208 0.0033925422 0.037290085 0.014435749 0.013391617 -0.014963185 -0.010916626 -0.012677125 -0.0022323704 0.017395187 0.009717316 -0.026408974 -0.02564623 0.0160461 0.00030684497 0.017797679 0.0049548605 -0.0030740483 -0.009305111 0.021125883 0.0028953461 0.016444499 0.007158651 0.00987048 -0.0129196895 0.0038973503 0.006650703 -0.000820295 -0.0052450853 -0.011686024 0.00355312 -0.0018261209 0.03991654 -0.023193948 -0.0050193337 -0.014651584 0.016180648 0.007546901 0.0050669266 0.0075875376 -0.01754211 0.008786627 -0.008956671 -0.0010625673 -0.00991065 0.00058139383 -0.020736456 0.005592084 0.02845988 -0.025226817 0.01525723 0.004724888 -0.028743992 -0.022463595 -0.0045539197 -0.007226567 0.010232722 -0.034965623
instructions -0.00094745244 -0.021748392 0.0062834565 0.010169823 -0.0061458717 -0.019054579 0.00927713 -0.02106563 -0.03364095 -0.006036014 -0.010482979 0.01332836 0.016583653 0.012281402 0.0031205737 -0.016754085 -0.013977155 -0.009702799 0.005151708 0.00041399326 -0.03103399 0.021585748 0.003939489 -0.008919316 0.00046095232 -0.019707438 0.0017420232 0.0012603505 -0.007752972 -0.04217409 -0.0044693346 0.021268185 0.009382461 -0.015773874 -0.02462793 -0.014231321 0.0066801272 0.00954763 -0.008005696 -0.013324507 0.019377599 -0.017431503 0.020690888 -6.3716645e-05 0.030934362 0.013427087 0.02099012 -0.014484928 -0.0054714666 -0.015594016 0.0049327305 0.014441737 0.018879773 -0.030553427 -0.023659326 0.020503948 -0.0003986378 0.01679281 0.002637189 -0.0018065821 -0.016203461 0.02461525 0.006590597 0.023825042 0.006746698 0.0030269807 -0.00554325 0.007364415 0.00904615 -0.009370727 -0.003120543 -0.007365342 -0.0029278968 -0.0006638689 0.039401624 -0.01864165 -0.000937456 -0.015208819 0.019298244 0.0023524186 0.0016086808 0.0043677688 -0.012291734 0.011218434 -0.0101208845 0.0008757572 -0.0073716645 -0.000728644 -0.014394236 0.0022091004 0.026340907 -0.024144856 0.008506964 0.005605212 -0.02998725 -0.019464519 -0.007602654 -0.0063403025 0.0033371386 -0.036959834
reports -0.009964237 -0.019220205 0.010690482 0.011285023 -0.003153837 -0.015803527 0.015615578 -0.02525157 -0.026793765 -0.006947364 -0.0046415096 0.0115508335 0.01590551 0.009138544 0.003799829 -0.015010056 -0.02143489 -0.012028655 0.0045345793 -0.0025491593 -0.027608387 0.022760095 0.0025547284 -0.0100894 0.0035738007 -0.023962988 0.0067984443 0.0072121583 -0.0055018575 -0.041152254 -0.011583183 0.018377319 0.0057614488 -0.0138523765 -0.03014164 -0.010366216 0.007262749 0.001676313 -0.0025709078 -0.01017036 0.017877245 -0.018705212 0.013011014 0.0045182942 0.025002195 0.008919606 0.017315494 -0.02004886 -0.008698453 -0.019188933 -0.0027240445 0.0071858913 0.011088261 -0.030408027 -0.025131276 0.020837905 -0.008517377 0.018375605 0.001085754 -0.002121007 -0.0074169813 0.023659673 0.008577672 0.016548635 0.0008165174 0.0053365985 -0.0045553055 0.0018973714 0.007365225 -0.0026533927 -0.003946124 -0.010357123 0.001693303 0.0003471164 0.033603173 -0.017097343 -0.0038955647 -0.017399771 0.012134079 0.0029473014 0.008486521 0.0063546808 -0.01817305 0.0052199285 -0.011597658 -0.008512457 -0.010219795 -0.00066569564 -0.022999935 0.0054836944 0.025682926 -0.015006201 0.009826774 0.00061078725 -0.027516749 -0.015719686 -0.005426313 -0.0033459947 0.010460352 -0.0303272
evaluated -0.0059302608 -0.012782801 0.0063817543 0.010082663 -0.008921112 -0.01432413 0.007736668 -0.016826836 -0.028579379 -0.0067948084 -0.003508604 0.0125739565 0.010873987 0.0055164057 0.009026037 -0.010822512 -0.013453193 -0.003772554 0.009096954 -0.0050717033 -0.029761897 0.015782434 0.0023313842 -0.005883243 0.0057760547 -0.014607479 0.0043851933 0.0081344675 0.0007428138 -0.038436204 -0.008489524 0.01796631 0.0038844259 -0.007212658 -0.02066331 -0.015118201 0.012377441 0.0048473263 -0.008845228 -0.009894979 0.016615877 -0.012802958 0.014391874 0.0024921303 0.027948452 0.012448196 0.012711778 -0.012859479 -0.005207666 -0.007810622 0.0012383612 0.009862184 0.009688706 -0.017239166 -0.020944444 0.012905797 -0.0066156844 0.018143153 0.00853151 -0.0006738228 -0.009919636 0.018306699 0.0067409864 0.018607087 0.0032630994 0.008615662 -0.0027562943 0.001180804 0.0020046101 -0.005957545 -0.00032483856 -0.0066697043 -0.0014683885 -0.002487737 0.027796285 -0.018165229 0.0008227724 -0.017502002 0.015157275 0.0016932794 0.0028991497 0.0057920935 -0.012108483 0.006399364 -0.0069918917 0.0010822337 -0.0070676124 0.0034441822 -0.012565016 0.003487743 0.017786967 -0.018504241 0.008214936 0.006266798 -0.025191382 -0.017115692 -0.0044258693 0.00016163841 0.0052982494 -0.027533684
followed -0.00075791375 -0.024078583 0.0042302283 0.0073037255 -0.008138256 -0.017940972 0.008668943 -0.022990227 -0.031767096 -0.007076631 -0.004200652 0.013155401 0.010122266 0.003080049 0.011055394 -0.009493693 -0.01819723 -0.011764547 0.011564615 -0.004375721 -0.026882846 0.017720137 -0.0041675586 -0.007484171 -0.0017362777 -0.017335296 0.0022784846 0.009184648 -0.0054928507 -0.04552307 -0.005109894 0.013239894 0.003719779 -0.011631565 -0.030016921 -0.017113542 0.012518022 0.010685136 -0.003550645 -0.016132383 0.019178957 -0.019835198 0.016917355 0.00018400169 0.027567014 0.0049001332 0.017168786 -0.017125737 -0.0055141156 -0.009231023 0.00034758047 0.01615313 0.014387366 -0.0266632 -0.024102192 0.014169453 -0.008309252 0.01820612 0.0085812975 -0.008980646 -0.009428578 0.02079329 0.0038346446 0.02147867 0.0012858323 0.0101709785 -0.0052759796 0.0023620208 0.0028442063 -0.00063735887 0.0013974844 -0.006081557 0.0018983347 -0.0017238513 0.032113444 -0.018501876 -0.0066763763 -0.01011039 0.0100906715 0.009900339 -0.00069166214 0.0020237544 -0.01570268 0.0077913795 -0.0070568756 -0.0013115066 -0.0111694 0.0023228948 -0.0193568 0.005711497 0.026112566 -0.015869547 0.014703608 -0.001482877 -0.024588116 -0.016031554 -0.0038028485 -0.0021695702 0.0073363697 -0.033117615
hypertension -0.008945287 -0.018220248 0.01041793 0.01137867 -0.006128267 -0.014341234 0.014213896 -0.026997114 -0.028791737 -0.010036055 -0.0073179253 0.011902072 0.013026115 0.0067720716 0.007460257 -0.016386768 -0.017614458 -0.0051267175 0.015400058 -0.004724386 -0.03446706 0.023419743 0.0006080055 -0.01705254 -0.0010318715 -0.017416717 0.008814165 0.0019069746 -0.0012846531 -0.046754956 -0.0044553867 0.015023457 0.010484121 -0.009943139 -0.03336995 -0.020210277 0.013269319 0.010659622 -0.010017309 -0.011145565 0.02047239 -0.021564811 0.019543728 0.0021102885 0.033786327 0.014189918 0.0147683285 -0.016877197 -0.012331233 -0.012192447 0.0025695488 0.016467616 0.015349505 -0.032161403 -0.023796897 0.017063247 -0.0027748211 0.017376877 0.0027397724 -0.0069197207 -0.0068704383 0.025331791 0.009395803 0.023433099 0.0025524714 0.012154812 -0.012044365 0.0009906868 0.0052412967 -0.007047489 -0.003593821 -0.016309513 3.843393e-05 -0.0019733044 0.03926106 -0.026130985 0.00060213375 -0.01449023 0.019539876 0.004214975 -0.0005152394 0.008455617 -0.0137323495 0.013430581 -0.015034731 -0.0045759273 -0.010829576 0.00405295 -0.018364621 0.00812903 0.026396058 -0.022187874 0.007371857 0.0058194567 -0.022038905 -0.022335794 -0.00227438 -0.0065950714 0.0014808212 -0.03627898
withdrawal -0.0066647213 -0.019305076 0.012696733 0.016934518 -0.00052782986 -0.015926525 0.013846033 -0.020007618 -0.027690012 -0.0012159199 -0.010076033 0.013712625 0.016041163 0.002360432 0.010076071 -0.015934035 -0.013876113 -0.0109654395 0.012509831 -0.0033602589 -0.024784973 0.019636717 -0.0034014934 -0.013917597 0.0020856708 -0.014434059 0.0050180648 0.0045370557 -0.0018478676 -0.04542718 -0.0037835878 0.015483871 0.009046744 -0.013534616 -0.022671249 -0.01243765 0.00987444 0.007637603 -0.0020186836 -0.012717612 0.02080853 -0.019193599 0.019748632 -0.0023264799 0.029427234 0.006207624 0.02005247 -0.01284563 -0.010473906 -0.017417245 -0.0011973549 0.007198697 0.009446212 -0.029338602 -0.02460391 0.01286143 -0.002655194 0.016812136 0.0031322716 -0.006162181 -0.0152453305 0.01832044 0.00056681887 0.015496382 0.0023639123 0.0068227267 -0.0029215075 0.0046330285 0.005241558 -0.0061461767 -0.0045631523 -0.0072296974 0.0050604176 0.0046273153 0.031920902 -0.024737656 -0.0025535435 -0.018546935 0.017759897 0.004233804 0.0074677384 -2.459388e-05 -0.0096554775 0.00979513 -0.013162001 -0.0010226194 -0.0058825575 -0.0017074615 -0.0183941 -0.00019574657 0.024076369 -0.021611454 0.012152928 0.0061118356 -0.020755336 -0.020639844 -0.0048543164 -0.00651808 0.007812243 -0.028339272
transplant -0.0068432475 -0.017086824 0.008634051 0.011894917 -0.006659189 -0.014490188 0.011799294 -0.028998028 -0.032761957 -0.00827881 -0.0053743483 0.014388404 0.015905796 0.0113644255 0.00423935 -0.009350724 -0.02196988 -0.010395193 0.006523365 -0.0020211476 -0.035221923 0.02703693 0.00115636 -0.0075733564 0.0042423136 -0.023583788 0.008314926 0.00022281651 0.00043315697 -0.046854913 -0.011513071 0.021109946 0.009107282 -0.011687109 -0.029666424 -0.020226467 0.01002198 0.0035808978 -0.008399311 -0.014447058 0.01563538 -0.020614997 0.015828976 0.0034723394 0.034123328 0.013532213 0.014535825 -0.016275002 -0.010480091 -0.017510816 -0.0025269492 0.015475256 0.010621424 -0.026309244 -0.030345796 0.018542612 -0.0004664634 0.023567636 0.0045721456 -0.002992664 -0.010401306 0.026602676 0.0040169396 0.022831291 0.002473027 0.0034024369 -0.010963844 0.0031379578 0.0035367713 -0.0036263508 0.0004968083 -0.011053939 0.005564392 -0.0016562542 0.03145006 -0.021163413 0.00045218252 -0.018948203 0.013376541 0.0018073258 0.0016514763 0.0019661873 -0.016298385 0.004923759 -0.016286274 -0.0069642006 -0.010251887 0.00018912008 -0.01582458 9.752116e-05 0.023804402 -0.01936604 0.011268539 0.006108632 -0.029365819 -0.017233472 0.0010662081 -0.007680088 0.0055606104 -0.035038
intubated -0.0060074893 -0.016751325 0.0036392666 0.01151477 -0.0043551656 -0.019734154 0.008877701 -0.023900405 -0.025474865 -0.00915041 -0.0014831155 0.017856453 0.01688936 0.008558266 0.007907044 -0.0119757755 -0.014737005 -0.008348029 0.008394508 -0.001087341 -0.023436343 0.026536785 0.0044729565 -0.007063501 -0.0007507945 -0.017465567 0.005932733 0.0057937815 -0.0036531861 -0.04110616 -0.0029127956 0.016601942 0.0054714154 -0.012970381 -0.025069553 -0.012015529 0.014763022 0.005386421 0.0001493764 -0.015187039 0.013543802 -0.021670073 0.016803801 0.0073017417 0.030262064 0.013813649 0.016769279 -0.012676034 -0.007809308 -0.017181415 0.0055916742 0.01488079 0.012836803 -0.022425065 -0.025759133 0.013768671 -0.005490541 0.02349006 0.0006952542 -0.0040529743 -0.009994263 0.021533119 0.0023099883 0.023077637 0.006861776 0.0068290387 -0.0031127497 -9.794809e-05 0.0045893216 -0.0070546656 -0.00797907 -0.010764566 0.00024889372 0.0039473074 0.034663443 -0.020788444 -0.005497542 -0.010530645 0.01135407 0.0022957737 0.0067970133 0.004052621 -0.01444766 0.004868489 -0.00882654 -0.004162178 -0.01362159 0.0037133128 -0.014263215 0.0030922585 0.022730803 -0.020862335 0.014442608 -0.00063618494 -0.027556682 -0.0138600925 -0.0016854014 -9.2813556e-05 0.008887693 -0.033333767
artery -0.009266102 -0.021319462 0.011854577 0.008705901 -0.003790171 -0.012352607 0.0111420285 -0.020050257 -0.023521973 -0.0054116393 -0.009420062 0.016943723 0.009985488 0.010839467 0.0030120697 -0.015343905 -0.015781133 -0.0064031035 0.013555052 0.0007379405 -0.029327907 0.023138493 -0.0030853048 -0.013165408 0.00435574 -0.019389978 0.0066421228 0.0014818552 -0.0029057472 -0.044694275 -0.008186145 0.0201278 0.0047919126 -0.016851664 -0.025618982 -0.016391791 0.008114127 0.009521964 -0.002251027 -0.0119280275 0.022249784 -0.016061056 0.015145823 0.0001890215 0.03212613 0.013000491 0.01663934 -0.011970262 -0.008334221 -0.013716864 0.0061680786 0.015885606 0.011897845 -0.022372218 -0.025817582 0.019271431 -0.008154659 0.01620546 0.0046575535 -0.0037811568 -0.006727725 0.0241525 0.008728013 0.016979273 0.007254324 0.0054930747 -0.004139011 0.008055319 0.0030124825 -0.004610188 -0.0064570415 -0.014903502 0.0033722841 0.0030337449 0.035435874 -0.019677766 -0.0049747424 -0.018633727 0.010174527 0.008574163 0.002950581 0.0061407234 -0.013778583 0.0032774208 -0.010838361 -0.0007348417 -0.0056046722 4.911722e-05 -0.012411092 0.00040593144 0.016686693 -0.023071874 0.0065795025 0.0012539948 -0.026798978 -0.019087182 -0.006474957 -0.0061072693 0.00057802093 -0.029239705
seroquel -0.009212685 -0.016833223 0.0033532435 0.013007803 -0.0029876651 -0.020125117 0.006245085 -0.018659988 -0.02449875 -0.0070336694 -0.0062253177 0.011297292 0.013668861 0.008622312 0.00785897 -0.017350165 -0.018342031 -0.006800553 0.011741541 -0.0043093567 -0.025040872 0.021436188 -0.0028550616 -0.009061785 -0.0002813974 -0.021323193 0.006784183 0.00063107983 -0.007194782 -0.034603093 -0.008536421 0.015060142 0.009683042 -0.010402985 -0.021826072 -0.015619587 0.00572446 0.008584829 -0.0023281365 -0.013453696 0.019842088 -0.019082855 0.019049056 0.007474408 0.02676152 0.0128703965 0.012015222 -0.015219055 -0.011728432 -0.013693136 0.0054164534 0.01246758 0.008023944 -0.02010641 -0.020534014 0.014468092 -0.008336848 0.020119173 0.008771949 0.000110801535 -0.014239352 0.019715711 0.009043845 0.017864823 0.00064169825 0.0041006957 -0.0095794285 0.007106832 0.010002383 -0.0023702828 0.00040211753 -0.0065356875 0.00037561415 0.0012457558 0.035133876 -0.02327463 0.001156202 -0.0115051605 0.009318696 0.0040563806 0.0031986225 0.0075734267 -0.010816872 0.00727796 -0.01029297 -0.004137117 -0.004542834 -0.0018098089 -0.02043615 0.007474651 0.021748288 -0.0187434 0.0058228066 0.0007059663 -0.017278558 -0.0135039305 -0.0056788386 0.0017209635 0.0024572231 -0.026847564
days -0.008629621 -0.016681269 0.011441473 0.014232314 -0.00618887 -0.01887744 0.006312751 -0.018730314 -0.021870177 -0.003985798 -0.002148326 0.013607322 0.01851098 0.006361629 0.010162479 -0.010410159 -0.012383499 -0.0049336837 0.004202413 -0.006492092 -0.0314956 0.016634164 -0.001500235 -0.01521722 -0.0009565276 -0.016747862 0.0060184756 0.007363239 -0.0034289274 -0.041000072 -0.010220405 0.013891257 0.009595809 -0.011278509 -0.024572147 -0.0122941565 0.009634837 0.0064397673 -0.003645691 -0.01481469 0.014550252 -0.016690265 0.013098701 0.0018529795 0.024698118 0.012069209 0.016522612 -0.009956504 -0.009177895 -0.011172581 -0.00011800799 0.006451776 0.017206132 -0.026502738 -0.025640095 0.017112505 -0.0028725993 0.019035995 0.0073384014 -0.006070397 -0.006070391 0.015795486 0.0031123688 0.012953556 -0.0007595084 0.004492989 -0.0035819022 0.00227574 0.008167207 -0.0034972962 -0.0055651977 -0.015126436 -0.0035283652 -0.002630534 0.035212077 -0.01792119 -0.0011944005 -0.009846118 0.008673334 0.0026432183 0.007226393 0.008707542 -0.015925696 0.0023178286 -0.0073667727 -0.00071867276 -0.0058209347 0.0030043563 -0.012736579 0.0008267647 0.018760532 -0.018314376 0.009345099 0.00457064 -0.024476081 -0.017775737 -0.0060401135 -0.0076776072 0.005050814 -0.02956307
placed -0.0003980577 -0.016879449 0.0018484995 0.0040947124 -0.0036789286 -0.011897026 0.0076996638 -0.019727545 -0.014989696 -0.0042176554 -0.0037824782 0.014298132 0.013057504 0.0078164935 0.0014585054 -0.0056795944 -0.012041815 -0.0079210615 0.0101022655 -0.00038354952 -0.015179857 0.019863129 -0.00020167153 -0.004220645 -0.0027937193 -0.012187289 0.0044749877 0.0046614297 0.0031753983 -0.034283027 -0.009374215 0.01494812 0.0031509113 -0.0061046197 -0.015361997 -0.009037621 0.0021761165 0.006260197 -0.0024054814 -0.0105677545 0.01279958 -0.013146963 0.011793122 -0.0003765217 0.022600051 0.0051459726 0.0062774597 -0.011005514 -0.0024832014 -0.009761882 -0.0020056118 0.0056290883 0.009955351 -0.017740043 -0.021805659 0.009457317 0.0016859006 0.014093976 0.006690401 0.0013037275 -0.0044799573 0.01199019 0.007028754 0.010193735 0.0036685215 0.008180833 -0.004090833 0.004881153 0.0069183907 -0.0075325663 -0.0071554957 -0.0061692395 -0.00022499659 0.00035852616 0.027800718 -0.017431729 -0.005189562 -0.014226592 0.0151942 0.0068069464 0.0022686487 0.004359183 -0.0074614617 0.008010489 -0.0074144574 -0.0042783753 -0.002787606 0.0036054284 -0.011586099 0.004981493 0.020334732 -0.008904246 0.0036041916 0.0017498016 -0.021116883 -0.015233736 0.001092768 -0.0014956616 0.0046308143 -0.020116994
penicillins -0.0026265513 -0.012697439 0.007427572 0.009154069 -0.0027207963 -0.014381121 0.01378293 -0.02236915 -0.021796076 -0.002116851 -0.008468869 0.012220781 0.006938393 0.007391509 0.0068793925 -0.01405698 -0.014315635 -0.010617492 0.010371471 -0.0009875002 -0.020977926 0.018678576 0.0028959012 -0.006260624 0.0069678603 -0.012515842 0.0017206096 0.0069564134 -0.0018130909 -0.031899888 -0.0021050004 0.010615477 0.004477725 -0.006218317 -0.022752834 -0.0068848403 0.0077732173 0.0054714377 -0.004245852 -0.015210268 0.010110969 -0.015264249 0.016695078 -0.0026742597 0.026707038 0.0033113768 0.01270029 -0.013458668 -0.011514854 -0.013955348 0.0053494717 0.007230011 0.012103411 -0.024688343 -0.020210769 0.015122371 -0.003335325 0.012860233 -0.0009613777 -0.0007268346 -0.0091134105 0.0156224 0.007975089 0.018490694 0.006054269 0.0041234624 -0.0032843982 0.0038896163 0.010196723 -0.0006353835 -0.0064081554 -0.0067416364 -0.0028458745 0.005017046 0.022809872 -0.013531881 -0.0052669914 -0.014075757 0.0068202144 -0.00058904605 -0.0019453787 -0.0005297905 -0.01012217 0.0054604537 -0.010600564 8.7146596e-05 -0.009483845 -0.00075585186 -0.016200203 0.0025763356 0.016334726 -0.017979197 0.012558703 0.00017743967 -0.017725367 -0.011539313 -0.0047209365 -0.0026631989 0.004272373 -0.028849607
hepatitis -0.006564908 -0.015043873 0.008334423 0.012760101 -0.0077747745 -0.013055079 0.010028793 -0.021358488 -0.016157666 -0.0067057554 -0.004778242 0.00824038 0.012134345 0.003964815 0.0024244487 -0.0060851695 -0.011010093 -0.011325368 0.009609693 -0.0064858086 -0.025729753 0.015687617 -0.00045264972 -0.010444703 0.00513196 -0.016776197 0.0012868961 0.008500146 0.002949845 -0.03698768 -0.007015019 0.016145764 0.003468656 -0.010011161 -0.015707865 -0.009968659 0.00549873 0.0009342484 -0.003971868 -0.014068067 0.016236007 -0.011905925 0.011134915 0.005619269 0.024577422 0.0064797807 0.010022285 -0.010174368 -0.0041740495 -0.009173096 0.0018234117 0.010511262 0.008902225 -0.016523965 -0.019213641 0.015881503 -0.0051562577 0.01924868 -0.0010434241 -0.0003392255 -0.004277837 0.011577972 0.004241801 0.018178347 0.0051019248 0.0063569164 -0.0029933092 0.005341997 0.0095957285 0.00025394827 0.00039039354 -0.010133278 -0.00342581 0.0042104255 0.02806605 -0.019390145 0.00045524558 -0.010095436 0.006953505 0.0037946368 0.00073668855 0.0045611225 -0.016021496 0.007862497 -0.011769931 7.0418866e-07 -0.0046802047 0.0052982974 -0.009729121 0.0026069863 0.018457847 -0.019828016 0.0066271937 0.005204646 -0.0199198 -0.014931515 -0.0020469981 -0.004732855 0.001291156 -0.024870973
started -0.0010894951 -0.021425547 0.010498313 0.009433709 -0.0046087555 -0.019604158 0.0073891804 -0.02239968 -0.02662166 -0.008736365 -0.0060816263 0.019019557 0.018004747 0.007332763 0.004270188 -0.013116851 -0.021177376 -0.00891546 0.0050270795 0.00062805123 -0.030085877 0.024279164 -0.0035590269 -0.009909911 0.00012924078 -0.019449163 0.0017168046 0.0011257646 0.0008659873 -0.04401315 -0.0055035264 0.019469619 0.0115870265 -0.0157837 -0.024291009 -0.009411679 0.005417306 0.011217042 -0.006289716 -0.016730981 0.01707913 -0.018751232 0.016581703 0.00394392 0.031633068 0.008137457 0.02013753 -0.020171242 -0.009527187 -0.01085555 -0.0023779806 0.01010478 0.011813894 -0.029455928 -0.02988271 0.01865516 -0.0077095884 0.018514682 0.007161819 -0.008822808 -0.008191584 0.022602342 0.0005063764 0.021831289 0.006423527 0.011581795 -0.012445349 0.00090281223 0.0074140946 -0.006805616 -0.0031119722 -0.00847729 -0.0009899274 0.0053681815 0.034151666 -0.017559277 -0.0039738133 -0.018192995 0.015096675 0.004288379 0.007208356 0.0092301145 -0.018689577 0.0028256697 -0.010096188 -0.0030300545 -0.006991578 -0.002488567 -0.021807818 0.0016561021 0.020505063 -0.01885972 0.006506372 0.0020525653 -0.01945763 -0.0144854365 0.00051111536 -0.0005750701 0.00967542 -0.037122287
cardiac -0.0025945373 -0.015906263 0.009351564 0.010908093 -0.0032086512 -0.01632821 0.011634013 -0.022887768 -0.030694097 -0.0021722843 -0.0029531016 0.01861759 0.015564837 0.0105482675 0.0057960614 -0.009868087 -0.01793438 -0.008526494 0.0057752575 -0.0023861479 -0.02574008 0.024283605 0.0033839662 -0.00819069 0.0054723946 -0.023310574 0.008679663 0.0031988022 0.0003384056 -0.03806288 -0.010963904 0.017344723 0.010478912 -0.009969456 -0.028704965 -0.018728476 0.009622529 0.0062764063 -0.0049024317 -0.009726283 0.021857018 -0.016429534 0.02111899 0.0067064147 0.02463138 0.0113122165 0.013609874 -0.01782646 -0.009156017 -0.01571742 0.0021301503 0.009262262 0.014422818 -0.024959533 -0.020409014 0.016983716 -0.0026387624 0.024289355 0.0007141227 -0.0071003437 -0.014210222 0.023980914 0.0037507305 0.016935578 0.0016786748 0.009161433 -0.008388739 0.005995511 0.0032605852 -0.003321556 0.0012805054 -0.0059381626 0.0016389821 0.0006764833 0.03154371 -0.019513696 -0.006946902 -0.016735122 0.018602442 0.0053677815 0.0062854383 0.009552499 -0.015920274 0.006387811 -0.0142011 -0.00041404358 -0.010082799 -0.002146472 -0.021487813 0.00051460677 0.022819528 -0.017878182 0.011002432 -0.0005131004 -0.025040513 -0.0123641165 -0.0007190418 -0.0046150517 0.0013012392 -0.03614238
denies -0.0059965705 -0.01823484 0.006182921 0.012579499 -0.0030739785 -0.012254917 0.01131742 -0.022494478 -0.018725997 -0.0064785965 -0.005242483 0.015048474 0.016724097 0.0036509729 0.0044153347 -0.012420479 -0.01747012 -0.007314304 0.0063767927 0.0003128621 -0.025165206 0.015770912 -0.0009473416 -0.013712604 -0.0013796893 -0.018739967 0.008578146 0.005134815 -0.0012553646 -0.031562027 -0.005722148 0.011977001 0.008487525 -0.010404926 -0.023191001 -0.013063465 0.00602712 0.0064269565 -0.0034781978 -0.01584209 0.011949699 -0.019444771 0.013776193 0.005636261 0.022904992 0.0028529994 0.009376357 -0.016771542 -0.009908292 -0.015160169 0.004280124 0.012928658 0.014471601 -0.02233726 -0.019044805 0.009010356 0.0018701822 0.01994812 0.0053368933 -0.0060325395 -0.0095023075 0.021146815 4.5202773e-07 0.013547651 -0.0010176483 0.0032254804 -0.008296348 0.0072965333 0.0030422285 -0.005715006 -0.005501896 -0.012510184 -0.0015459735 -0.0026770344 0.027980922 -0.014975154 -0.0072426735 -0.015732963 0.009892893 -4.7650068e-05 0.0020439818 0.009201842 -0.010035954 0.003817479 -0.008616494 -0.007032196 -0.008197451 -0.0040800045 -0.01818663 0.0004901681 0.021526461 -0.018080851 0.01327787 -0.0011933108 -0.024650162 -0.01846517 0.00072500296 0.0006336329 0.0013581528 -0.028920652
trauma -0.0071821576 -0.014794771 0.009011192 0.014044979 -0.0010278677 -0.016266879 0.0064864876 -0.020940455 -0.023516905 5.4980555e-06 -0.00040578176 0.015685942 0.016782582 0.009427356 0.006205808 -0.014081707 -0.018497292 -0.008639829 0.0104476325 -0.0038596275 -0.025012458 0.015494334 0.0019092993 -0.010748317 0.0027315237 -0.015084287 0.0005672965 -0.00076672976 0.0026319176 -0.041097607 -0.0044474183 0.012838543 0.0010768126 -0.009069127 -0.023359857 -0.016995363 0.0035644216 0.008909413 -0.0056008287 -0.015787452 0.019924495 -0.0217382 0.019862333 -0.00081181084 0.025230644 0.0058270707 0.0121319825 -0.014463054 -0.010911205 -0.01295712 0.005377833 0.013694758 0.014927469 -0.021428142 -0.021283409 0.013982564 0.00044355585 0.016451688 0.008403606 -0.0027976432 -0.006264006 0.016366566 0.0056137918 0.018861407 0.002608864 0.0039874557 -0.0021207682 0.006515426 0.008665279 -0.0054062726 -0.0060427035 -0.008072169 -0.00071066193 -0.0020225595 0.028536877 -0.0141456155 -0.0063453363 -0.012554975 0.009645485 0.0059803794 0.0013703203 -0.00010229468 -0.016535884 0.010569104 -0.007706284 -0.0070258384 -0.010734873 -0.00023206296 -0.010602193 0.0029900305 0.02207393 -0.013151171 0.00841024 0.0057591735 -0.01593418 -0.018622773 -0.0045987563 -0.0013923324 0.0041342876 -0.023523325
presented -0.0006379366 -0.017742187 0.011240092 0.015106167 -0.0011409315 -0.01144916 0.009778813 -0.024500096 -0.023145158 -0.0073150084 -0.0050169453 0.014102239 0.010807342 0.009856695 0.00039779622 -0.01283092 -0.01431116 -0.003625412 0.010054168 -0.0036826038 -0.029715572 0.023285098 0.0030461424 -0.0064677135 0.0069448873 -0.012741471 0.003526934 0.008453038 -0.0024226184 -0.03439245 -0.0015007587 0.016743403 0.004784511 -0.0061470224 -0.024716029 -0.016270874 0.0052542933 0.0038869695 -0.0026045155 -0.010485726 0.018769048 -0.018608022 0.015488418 0.0026033605 0.02628066 0.0079706265 0.01254273 -0.015906451 -0.011383517 -0.00827728 -0.0025855068 0.006964385 0.01547721 -0.024188397 -0.022481443 0.017374799 0.0007608789 0.015254522 0.00020128326 -0.005714358 -0.0050491006 0.015519525 0.0022047504 0.015650177 0.000278179 0.0057155183 -0.009514705 0.0037476486 0.0038466095 -0.005298363 -0.0061643035 -0.0076895333 0.005626829 0.0015881509 0.026143175 -0.020734882 0.0020929521 -0.014923592 0.011886026 0.00848261 0.0025179216 0.008252095 -0.01312057 0.004990575 -0.013840005 -0.007371904 -0.012157577 0.0045985696 -0.017352592 -0.0011267659 0.015386461 -0.021107407 0.0047251214 0.0010440656 -0.01748429 -0.012849229 0.0011731782 -0.0026391416 0.008830351 -0.02993718
cleared -0.008571071 -0.017281871 0.0027039933 0.011005175 -0.006785889 -0.011209309 0.0052266624 -0.023978725 -0.017864168 -0.001718594 -0.0063183736 0.016126558 0.009184808 0.0067956643 0.007735484 -0.015142862 -0.0117035005 -0.008159443 0.012103673 -0.0033296382 -0.022096302 0.021947904 -0.0024612446 -0.004990738 -0.0012268618 -0.02010498 -2.3968372e-05 0.0052554347 0.00065831956 -0.03516329 -0.008402441 0.009134129 0.0014094283 -0.013148864 -0.02133535 -0.014231513 0.009446195 0.0038762623 -0.0075299973 -0.01194283 0.019312996 -0.012813051 0.017360015 -0.0016422879 0.021146094 0.0047499673 0.009566642 -0.0096574165 -0.012042106 -0.011712429 0.0002655276 0.012379968 0.0070298314 -0.024903229 -0.022441462 0.0116399955 -0.0014289628 0.021042429 0.0051954803 -0.007519595 -0.0044323686 0.015365051 0.0042622928 0.017371146 -0.0008864002 0.0074279746 -0.004915025 0.0005885109 0.0046186643 -0.0032805437 -0.0064575775 -0.013831591 -0.0027537982 -0.0007654218 0.024334101 -0.014716804 -0.00444688 -0.014313321 0.008976667 -8.599224e-05 0.0012702285 0.003647085 -0.01552164 0.005265806 -0.010344652 -0.008060972 -0.0043816296 -0.0046745064 -0.018126627 0.0045827148 0.020059312 -0.019755842 0.004227585 -0.00030982273 -0.017487686 -0.015456888 -0.0072133695 -0.0063033206 0.008778471 -0.031637058
oral -0.006159129 -0.0119932145 0.002203264 0.012781014 -0.0018218854 -0.01408894 0.0043153833 -0.022275353 -0.017904028 -0.007120416 -0.0057158237 0.0113296425 0.0145498095 0.009967979 -0.00014102044 -0.0140133165 -0.01056451 -0.0015507146 0.0044118124 -0.0069872327 -0.017272739 0.014691806 -0.00011106979 -0.008707444 -0.002783166 -0.009503268 0.0031415748 0.0034219327 -0.003481222 -0.033657767 -0.0012056328 0.014374607 0.0018309805 -0.006170851 -0.015245375 -0.0076272124 0.0067909923 0.0010076772 -0.006911449 -0.014634597 0.01525793 -0.011435416 0.014328422 0.0058363113 0.02649415 0.011444066 0.013196989 -0.009044429 -0.0082753645 -0.012560195 0.0022752227 0.006035167 0.0058796383 -0.017750993 -0.022204127 0.015363569 -0.0038646264 0.018253708 0.004778897 -0.0039433055 -0.011378417 0.011916507 0.0046681683 0.010313151 -0.0023045111 0.00095479813 -0.0063336934 0.0015913479 0.0097118355 -0.006117955 -0.003992902 -0.006678593 0.0030151983 0.0011942505 0.023994582 -0.013899353 -0.0067685544 -0.010192051 0.012477856 0.0048879976 0.0018712725 0.0030677149 -0.012434214 0.005864068 -0.010557902 -0.004646611 -0.0047458974 -0.002715572 -0.00984272 -0.002548736 0.013192119 -0.0144390445 0.008323307 -0.0020743546 -0.01738979 -0.017263781 0.0011916157 -0.006222556 0.0063299695 -0.028893612
took -0.007855253 -0.009511953 0.00852753 0.012038472 -0.005993177 -0.01296811 0.013030149 -0.01506774 -0.023009267 -0.003994003 -0.0043620165 0.013122557 0.006487724 0.007864117 0.007312862 -0.004617854 -0.012833802 -0.00325249 0.0034089927 -0.0050213323 -0.014595624 0.018327141 -0.0004246266 -0.0029489333 0.00039984658 -0.009391759 0.0005934655 0.0020617037 -0.003694045 -0.02692995 -0.008389238 0.010779622 0.002840805 -0.011825789 -0.020968465 -0.005302549 0.0023179648 0.00261514 -0.0074159456 -0.014448058 0.00781931 -0.017624548 0.014621499 0.0009012293 0.021150213 0.0025976682 0.01430964 -0.015212749 -0.002925282 -0.0055081025 0.0031570815 0.005564296 0.0073258947 -0.014945294 -0.012901166 0.014425091 -0.0063049067 0.018491067 -0.00023046526 -0.008384036 -0.010657443 0.011685282 0.007582278 0.011160905 0.0026555993 0.003718126 -0.009874093 0.00018054208 0.004117354 -0.0028256683 -0.0039097127 -0.011221558 0.0041595353 -0.00059617223 0.020880744 -0.008475328 -0.00066483783 -0.005215611 0.007999713 -9.653578e-05 0.0022789813 0.006822824 -0.007123692 0.0009082655 -0.009148993 -0.0068714316 -0.007871066 0.004003862 -0.016120011 0.0008886772 0.012575932 -0.011315817 0.010240593 -0.0023316308 -0.011450582 -0.011949481 0.0002974045 -0.0030765028 0.005706406 -0.025002342
does 0.00063426467 -0.01228852 0.009923898 0.010525428 -0.00241213 -0.012981964 0.0054347594 -0.012503648 -0.015919868 -0.001560821 -0.008585165 0.009142836 0.009430761 0.00062216393 0.007174511 -0.0055554346 -0.014550749 -0.006611527 0.0042365873 -0.0027633884 -0.023373246 0.009674452 0.0018572082 -0.0039967364 0.0014581779 -0.012741038 0.008514125 0.005505346 -0.0065119397 -0.02733419 -0.00674196 0.01060972 0.0032239472 -0.012445407 -0.018315818 -0.00629984 0.0076996377 0.0080775805 -0.0024154151 -0.0067458423 0.012666626 -0.016544163 0.0069647497 0.0026922072 0.015512308 0.010101075 0.010542292 -0.014850458 -0.0033971288 -0.009155736 0.0030703708 0.0071687666 0.0037244176 -0.019362384 -0.016360778 0.013195208 -0.0064276783 0.011137224 0.002062139 -0.0047589615 -0.005895768 0.009039024 -0.0018495175 0.01592299 0.0065856166 0.004164132 -0.004458774 0.0057290383 0.009693157 -0.007735559 0.0027280618 -0.0033513526 -0.004314988 -0.0021004924 0.02572669 -0.009634576 -0.0054181796 -0.011558236 0.01332503 0.0012841827 0.00039260194 0.002447855 -0.013902114 0.0016267595 -0.0041633532 -0.0075337742 -0.006571246 -0.0017383175 -0.010583978 0.0037502514 0.012640258 -0.009177912 0.011413417 0.0041638063 -0.018772688 -0.01508355 0.00095433154 -0.0013679346 0.005407644 -0.024942238
liver -0.0040088138 -0.01562544 0.008284148 0.013560256 -0.0062181377 -0.0125362305 0.009007243 -0.015745133 -0.023312176 -0.0016867362 -2.6104171e-05 0.010866454 0.008502231 0.0046415334 0.010386779 -0.013594578 -0.00992598 -0.0047148736 0.005081183 -0.0014615188 -0.025535243 0.022444526 0.00074653263 -0.011409406 -0.00021984836 -0.013392419 0.007348881 0.004279856 -0.0019985093 -0.038651355 -0.006663824 0.008822717 0.007130517 -0.0063247373 -0.019075764 -0.009817055 0.0030985519 0.010220172 -0.008026358 -0.0113090435 0.01584671 -0.014929233 0.0156882 -0.00093275635 0.024791298 0.008578179 0.011692513 -0.010266145 -0.0064250585 -0.016212681 0.0044656694 0.00852077 0.007132581 -0.020347653 -0.022501031 0.009986707 -0.0047762366 0.017145427 0.0056267404 -0.0066504898 -0.0050046057 0.020751836 0.008246413 0.010787854 -0.0007087192 0.00451255 -0.007960764 0.0019106031 0.0043176 -0.0065519684 -0.0061266525 -0.006726209 -0.00015927608 0.005403695 0.025778692 -0.016031774 -0.0051677623 -0.011411009 0.0112435 0.0036734177 0.0031703343 0.0069802618 -0.01590429 0.009160639 -0.011488292 -0.0075250613 -0.012607546 0.00040558536 -0.017625336 -0.00075569906 0.016266719 -0.01442516 0.0070990915 -0.0013250042 -0.023869218 -0.0151953325 -0.0013398133 0.00046225963 0.0067397743 -0.027079418
outpatient -0.0002876445 -0.015437631 0.010923108 0.0058362614 -0.0037555078 -0.008637948 0.0051245955 -0.020007532 -0.02090206 -0.0032847195 -0.008314647 0.012328453 0.008135677 0.00086451997 0.0019432066 -0.00786698 -0.016214365 -0.007563642 0.004535545 -0.0021236967 -0.022259086 0.021212399 0.0029059213 -0.010743364 0.0037369058 -0.015961504 0.0065137646 0.0005275855 -0.0066983188 -0.031037338 -0.00074563076 0.01444782 0.003216846 -0.014383269 -0.014987268 -0.007565248 0.011980587 0.008755437 -0.0035395767 -0.011311571 0.01733649 -0.017296152 0.0151012335 -0.0009908113 0.017866014 0.0029864416 0.016300695 -0.011383097 -0.005395352 -0.014023843 0.0034064238 0.011974973 0.015267699 -0.015066814 -0.01993983 0.010766442 -0.0030653793 0.010596459 0.0052612848 -0.005499147 -0.013226885 0.018770343 0.0050974805 0.012579034 0.006906552 0.006852188 -0.010254585 0.0016909289 0.009484749 -0.008183763 -0.003287718 -0.007234557 0.0021910712 0.0011940518 0.030922724 -0.016406003 -0.0015192574 -0.014751497 0.007066841 0.006860834 -0.00019806458 0.0061236797 -0.015626527 0.007850509 -0.012039925 -0.0074615874 -0.007567659 0.0041018096 -0.017701272 0.0065279803 0.018195666 -0.011409558 0.0035486512 0.005885897 -0.017478187 -0.015817892 -0.006638366 -0.0016316578 0.0074514044 -0.02826382
cocaine -0.008923888 -0.018376905 0.007317897 0.011026827 -0.0031812666 -0.0078275 0.009747089 -0.016928483 -0.015947387 0.001606352 0.0012291016 0.010954637 0.008009035 0.0025984673 0.002357807 -0.013649799 -0.010286384 -0.008898114 0.007322118 0.0014024918 -0.01952791 0.01966027 -0.0039199735 -0.0033496427 0.0060975943 -0.015793106 0.0020150624 -0.0015143204 0.0004848831 -0.029756945 -0.0070545925 0.015063439 0.009631258 -0.013152294 -0.014615081 -0.010463047 0.00223704 0.0076431734 -0.0050694495 -0.014645669 0.008507007 -0.015469668 0.012836597 -0.0015705905 0.01733386 0.002357119 0.013906079 -0.008510817 -0.0063503836 -0.0054619103 -0.0020976309 0.010723907 0.0062694144 -0.021004526 -0.014959888 0.013913781 -0.0050542154 0.011386771 0.004303828 -0.0026793755 -0.007436887 0.016751299 0.007780512 0.00846944 0.006381967 0.0012521474 -0.005281546 0.00047558369 0.00045827535 -0.0040520225 -0.005446438 -0.0045500332 0.0038354334 -0.00019115214 0.02613802 -0.013916846 0.0017483935 -0.008325101 0.013518991 0.0071115317 -0.0012452804 0.008031886 -0.0059149144 0.009968738 -0.008540664 -4.6079917e-05 -0.004103225 -0.00068420096 -0.012614933 0.0045009027 0.018627966 -0.011827983 0.0052762427 -0.00039248684 -0.014247347 -0.0076096808 0.0012637342 -0.0057510436 0.00034881258 -0.021584922
taking -0.0016968162 -0.011291315 0.008420645 0.006262374 -0.005077356 -0.012346117 0.006383313 -0.012242304 -0.017566824 -0.003500123 -0.001609884 0.013912923 0.011755127 0.008849574 0.007836937 -0.01084373 -0.0069948346 -0.0031692155 0.0105473455 -0.0054702237 -0.022640638 0.012347653 -0.002394996 -0.0046301517 -0.0018542198 -0.015295263 0.0006679243 0.0027268361 0.00072107115 -0.032235894 -0.008939507 0.015485802 0.0031157995 -0.007222219 -0.021258656 -0.005604266 0.00899298 0.00060096325 0.0014203072 -0.010304768 0.016740788 -0.0116045335 0.013561538 0.0037959942 0.022204965 0.005011407 0.014177262 -0.0068635345 -0.010349191 -0.005891321 -0.0004742318 0.0030092262 0.0065726615 -0.012167659 -0.019755185 0.012433678 -0.0068591544 0.011208248 0.0071462775 0.0008441803 -0.004656373 0.014773656 0.001100242 0.0140388375 0.005380552 0.0047426336 -0.007891346 0.0016422599 0.007153049 0.001972759 -0.004155587 -0.0072426694 0.0018426328 -0.0032849652 0.025380537 -0.013330276 -0.0018293208 -0.013619081 0.013755141 0.006844814 0.0028065983 0.0019991545 -0.0071459454 0.005109211 -0.0036524828 -0.0014295026 -0.010079034 0.0010675752 -0.014755174 0.0012530868 0.011785202 -0.011352758 0.009497342 0.0018734706 -0.014779374 -0.01195092 -0.0031223586 -0.001160574 0.00548503 -0.017012717
fibrillation -0.0027696663 -0.013597891 0.005231561 0.004309761 -0.00403604 -0.013376514 0.011496766 -0.019118417 -0.014658457 0.00040506542 -0.0056793666 0.01482227 0.012699512 0.00033221053 0.008688449 -0.007730066 -0.0062769214 -0.008443511 0.007495955 -0.007395237 -0.023471957 0.014984862 -0.00053977297 -0.007102257 0.0040411702 -0.011978268 0.0062030335 -0.00010717716 -0.0048730704 -0.030826475 -0.0010799756 0.012809684 0.009308705 -0.011677997 -0.021104608 -0.0066997907 0.0034695696 0.0015358559 -0.00049210753 -0.013417446 0.012691316 -0.0167324 0.014877034 0.0065405215 0.016951688 0.0017345077 0.011872362 -0.011696253 -0.006181379 -0.011120869 0.004181446 0.007802164 0.007950379 -0.012712555 -0.012149003 0.005570636 -0.0055887927 0.008394763 -0.0008900774 -0.0064185555 -0.005939622 0.016686996 0.002158363 0.006938364 -0.0013727983 0.0020010734 -0.008834973 0.0037614566 0.00243043 -0.0016660368 -0.0015677976 -0.0025395954 -0.0012365401 8.959609e-05 0.019344436 -0.016574282 -0.0019829927 -0.010802825 0.0094498955 -0.00064431067 0.0062179756 0.0024391399 -0.008413629 0.0043593827 -0.010540076 -0.0039320416 -0.0031193567 -0.00070570875 -0.0115370285 -0.0014172598 0.017494915 -0.017139565 0.0043489374 0.0045879832 -0.017243251 -0.0126186395 7.857235e-06 0.003054673 0.0055393353 -0.025968341
stitle 0.00069938804 -0.015648866 0.0016262243 0.0061877803 -0.0013249423 -0.016484316 0.0110095935 -0.013005248 -0.024569847 0.0003609254 -0.0064735175 0.010409516 0.010641881 0.0051780622 0.006104446 -0.009682031 -0.007978694 -0.010027549 0.004133073 0.0015809624 -0.022732649 0.014443251 0.0002132746 -0.01291765 0.006600521 -0.014933808 0.00428198 0.003970401 -0.002210756 -0.032143272 -0.0002560414 0.012103586 0.005416438 -0.009563254 -0.02103871 -0.014086774 0.009449826 0.009277154 -0.0023879758 -0.0068844263 0.014519185 -0.010240876 0.013744726 0.0030913176 0.018623035 0.005137791 0.0062194965 -0.011202999 -0.0034334674 -0.005964667 0.0040860744 0.0061678938 0.007189463 -0.014291319 -0.02270319 0.016536444 0.0013898943 0.019626753 0.0037785268 0.0013877321 -0.008424804 0.016248884 0.0077421335 0.009950813 0.00092927745 0.010201227 -0.0067437612 -0.00079119555 0.008165554 -0.00567861 -0.0017611419 -0.007780031 0.0029742806 0.0050231568 0.028739972 -0.009961781 -0.0061581098 -0.014075615 0.0066261846 0.0034117731 -0.0014370906 0.0016628753 -0.0074510872 0.0074410657 -0.0030458113 -0.0045901663 -0.0049163965 0.0011861888 -0.013311597 -0.00093248574 0.01969739 -0.013701868 0.007303104 -0.0018520191 -0.015467211 -0.008194535 -0.0018398686 -0.0012202198 0.0051626666 -0.027105073
remained -0.003454239 -0.01669018 0.0060131536 0.008512329 -0.0061264606 -0.0085532265 0.009663684 -0.011959779 -0.017096914 -0.0014250535 -0.0033342808 0.0059255008 0.014279324 0.008715749 0.007603452 -0.0046128407 -0.0125940945 -0.0013713442 0.010814553 -0.006196424 -0.023347212 0.01867964 0.0036229428 -0.010263354 0.0019393833 -0.009878626 0.0043872935 0.001928888 -0.0010396038 -0.029654024 -0.004505863 0.008934983 0.00093463634 -0.007312022 -0.01354307 -0.012267275 0.009140338 0.008708596 -0.0024124747 -0.013954209 0.009672232 -0.016303007 0.015082592 0.003381285 0.021510694 0.009623541 0.013548716 -0.0057639373 -0.0104011325 -0.010787472 0.0018385948 0.008892398 0.007550253 -0.013880774 -0.017793722 0.015645934 -0.004777063 0.018158035 0.0040522027 -0.0029440192 -0.007493043 0.011612849 0.002907069 0.0125988275 -0.0024969724 0.0070558977 -0.0022305634 0.0012142471 0.0015952314 -0.0015010309 -0.00016021723 -0.01090396 0.0021789097 0.0021942041 0.019128665 -0.0143665485 0.002575781 -0.009196947 0.011799853 -0.00059077656 0.0007874908 0.0045285425 -0.014313519 0.00794793 -0.009534604 0.00044932158 -0.009574053 -0.0017915125 -0.012749711 -0.0013047329 0.0146812145 -0.0083963685 0.008537152 -0.0015050769 -0.015235138 -0.015278597 -0.0020011666 -0.004529768 0.002129654 -0.024706079
atrial -0.00066979486 -0.019007204 0.006587478 0.009347692 -0.006503143 -0.008833106 0.0053588515 -0.02133794 -0.017617377 -0.005142896 -0.0053664204 0.009962839 0.014223107 0.008840354 0.00021859 -0.010362435 -0.015236345 -0.0035037294 0.009612981 -0.005012409 -0.024655495 0.021390213 -0.003174363 -0.01219612 -0.0005944145 -0.018488027 0.0056014066 2.9773571e-05 -0.0024583072 -0.032437168 -0.009131627 0.017360443 0.0026715593 -0.007005991 -0.023907375 -0.016652144 0.007500144 0.006516273 -0.0074592377 -0.010927758 0.017193293 -0.015808979 0.013596097 0.0017591873 0.025416752 0.0033791151 0.012138473 -0.014426925 -0.010120058 -0.01564327 -0.0011346181 0.0069988538 0.007011504 -0.024991235 -0.02015227 0.008493411 -0.00787797 0.016204203 0.0025824325 -0.0065558623 -0.012470806 0.019394299 0.004185382 0.013969507 -0.00011077949 0.0031144365 -0.009776114 0.0027363338 0.010265735 -0.0059160823 -0.0038715145 -0.013613404 -0.0037471757 0.00052877987 0.023897478 -0.021085147 -0.005729927 -0.008366749 0.012550469 0.008311564 0.0012992527 0.006245433 -0.007931033 0.0043058717 -0.00557579 -0.0043351296 -0.010613004 -0.0043939524 -0.013263626 0.007502512 0.020688351 -0.013829395 0.012894571 -0.0029636424 -0.01499431 -0.009588733 0.0007554495 -0.00028703004 0.00036026764 -0.031886432
hours -0.006215753 -0.0140982075 0.0022975164 0.008931185 -0.006692818 -0.015057143 0.011927166 -0.018219378 -0.02310911 -0.00372949 -0.0024755779 0.012723646 0.009441479 0.008879626 0.0019886645 -0.0145549085 -0.00934948 -0.00415415 0.01162878 0.0006011313 -0.023510078 0.015322771 -0.00033669965 -0.009094578 0.0046445997 -0.017663727 0.0029700557 0.0065046246 0.00046084943 -0.0307505 -0.00066150085 0.009219257 0.0052780323 -0.014643402 -0.02402812 -0.009886986 0.008682922 0.0069456287 -0.0016147459 -0.008556518 0.013903806 -0.011159733 0.01369232 0.001738896 0.024940021 0.0038986092 0.012628159 -0.012099399 -0.0019463717 -0.011109926 0.0044345777 0.005168042 0.011754475 -0.02296177 -0.020825824 0.014481051 -0.005589873 0.011317606 0.0016470369 -0.002873786 -0.005323819 0.020526042 0.004982816 0.017269038 0.005645056 0.006649163 -0.0011305877 -0.0012687581 0.004463711 -0.003734608 -0.0048833354 -0.0051401397 -0.00061003957 -0.00024338534 0.027941834 -0.015033888 -0.0059605185 -0.01086103 0.012855319 -0.0003290982 0.0010958127 0.0073304 -0.012190353 0.005779114 -0.0065892483 0.00033082027 -0.0055804653 -0.000108321816 -0.018368628 0.0015388986 0.012623088 -0.01752237 0.011032364 0.002695583 -0.02325528 -0.011174232 -0.000507336 -0.001998207 0.0059823706 -0.026347065
hospital3 -0.0036180005 -0.014906965 0.003665531 0.013637461 -0.007576489 -0.015178795 0.008649078 -0.022088377 -0.01866683 -0.0028637764 -0.00030940477 0.017377805 0.015282851 0.0072286627 0.007832045 -0.015202868 -0.017562255 -0.004534305 0.009601581 -0.0017519176 -0.02047298 0.020491041 -0.004309515 -0.01162196 0.00588241 -0.01386892 0.009070948 -0.00084479566 -0.0053173606 -0.033176284 -0.0065745325 0.017908715 0.0080651175 -0.0056349486 -0.021067364 -0.0132458825 0.010226075 0.0033143398 -0.0017214001 -0.009684984 0.015873376 -0.015685229 0.016969886 0.0046296325 0.027058426 0.003017816 0.017034292 -0.016800012 -0.0065602 -0.016547583 3.5548797e-05 0.0093631875 0.009248519 -0.02346409 -0.021536434 0.011051519 -1.5761121e-05 0.013542678 0.008203179 -0.00736974 -0.011711724 0.020322906 0.0033355898 0.016964037 0.0021425425 0.008436063 -0.0018583436 0.0034230999 0.0014152337 -0.0023038709 -0.0071071144 -0.011295284 0.0033669004 0.0021933198 0.031997357 -0.02143956 -0.0073892525 -0.011522135 0.012964305 0.005825684 0.0013293794 -0.00040086565 -0.009049821 0.0022295916 -0.011435146 0.0003640548 -0.010786521 0.0048603574 -0.011612687 0.00027263042 0.021231668 -0.017263338 0.0074848575 0.0044220993 -0.021698477 -0.014012996 -0.007853567 -0.0037542116 0.0076725553 -0.027365755
died -0.0032164457 -0.018567458 0.00286403 0.009245122 -0.0069070393 -0.009255888 0.00469468 -0.0118010305 -0.015827363 -0.0045223194 -0.0042058034 0.009742218 0.011220835 0.0044142334 0.0013214424 -0.010658537 -0.008668159 -0.0052742055 0.0055380305 -0.00073933904 -0.0201756 0.011188244 0.0048744865 -0.009174917 0.0032427988 -0.010518045 0.00758645 2.0289588e-05 -0.0047351853 -0.026805919 -0.0028152156 0.00903507 0.009377298 -0.0070816036 -0.014756375 -0.0053399815 0.0035323054 0.0011277688 -0.005627527 -0.012895032 0.010554024 -0.012671533 0.00833107 0.0035863027 0.022996945 0.0075806757 0.006350613 -0.009286712 -0.0021949965 -0.0086881295 0.0008613508 0.010098591 0.009193378 -0.018882843 -0.021322167 0.0074402154 -0.0018123395 0.0116998665 0.001527162 -0.0014520418 -0.0092300465 0.009878125 0.007911029 0.01601963 0.0027391813 0.00064795424 -0.0043424037 0.0035191134 0.0030751484 0.0005598556 0.0012579835 -0.008346994 0.0035216396 0.003435569 0.026266422 -0.014150489 -0.003981873 -0.010740887 0.013114273 0.002062456 0.00030619046 0.0005058904 -0.006191926 0.0040640575 -0.008267975 -0.004972709 -0.0063243625 0.0036897021 -0.0076101567 0.00402179 0.019436862 -0.009814675 0.003929446 0.000104831546 -0.011704473 -0.010563286 -0.0057748402 0.0027375505 0.003099044 -0.024479605
states -8.006234e-05 -0.014479506 0.009152679 0.0059327125 -0.007932597 -0.016373018 0.009905956 -0.021758381 -0.019827835 -0.003677439 -0.008398667 0.015497574 0.008252608 0.008057501 0.0074751987 -0.0048649716 -0.01685338 -0.0032167642 0.007282012 -0.006478594 -0.021934353 0.01942338 -0.0035628956 -0.011917203 0.0009414606 -0.01761007 0.005487957 0.00496156 -0.005484797 -0.03290104 -0.00012122753 0.013596971 0.0010758443 -0.010970868 -0.019211918 -0.011144001 0.0049549867 0.009204862 -0.0068277973 -0.0076684086 0.008967533 -0.014325148 0.010565476 -0.0009492611 0.025913756 0.011256627 0.013071294 -0.012814961 -0.010831381 -0.009505288 0.0048907017 0.012781132 0.011429895 -0.020029722 -0.019106597 0.011352766 -0.006090739 0.011004556 0.004079121 -0.0019961682 -0.008700933 0.019766033 0.005794947 0.011228309 0.0070875585 0.0035408058 -0.0021985683 0.008321081 0.0077033318 -0.004754757 -0.0041495897 -0.010994245 5.4637134e-05 0.0029364035 0.02522206 -0.009632749 -0.003184438 -0.011009206 0.0062321513 -0.0010453062 0.007047667 0.0048913276 -0.007840426 0.00993398 -0.003127374 -0.0068930904 -0.011046662 0.0049141087 -0.015922934 0.00048697184 0.012454265 -0.010840421 0.0064926953 0.0056215767 -0.015748575 -0.012321536 0.0015238806 -0.0028819495 0.004231379 -0.023729587
followup -0.0076119034 -0.015779682 0.0028676065 0.0057563796 -0.0023891155 -0.016155072 0.00784496 -0.017528504 -0.016367335 -0.00029016726 -0.0046532056 0.007644234 0.007375288 0.005496358 0.0047904127 -0.006493051 -0.010087102 -0.0015169894 0.007127011 -0.00805503 -0.019289589 0.019829446 0.0027887418 -0.0071901237 0.0015928829 -0.016794695 0.0034205024 0.007832931 -0.0060216947 -0.035289507 -0.00010806773 0.013146146 0.006753476 -0.009452038 -0.02071969 -0.006096982 0.012091362 0.0010308371 -0.00601829 -0.014243281 0.014631661 -0.009929138 0.012283346 0.005632547 0.02075084 0.003273066 0.006630962 -0.010303578 -0.011204869 -0.01175423 -0.0041419026 0.006584323 0.0045963395 -0.016833479 -0.02188631 0.011060713 -0.0033682792 0.0145424 0.0062395697 -0.00671361 -0.011660468 0.015669288 -0.0009837775 0.015603327 0.0062860176 0.0072593703 -0.00074784923 0.0036450296 0.006806328 0.0010389187 -0.00031799322 -0.010497145 0.003647337 0.004127822 0.027860735 -0.01669898 -0.006542451 -0.01568054 0.0061156154 0.005714343 0.0029773389 0.006319075 -0.010937723 0.0015564855 -0.010613227 -0.004075569 -0.0088761775 0.0031244773 -0.012939072 0.0040222537 0.012229149 -0.015826292 0.00798989 -2.831194e-05 -0.015925888 -0.013627685 -0.007445912 -0.00504483 0.008246117 -0.024039147
renal -0.003894897 -0.015629418 0.003351636 0.012196204 -0.006560442 -0.0124029685 0.00890012 -0.021052139 -0.020718891 -0.0015988927 -0.0013511957 0.01264154 0.013981667 0.002381247 0.009430865 -0.014374377 -0.01701121 -0.010227427 0.011495564 -0.0017536763 -0.024774713 0.01871473 0.00085210806 -0.009959413 0.00302165 -0.014850739 0.0013847104 0.00039026386 -0.0050673387 -0.03291367 -0.00038721788 0.015090511 0.0028637652 -0.0043132207 -0.017553272 -0.00815839 0.010853204 0.0060014264 -0.0052631693 -0.005718869 0.008756176 -0.010446366 0.011982271 -0.0003057933 0.022332724 0.010738344 0.0076776254 -0.010168173 -0.008622022 -0.011551889 -0.0007065087 0.0054482594 0.00896269 -0.019493025 -0.022822067 0.010957363 -0.0019343682 0.011643831 0.007851743 -0.000951802 -0.009109406 0.01754257 0.0042514005 0.009695706 0.0018751412 0.0073916884 -0.010237919 0.0018404089 0.00013320154 0.0006671586 -0.004406082 -0.010730373 0.0016562957 0.0047893343 0.028927092 -0.010436707 0.001748865 -0.0092397155 0.0055036317 0.0056660227 0.0052893315 0.008330018 -0.010709621 0.0023961451 -0.005103444 -0.00055595743 -0.011695941 0.0026722406 -0.013802404 0.0065835514 0.017897256 -0.014206638 0.009475012 -0.00082147535 -0.021571614 -0.012344523 -0.0005832484 0.0020174407 0.0034810442 -0.025903553
mellitus -0.006859708 -0.013962383 0.0026786271 0.011710556 -0.0028117942 -0.012331266 0.011909185 -0.019536 -0.023015173 -0.0025586104 -5.267102e-05 0.009292805 0.007991864 0.00041338307 0.0035593126 -0.010928464 -0.0115662115 -0.004332873 0.0030145927 -0.003133433 -0.015764693 0.012447529 0.0002503234 -0.0069578825 -0.002640198 -0.017773755 0.008526345 0.0008257377 0.0006274056 -0.030946214 -0.0034613747 0.0108509585 0.0037319388 -0.013821164 -0.016230183 -0.012354552 0.007720065 0.0075706695 0.0013684306 -0.011153004 0.013562781 -0.015051559 0.013307188 -0.0031755336 0.025897833 0.0059744944 0.0063244477 -0.0063283835 -0.010237876 -0.013984553 -0.002924134 0.0037969735 0.009131165 -0.013670126 -0.019838428 0.011936698 -0.0056801955 0.012581262 0.0012750591 -0.007312144 -0.009876398 0.011395473 -0.0009321304 0.013079462 -0.00031106413 0.003344566 -0.0026213948 -0.0005284646 0.001467842 -0.0018501328 -0.00041894996 -0.008049832 0.005399276 -0.00095100264 0.028867764 -0.015978593 -0.0010732702 -0.012873298 0.0072341477 0.0010728226 0.0076445485 0.0037621676 -0.010803816 0.008488876 -0.012047 -0.0057361806 -0.008582274 -0.00457852 -0.012649936 0.004197667 0.013508857 -0.016249588 0.0045455773 -7.714814e-06 -0.014830714 -0.013117316 -0.0056814738 -0.00022998104 0.0024057198 -0.021753
