548 100
drugs -0.049587213 -0.30270863 -0.09531068 0.14320986 0.22788876 -0.37543726 0.079516605 0.07702323 0.03835318 -0.32653937 -0.21603431 -0.035608802 -0.1387462 0.1669966 -0.22766279 -0.13244474 -0.090375304 -0.17454122 0.31624648 0.118283704 -0.1430782 0.055674534 -0.36257687 0.276143 0.08627932 -0.16419803 0.22478817 0.25404003 -0.08626522 0.12017442 -0.34277898 0.10795696 0.09915757 0.015218006 0.009084431 -0.41470337 -0.028897002 0.21769692 0.18920939 -0.33138278 0.40249825 -0.0052075875 0.08157503 0.04263837 0.02442244 -0.03043431 0.41406876 0.20957845 -0.09945514 -0.31583396 -0.21930368 0.025767 0.11944342 0.36711165 -0.11632079 0.2590952 -0.32759154 -0.18404035 0.09555052 -0.2917455 0.05213251 0.3665645 0.25941443 0.1486519 -0.1252107 0.25714713 0.18888491 -0.37462068 0.124009736 -0.071288966 0.06718344 -0.20624763 0.16888031 -0.2700324 0.2258154 -0.28271693 0.173821 0.04370008 -0.25348827 -0.12647723 -0.32256123 -0.23234674 -0.51867104 -0.108146004 0.37731987 -0.072489314 -0.10019776 -0.23613994 0.21618178 -0.29148984 0.28060728 0.13974412 -0.41678643 0.07445399 0.20748974 0.01589955 -0.29982495 -0.1819597 0.21371071 -0.014207834
lives -0.044128645 -0.27119824 -0.089632556 0.12794867 0.20982379 -0.34372425 0.07620184 0.06674644 0.040348038 -0.2931084 -0.18867993 -0.030216815 -0.12483742 0.15597086 -0.20811737 -0.12443384 -0.08600741 -0.15429866 0.2841679 0.10023827 -0.12862377 0.058648415 -0.33070034 0.24328843 0.08042461 -0.14661372 0.20015903 0.22271636 -0.082773864 0.10751084 -0.30751526 0.09617016 0.08741282 0.0103895785 0.0111642135 -0.3694535 -0.025407847 0.19451047 0.17234014 -0.29094592 0.35872954 -0.0102295345 0.072965324 0.04260561 0.024116859 -0.028111551 0.36898562 0.1956089 -0.07978292 -0.28783113 -0.19012293 0.02586801 0.10665778 0.32048908 -0.106436975 0.23959494 -0.2969458 -0.16353856 0.08149711 -0.26429164 0.050893255 0.32397592 0.23286146 0.13145213 -0.110975005 0.2284694 0.16781485 -0.34073186 0.110066704 -0.058994953 0.06525748 -0.18307833 0.15012845 -0.23624556 0.19967505 -0.2534399 0.15788813 0.038586866 -0.22551325 -0.11523084 -0.29200065 -0.20494838 -0.46396106 -0.09184196 0.33705446 -0.06457242 -0.08723291 -0.21410894 0.19218504 -0.26182026 0.25676405 0.1214894 -0.37279153 0.068003185 0.18530418 0.014390736 -0.26391894 -0.15968646 0.19220695 -0.00842912
medications -0.04505166 -0.2699973 -0.08173688 0.12548436 0.20291966 -0.3352258 0.075968616 0.061659385 0.033772063 -0.2876322 -0.18816942 -0.031840533 -0.12085924 0.15066881 -0.20136435 -0.11731018 -0.08224076 -0.14916886 0.2738965 0.09949605 -0.12745576 0.056393888 -0.32916337 0.2427719 0.08519945 -0.14391348 0.20197284 0.21573018 -0.07339997 0.10740733 -0.30542505 0.09246748 0.08533543 0.013024297 0.0033574596 -0.36413506 -0.029418938 0.18846172 0.17438954 -0.29041675 0.35962814 -0.009193743 0.075316854 0.040547572 0.023894181 -0.0245248 0.36275333 0.18806571 -0.085434325 -0.28074303 -0.19658552 0.024732476 0.10530005 0.32536224 -0.102303505 0.23434286 -0.28521654 -0.16476102 0.08223911 -0.26558 0.046858504 0.32281065 0.23628242 0.13279213 -0.11756425 0.23186597 0.17045762 -0.32849377 0.105801046 -0.064625144 0.060186908 -0.1878224 0.14621933 -0.24122344 0.19782011 -0.2518556 0.14807957 0.034568846 -0.22306667 -0.10984217 -0.2830027 -0.20246741 -0.4587962 -0.0933355 0.33100736 -0.06120802 -0.08430026 -0.20893593 0.19160023 -0.25518447 0.2446793 0.12272927 -0.36577252 0.0676082 0.18156868 0.017993925 -0.2641124 -0.15867998 0.19213851 -0.009205187
tylenol -0.033920497 -0.21895547 -0.07159758 0.09466997 0.16034636 -0.27123094 0.057949517 0.05345867 0.030906398 -0.22970623 -0.15327382 -0.023507169 -0.09131862 0.120345615 -0.15812725 -0.09524457 -0.06969429 -0.12838827 0.22099984 0.08336255 -0.10030449 0.039561573 -0.26282758 0.19610131 0.05988738 -0.11518469 0.16390765 0.18107238 -0.06706936 0.08849819 -0.24229616 0.076808855 0.06686513 0.015201772 0.005703625 -0.29750398 -0.025347777 0.15572044 0.13585472 -0.23515177 0.29249555 -0.011201051 0.054805517 0.027742395 0.022061152 -0.025008544 0.29704404 0.15085806 -0.06914945 -0.22757146 -0.15918063 0.017350962 0.079099156 0.25960684 -0.078311995 0.18955956 -0.23318109 -0.12909006 0.066144966 -0.21065016 0.03509648 0.2639094 0.19041587 0.10020331 -0.096019566 0.18463686 0.13481498 -0.27286085 0.08469148 -0.050278623 0.045227077 -0.15265441 0.11869752 -0.19143648 0.16660196 -0.19530971 0.12668414 0.032890886 -0.18034859 -0.08564673 -0.22416626 -0.17126822 -0.36666632 -0.0784495 0.26218075 -0.055556674 -0.07112842 -0.17197719 0.15216501 -0.21113396 0.20122996 0.09917154 -0.29590183 0.053792175 0.14615554 0.0151286 -0.2086403 -0.12780942 0.15329269 -0.008576946
 -0.03861269 -0.23885591 -0.08041083 0.111446604 0.18428643 -0.30006418 0.065246955 0.05904315 0.035067767 -0.2591811 -0.1728817 -0.027942784 -0.106457524 0.1354928 -0.18287429 -0.11149494 -0.075632185 -0.13761511 0.25377724 0.08912323 -0.116414465 0.049459815 -0.29305384 0.21442632 0.07325376 -0.1258376 0.18510117 0.20306216 -0.069607444 0.10020619 -0.2765794 0.08730415 0.078631364 0.016310949 0.0060134167 -0.33107403 -0.02156573 0.17262381 0.15659462 -0.26500687 0.32592633 -0.0099106645 0.060578063 0.03626213 0.015809365 -0.023617405 0.3351616 0.17323217 -0.07841036 -0.26063406 -0.17425883 0.022080813 0.09863391 0.29455936 -0.09687279 0.20729262 -0.26331568 -0.15285629 0.0706601 -0.23382983 0.048236504 0.298258 0.20799634 0.121781915 -0.1018655 0.20633675 0.15448247 -0.29855734 0.098886214 -0.060203314 0.057405666 -0.16547625 0.12795673 -0.21185811 0.18516096 -0.22242206 0.13713549 0.033321954 -0.20387319 -0.1029484 -0.25343844 -0.19024844 -0.41361117 -0.08233597 0.30247033 -0.054419454 -0.08101988 -0.19268681 0.17661725 -0.2332398 0.22324862 0.11500783 -0.32885814 0.05714729 0.1696815 0.016528415 -0.23787825 -0.14073862 0.17738225 -0.004719223
suicide -0.032755796 -0.23299882 -0.074563496 0.1017256 0.17638364 -0.2935041 0.06626088 0.05231508 0.034958486 -0.2455434 -0.16570814 -0.024376122 -0.10524044 0.13128997 -0.17659321 -0.100875296 -0.075406834 -0.13591972 0.24401961 0.085594065 -0.10759939 0.043504063 -0.279188 0.20735335 0.06713455 -0.12082225 0.17100863 0.18749858 -0.06578499 0.098338306 -0.2568721 0.0812423 0.07595524 0.016653968 0.0070369723 -0.31267014 -0.022657543 0.17041191 0.14431147 -0.2534402 0.3100397 -0.0054466054 0.06456515 0.035573598 0.02346953 -0.023206918 0.313982 0.16475752 -0.06925464 -0.24337557 -0.16553016 0.024516955 0.09107099 0.27955317 -0.085570596 0.19966196 -0.24741144 -0.14390457 0.067815445 -0.22456565 0.039423306 0.27302635 0.19589967 0.114694424 -0.1026136 0.1981864 0.14552689 -0.2903324 0.09780955 -0.054854967 0.05184594 -0.15794212 0.122134686 -0.20384508 0.17396465 -0.21552938 0.12808567 0.028620519 -0.18842459 -0.100398794 -0.24698669 -0.17730725 -0.39307374 -0.080558755 0.28816238 -0.051310416 -0.07730397 -0.18721141 0.16877997 -0.22207022 0.21211635 0.10539647 -0.3098096 0.060245153 0.15577129 0.011539818 -0.22778815 -0.13766176 0.16206019 -0.009775293
recommended -0.032530256 -0.21510385 -0.071346946 0.1000126 0.16497192 -0.27229297 0.05940236 0.055834565 0.027151652 -0.22855994 -0.15624633 -0.032285064 -0.095116235 0.123351015 -0.16049117 -0.10179206 -0.07193087 -0.12697206 0.23103292 0.08591661 -0.09618638 0.047782633 -0.26961142 0.19658582 0.069946006 -0.11602026 0.16530174 0.18173018 -0.05855742 0.09094139 -0.25135836 0.07311385 0.071604155 0.009004429 0.004329681 -0.29834005 -0.027114555 0.15893643 0.13631137 -0.23669586 0.2955343 -0.010933591 0.056281146 0.026920328 0.014095404 -0.026256025 0.3027225 0.15587482 -0.06489653 -0.2284302 -0.15642773 0.019693645 0.08461658 0.25962707 -0.08675393 0.19285882 -0.23095849 -0.13095148 0.07177721 -0.21521975 0.03419117 0.25837708 0.18696229 0.10497149 -0.09091253 0.1821618 0.13954511 -0.27018446 0.09213222 -0.049031254 0.0457294 -0.14555421 0.12227907 -0.19129945 0.16735186 -0.20401016 0.11896764 0.026060458 -0.18273647 -0.09269807 -0.22911239 -0.16623756 -0.37409228 -0.072958924 0.27110693 -0.048754673 -0.06755483 -0.17788588 0.15523122 -0.2124062 0.19995798 0.09760442 -0.29950753 0.05591908 0.15522502 0.015533546 -0.21932343 -0.12627085 0.15452771 -0.004595887
attempts -0.036882393 -0.23949718 -0.0801405 0.10748963 0.18504685 -0.31106362 0.065346465 0.06421921 0.034633383 -0.26210973 -0.17283522 -0.030291608 -0.11050499 0.14037816 -0.17887421 -0.112099536 -0.071203224 -0.14390026 0.25650585 0.096990526 -0.11162211 0.053207025 -0.29883483 0.21978974 0.069727495 -0.12783174 0.18320036 0.2054725 -0.07278178 0.10353723 -0.27823368 0.084717155 0.075846426 0.0130360685 0.0092870975 -0.3342372 -0.026959132 0.1748294 0.1547945 -0.26581702 0.32975003 -0.01269532 0.067693874 0.037003566 0.016009973 -0.026178611 0.3316672 0.17069833 -0.080511734 -0.2583758 -0.17841111 0.029643523 0.1001108 0.29581714 -0.0933272 0.21172348 -0.26788762 -0.15063122 0.07543081 -0.24274816 0.04176248 0.2906636 0.21504194 0.12067 -0.108354144 0.21010444 0.15168132 -0.30028126 0.0982418 -0.052659564 0.05704731 -0.16528709 0.12805279 -0.21983546 0.18693691 -0.23063341 0.14093165 0.031557713 -0.19874 -0.10141966 -0.26337174 -0.18886563 -0.41690552 -0.08403736 0.30518 -0.057418644 -0.07939737 -0.19404879 0.18089347 -0.24075031 0.22606044 0.11512132 -0.33798394 0.057990495 0.17357789 0.016324317 -0.24593705 -0.14498009 0.17481226 -0.008717465
transferred -0.037635297 -0.20791858 -0.06932276 0.092139035 0.16205914 -0.2655642 0.05761193 0.04902897 0.02917169 -0.2230579 -0.15405618 -0.023830049 -0.092900194 0.12279375 -0.1543704 -0.09133684 -0.06137414 -0.115650505 0.21821776 0.08065108 -0.09758996 0.038156755 -0.25674164 0.19121662 0.06542793 -0.11147924 0.1619909 0.17110795 -0.061446507 0.09119373 -0.24043286 0.07081368 0.06815055 0.015105215 0.0012201304 -0.2945587 -0.026430713 0.14846046 0.13715263 -0.23448232 0.2830717 -0.0021492522 0.05435108 0.024507096 0.013836393 -0.025909435 0.2879049 0.14913179 -0.064584106 -0.22200349 -0.15357938 0.024696121 0.07806056 0.24915859 -0.07923784 0.17859519 -0.22195865 -0.12579235 0.06567006 -0.20737924 0.038083993 0.25420383 0.18656527 0.104683064 -0.09408873 0.18317673 0.13256513 -0.26456976 0.08617428 -0.052086364 0.045560975 -0.1440358 0.1164812 -0.18679477 0.1606226 -0.199692 0.121165 0.028477585 -0.1787344 -0.09241346 -0.22317454 -0.16541974 -0.35517302 -0.06841438 0.26010546 -0.053740665 -0.06372077 -0.1660677 0.15275368 -0.20643045 0.19888555 0.09589819 -0.28803325 0.051161487 0.15053461 0.012396427 -0.203003 -0.12033204 0.156069 -0.0035637931
admitted -0.03497584 -0.22910401 -0.06955202 0.10622273 0.1726668 -0.28274438 0.06340829 0.057516348 0.03171027 -0.24270867 -0.16327693 -0.025983911 -0.10193887 0.1329411 -0.17122753 -0.107926235 -0.06580537 -0.13424778 0.23214681 0.08462151 -0.10343542 0.045244034 -0.27324703 0.20650847 0.06640643 -0.1235208 0.17229486 0.1896564 -0.069082916 0.09665307 -0.25306523 0.07553233 0.07420756 0.011398997 0.006172506 -0.31348088 -0.027463078 0.16728494 0.14168234 -0.24950081 0.30582076 -0.0038662192 0.06372267 0.027275842 0.018562628 -0.02372201 0.31439206 0.1606248 -0.07419745 -0.23630482 -0.16676788 0.027089275 0.090674154 0.2693913 -0.08896559 0.1936791 -0.2431859 -0.14110744 0.07405619 -0.2194288 0.044880584 0.27270463 0.19377324 0.105779335 -0.09933821 0.19325167 0.14452378 -0.27741972 0.09534455 -0.051028084 0.0553493 -0.15610243 0.121268585 -0.20240851 0.17121534 -0.21408334 0.13045047 0.02614542 -0.18338363 -0.095419064 -0.2425952 -0.17839186 -0.38115436 -0.079424776 0.27979955 -0.057579204 -0.07259277 -0.1804736 0.16739012 -0.22340241 0.20941776 0.10657504 -0.31264317 0.058452185 0.15991746 0.00985291 -0.22193229 -0.13589019 0.16749398 -0.0068259174
psychiatry -0.036343414 -0.23620246 -0.08250819 0.10640049 0.18253435 -0.30309004 0.06831368 0.06223516 0.031875145 -0.26075265 -0.16525568 -0.0324378 -0.10844367 0.13547201 -0.17898671 -0.10809399 -0.07181401 -0.13517316 0.2549103 0.08711316 -0.105969965 0.049935088 -0.29618573 0.21451122 0.06791275 -0.12633108 0.17945518 0.19414166 -0.070731945 0.10054335 -0.27596357 0.08785566 0.08075921 0.009381583 0.002198562 -0.33463484 -0.022420987 0.17367268 0.15528321 -0.26638213 0.31804955 -0.010265294 0.05864571 0.035275854 0.021115728 -0.019412488 0.32441393 0.16761784 -0.0744214 -0.25116014 -0.17162625 0.025784677 0.09785248 0.2861219 -0.097045 0.20930842 -0.25531805 -0.14632039 0.078474894 -0.23364256 0.0423598 0.2874034 0.21168455 0.118772544 -0.10054829 0.20447095 0.15511331 -0.30379257 0.09347317 -0.05302217 0.053672854 -0.16876157 0.12888646 -0.21538606 0.18353905 -0.2189729 0.13981317 0.032194715 -0.20482287 -0.10053987 -0.25395492 -0.18627048 -0.4124965 -0.0847998 0.29503393 -0.057384875 -0.074859716 -0.19626302 0.17396778 -0.23776019 0.2269338 0.110511236 -0.32555878 0.0581579 0.16600932 0.011625502 -0.24122804 -0.14471038 0.17033571 -0.0059932712
respiratory -0.03709228 -0.22096258 -0.07020384 0.102966435 0.17139313 -0.27802342 0.064091325 0.055881876 0.026407251 -0.23913176 -0.1564637 -0.025746014 -0.09721085 0.1311002 -0.17168637 -0.10110687 -0.07191154 -0.12736124 0.22871242 0.087678164 -0.10513026 0.04127196 -0.27393246 0.19854909 0.06768008 -0.12110346 0.16991156 0.18507026 -0.060105752 0.08690675 -0.25107762 0.07775868 0.07351185 0.010003694 0.010507939 -0.31014323 -0.027526537 0.15907028 0.14091322 -0.24425611 0.29727542 -0.006248302 0.06096434 0.030699948 0.014362226 -0.022243124 0.30838588 0.15750247 -0.074584454 -0.23194411 -0.15720649 0.023156732 0.0889363 0.26990992 -0.08226673 0.19261517 -0.23967163 -0.13093247 0.06562072 -0.21898763 0.04232289 0.27342823 0.19773395 0.10380917 -0.09941637 0.18638079 0.14038068 -0.2817616 0.09082952 -0.051660635 0.049204197 -0.14760326 0.12084754 -0.193464 0.16999657 -0.20879295 0.13120724 0.025368515 -0.1859074 -0.0961879 -0.23622711 -0.17293029 -0.3829584 -0.07785021 0.27360225 -0.052925102 -0.07206612 -0.17332716 0.15815097 -0.21914187 0.20964384 0.10535015 -0.3003681 0.051187314 0.1581318 0.007333964 -0.22067656 -0.12902513 0.15898183 -0.008536317
been -0.042939343 -0.2539691 -0.08144403 0.11055973 0.19505411 -0.31893647 0.07252277 0.061696094 0.035653625 -0.27049747 -0.1765496 -0.03397123 -0.111701176 0.14090858 -0.18445058 -0.114204526 -0.07577821 -0.14798075 0.26529583 0.09084333 -0.11628126 0.046110384 -0.30438128 0.22736964 0.0770854 -0.13090852 0.19264469 0.2029453 -0.07211566 0.099622644 -0.2795617 0.08867326 0.08363621 0.017669061 0.0038371787 -0.3457386 -0.031627905 0.18455745 0.15595359 -0.27422094 0.33736682 -0.0037098867 0.070568405 0.03294981 0.019947376 -0.022130065 0.3415894 0.17988013 -0.078729264 -0.2679783 -0.18420157 0.026644887 0.094247974 0.30240136 -0.09767076 0.22221582 -0.27145755 -0.14763236 0.076148964 -0.23979323 0.049064875 0.30391735 0.21846715 0.11889367 -0.11018298 0.21306773 0.15627736 -0.3086075 0.10087186 -0.05871138 0.058776323 -0.17287524 0.13318174 -0.2200768 0.18503705 -0.23450284 0.13914774 0.028364833 -0.21026435 -0.10277897 -0.26749545 -0.19459842 -0.42688927 -0.09153051 0.3086972 -0.057310205 -0.07547895 -0.20000012 0.17671305 -0.2391758 0.2322625 0.11466817 -0.34093893 0.066427715 0.1760512 0.015687436 -0.2441982 -0.14827052 0.1834293 -0.0058357
psychiatric -0.03734905 -0.24714456 -0.083727 0.11533982 0.19469458 -0.31572512 0.07027214 0.064870894 0.03478813 -0.2611006 -0.17566623 -0.028393188 -0.112479724 0.14450136 -0.18729657 -0.110042065 -0.08044084 -0.14554022 0.26248807 0.09228414 -0.11749928 0.04750533 -0.2980657 0.2239731 0.07303224 -0.1367141 0.19248103 0.20404865 -0.0727356 0.100529276 -0.27837938 0.08359141 0.07610711 0.013180762 0.006708662 -0.34298372 -0.025927229 0.17470229 0.15619873 -0.26690322 0.32929298 -0.012560525 0.06768615 0.037928462 0.020119943 -0.022468884 0.33593956 0.17981741 -0.07394936 -0.26505536 -0.17453676 0.025080187 0.09208239 0.29303497 -0.092403784 0.2183788 -0.26817542 -0.15359025 0.07248303 -0.2408316 0.040743727 0.30160278 0.22137184 0.12464471 -0.10799988 0.21475577 0.16091867 -0.30583224 0.10165817 -0.057577655 0.056461617 -0.1708549 0.1329378 -0.22034754 0.19028117 -0.23083228 0.1395147 0.027896827 -0.2106859 -0.10662153 -0.26367432 -0.19515623 -0.41966367 -0.08643485 0.31126 -0.055529434 -0.08235708 -0.20011027 0.17819738 -0.2411109 0.23249336 0.116701335 -0.33818197 0.058131292 0.17415258 0.01680543 -0.24788654 -0.14916168 0.18149017 -0.0029046878
attending -0.031977594 -0.20750012 -0.063498765 0.09058094 0.16156153 -0.25350848 0.057011727 0.054570735 0.022781678 -0.2208829 -0.14704227 -0.023424175 -0.0899627 0.11435287 -0.15815811 -0.09216494 -0.062550165 -0.11751413 0.21527806 0.07983195 -0.09304565 0.040150233 -0.24447142 0.18416804 0.06386834 -0.11259737 0.15670368 0.16591315 -0.054344513 0.08676844 -0.22963792 0.06948515 0.06635332 0.015896823 0.0053440286 -0.28532672 -0.025215087 0.14653774 0.13308832 -0.22675297 0.2775533 -0.006310965 0.055131175 0.032413885 0.014180616 -0.015872471 0.27960205 0.1496192 -0.060386226 -0.21443318 -0.14688945 0.019889304 0.075943865 0.25139672 -0.07478719 0.17997313 -0.22606562 -0.12304518 0.06412652 -0.19722252 0.035538375 0.24634072 0.17437026 0.096116215 -0.08995767 0.17382166 0.13514702 -0.25914755 0.0858857 -0.044334117 0.04733841 -0.1398737 0.11423669 -0.17804956 0.15761903 -0.19510955 0.11753626 0.027592838 -0.16752428 -0.08763577 -0.21487668 -0.15774916 -0.3457423 -0.07569659 0.25750375 -0.050475217 -0.06570438 -0.16278605 0.15278092 -0.20135298 0.18914887 0.09717239 -0.2765259 0.051162437 0.13948043 0.013916095 -0.19979773 -0.12557459 0.14759322 -0.0017042917
diagnosis -0.034473117 -0.24263345 -0.08007586 0.10863518 0.18595009 -0.29663116 0.06423303 0.061499383 0.03492542 -0.26018 -0.1737744 -0.028572842 -0.10966007 0.13128568 -0.18225487 -0.10842042 -0.07623911 -0.13375433 0.24605364 0.08540094 -0.109102845 0.05084888 -0.29278788 0.21254812 0.07126737 -0.12551723 0.18442622 0.19211693 -0.06651829 0.10073751 -0.2724198 0.085249625 0.0793257 0.013812616 0.005003693 -0.33225647 -0.025262767 0.16997968 0.15546432 -0.262516 0.32242852 -0.013017733 0.06039778 0.0345061 0.016621903 -0.021578375 0.3258534 0.16930144 -0.07944948 -0.24710248 -0.1706756 0.026716817 0.092096545 0.29097223 -0.09549136 0.20382348 -0.25640485 -0.1482076 0.075227685 -0.23076959 0.04755435 0.28554997 0.20709732 0.114618234 -0.10605998 0.20024581 0.15464307 -0.29670975 0.09502065 -0.059031885 0.052445177 -0.1604196 0.13057907 -0.21004334 0.17770268 -0.22013132 0.13853341 0.029726965 -0.20305753 -0.10053561 -0.2580539 -0.18956845 -0.4066741 -0.0854824 0.30049223 -0.06100064 -0.080587745 -0.1920307 0.17606393 -0.22934845 0.2259641 0.11085206 -0.33113977 0.05740602 0.16859831 0.00909496 -0.24115662 -0.13844691 0.17704117 -0.00375208
secondary -0.036405653 -0.22404994 -0.07228232 0.10123151 0.16782945 -0.27941668 0.06153392 0.05543437 0.032091517 -0.23494528 -0.1594273 -0.030184356 -0.09510695 0.11990358 -0.16718213 -0.098122895 -0.07007889 -0.12933572 0.22595032 0.085309796 -0.099661924 0.043677136 -0.27055725 0.20045525 0.06461406 -0.11614597 0.16568656 0.18353204 -0.06109922 0.09225041 -0.25167197 0.07916175 0.07480201 0.012772892 0.00311974 -0.3028228 -0.02159342 0.15768793 0.13707916 -0.24339363 0.29275718 -0.0027367575 0.05504931 0.02883171 0.019930728 -0.024899326 0.30430746 0.15287459 -0.06956046 -0.23262559 -0.15431811 0.01851247 0.09041098 0.26682 -0.08723994 0.19318353 -0.23944171 -0.13472937 0.07016446 -0.21744344 0.04079509 0.2638224 0.19575745 0.110831864 -0.09318102 0.18663874 0.1373192 -0.2704739 0.08676606 -0.052072164 0.04566902 -0.14877602 0.11784437 -0.19410866 0.1629831 -0.2027133 0.12849268 0.02655367 -0.18683293 -0.08810394 -0.23471169 -0.17345564 -0.37681514 -0.07742781 0.2692924 -0.050172515 -0.07022389 -0.17329802 0.15990557 -0.21164118 0.20956625 0.098441005 -0.29975286 0.054340295 0.15643243 0.014475055 -0.21226454 -0.13433832 0.1578198 -0.011279739
etoh -0.032482732 -0.20832878 -0.07089533 0.09083995 0.16258267 -0.25757283 0.054493476 0.04681279 0.023178887 -0.22365023 -0.1514496 -0.030760888 -0.094031975 0.12098918 -0.15800135 -0.09897467 -0.061954334 -0.121218234 0.214611 0.07692142 -0.09648047 0.037452683 -0.25634912 0.1889116 0.060967717 -0.106611565 0.15642051 0.17263427 -0.05967981 0.08203151 -0.23778918 0.07607551 0.06501247 0.011568266 0.0039399345 -0.288917 -0.026634756 0.14436138 0.13461904 -0.2295838 0.27795738 -0.008633374 0.053644303 0.033327572 0.018562885 -0.022786109 0.28395662 0.14116155 -0.06244223 -0.21848835 -0.14470078 0.016814023 0.07840023 0.24884747 -0.07668479 0.17518328 -0.22431037 -0.12525086 0.06509816 -0.20277466 0.039964035 0.2469522 0.18175386 0.099480025 -0.090121515 0.18064171 0.13317247 -0.25984377 0.085936636 -0.05295182 0.046526562 -0.14678757 0.11626865 -0.17876355 0.15742359 -0.18854459 0.122138835 0.022378339 -0.16818126 -0.09066263 -0.21584108 -0.16461128 -0.35285252 -0.07471776 0.25819457 -0.05371555 -0.062679656 -0.16994934 0.14559935 -0.2011998 0.19270945 0.09107222 -0.2836741 0.05487656 0.14309558 0.011772059 -0.20920813 -0.1269948 0.14694339 -0.0040238774
hospital1 -0.036329336 -0.2115203 -0.07233964 0.10123541 0.16900764 -0.26706278 0.06183508 0.057139914 0.029516833 -0.22844453 -0.15545286 -0.029269237 -0.10013598 0.12410557 -0.16474888 -0.09348569 -0.06887839 -0.120851584 0.21915187 0.07619831 -0.0963194 0.04399363 -0.2623947 0.19153857 0.066536695 -0.11137079 0.16520113 0.18015413 -0.06559849 0.08408918 -0.24051806 0.07182497 0.06639089 0.015217039 0.007542885 -0.2934251 -0.027028402 0.1502995 0.13611738 -0.23208435 0.2824932 -0.011367813 0.057093132 0.026831802 0.016203681 -0.017631872 0.29522848 0.1504688 -0.070191234 -0.22265819 -0.15528151 0.025316793 0.07852383 0.26184842 -0.084048755 0.18321945 -0.23396029 -0.13075703 0.06876247 -0.213434 0.041905504 0.2555486 0.19140577 0.099038504 -0.09445588 0.17832282 0.14014195 -0.2676505 0.086011566 -0.0483461 0.052422814 -0.14410312 0.12127386 -0.1878072 0.1653041 -0.20085794 0.11658026 0.024486527 -0.17849347 -0.08789576 -0.22539487 -0.16343354 -0.36114344 -0.07438996 0.26787242 -0.05299933 -0.063529834 -0.16868351 0.15733968 -0.21053496 0.20121892 0.09478114 -0.29444894 0.058027335 0.14539328 0.015238629 -0.2117734 -0.12588531 0.15315284 -0.0026943753
were -0.036441635 -0.19922961 -0.062219854 0.09206842 0.15956987 -0.26072142 0.05451821 0.049829632 0.023104033 -0.21904677 -0.14338818 -0.025391283 -0.094762936 0.11699304 -0.15308477 -0.09375109 -0.06670729 -0.112797484 0.21677828 0.0777343 -0.095572926 0.043770462 -0.25020677 0.18593161 0.061559662 -0.1144469 0.15789351 0.16905405 -0.061270755 0.08439313 -0.2271334 0.07003075 0.06658679 0.012694111 0.010062449 -0.2815939 -0.023015207 0.14269754 0.13386181 -0.2253346 0.2689319 -0.0031525057 0.055684958 0.03355961 0.019391725 -0.015546894 0.2835138 0.14567003 -0.06783492 -0.2131618 -0.14479187 0.018781517 0.07556262 0.2482197 -0.081050195 0.17936444 -0.22531128 -0.12417073 0.05949245 -0.20379329 0.037262857 0.24224535 0.18305172 0.09804747 -0.08714002 0.17541681 0.12859412 -0.25808537 0.08596925 -0.04466128 0.051489454 -0.13655987 0.10784381 -0.18316714 0.15114267 -0.1914129 0.114329875 0.031685274 -0.16692773 -0.08955306 -0.21384965 -0.15367298 -0.35069233 -0.0756356 0.2560495 -0.047101714 -0.061927557 -0.15970495 0.1459454 -0.20143785 0.1882091 0.0907467 -0.27995676 0.054795787 0.14623213 0.0079637775 -0.20467782 -0.12144584 0.14651708 -0.010682922
suicidal -0.036714833 -0.23250934 -0.0716938 0.10716588 0.17859273 -0.2889892 0.065832615 0.058948085 0.03370279 -0.24758983 -0.16789739 -0.032145005 -0.10372216 0.13359112 -0.16919717 -0.106286466 -0.06578567 -0.13655256 0.2414114 0.083903044 -0.10369846 0.04586768 -0.27531177 0.20716311 0.06871387 -0.12560089 0.17713694 0.18893003 -0.070409395 0.09725832 -0.26172113 0.08221007 0.07479979 0.012914362 0.0038437273 -0.3172262 -0.023485577 0.16843694 0.14743246 -0.24659185 0.3100915 -0.012292077 0.06423196 0.03351882 0.017743144 -0.027694015 0.31238925 0.16409959 -0.07697955 -0.24413943 -0.1650543 0.023662025 0.091846384 0.27227277 -0.08866146 0.20025586 -0.25264058 -0.13968576 0.069857575 -0.22098969 0.04225613 0.27909118 0.20331624 0.11083731 -0.10000607 0.19883095 0.15029988 -0.28753236 0.09875239 -0.04992668 0.057795115 -0.16190466 0.12695986 -0.20395187 0.17077067 -0.21721683 0.12988107 0.030127672 -0.19260044 -0.09758512 -0.24804616 -0.17981873 -0.3936847 -0.07661087 0.28715855 -0.055421248 -0.07519144 -0.18514244 0.16462004 -0.21916437 0.2173622 0.10269733 -0.3157996 0.061281756 0.1643294 0.012960092 -0.23201431 -0.13510165 0.16703431 -0.008817607
seen -0.033168044 -0.22121213 -0.067940764 0.10154082 0.17442894 -0.2835302 0.064358845 0.052252475 0.03224076 -0.23489875 -0.1578115 -0.029214097 -0.09963626 0.12361866 -0.1662623 -0.10579205 -0.06574943 -0.1319214 0.2314296 0.08819541 -0.09793464 0.047322523 -0.27147838 0.20489146 0.06640468 -0.11572764 0.16827205 0.18102898 -0.059655394 0.09513493 -0.24739954 0.08218064 0.06853216 0.007741254 0.011127694 -0.31007043 -0.022648543 0.16341144 0.14470902 -0.24537922 0.30161673 -0.010831313 0.05641805 0.028131427 0.023100363 -0.024191372 0.30985388 0.16005301 -0.07434253 -0.23233904 -0.15473089 0.017473092 0.085279875 0.26801914 -0.08706591 0.19624932 -0.23979574 -0.13105743 0.07113224 -0.21335348 0.03733659 0.27283818 0.19588897 0.105671644 -0.09312158 0.19271258 0.14462326 -0.2797345 0.09339969 -0.05644952 0.053406056 -0.15380071 0.11860387 -0.19971623 0.16933355 -0.21090437 0.12910822 0.033358146 -0.1854096 -0.096948445 -0.23418264 -0.17429836 -0.3829874 -0.08077289 0.27521315 -0.05201558 -0.06755254 -0.17471333 0.15729594 -0.21650736 0.20955028 0.09890952 -0.30622116 0.06028853 0.15943001 0.01612084 -0.21573259 -0.13363384 0.1551001 -0.009105005
surgical -0.037908 -0.20415649 -0.07043663 0.0964868 0.16009757 -0.2628657 0.05994128 0.047069553 0.023255017 -0.21812087 -0.1443459 -0.030758783 -0.089571305 0.114918806 -0.1575741 -0.09298934 -0.06445573 -0.12030181 0.21409468 0.07951548 -0.09763547 0.04217435 -0.2534724 0.18874359 0.05778522 -0.111265555 0.15924682 0.17429313 -0.05601262 0.083739154 -0.23883232 0.07296892 0.062930085 0.00910866 0.0018489923 -0.28831467 -0.027429571 0.15185492 0.1313735 -0.224362 0.27587923 -0.0093013495 0.05743749 0.03127831 0.02134698 -0.022443084 0.28783306 0.15069695 -0.06339484 -0.21943478 -0.15008898 0.023984583 0.0819171 0.24587972 -0.08306375 0.18011808 -0.22709268 -0.122533284 0.058668237 -0.20490453 0.04148904 0.24822329 0.18045884 0.098303035 -0.087359786 0.1757488 0.12749776 -0.261089 0.07925163 -0.049482893 0.045452762 -0.1456549 0.11348108 -0.18543835 0.15567806 -0.19412434 0.1143339 0.029743958 -0.17153984 -0.08700946 -0.22149232 -0.16309 -0.3492806 -0.07058479 0.2591767 -0.045750782 -0.061532397 -0.16369122 0.1481718 -0.20269044 0.19370475 0.095508225 -0.28116673 0.049093507 0.14584044 0.010070581 -0.20262499 -0.12039389 0.14741789 -0.0056710965
medically -0.031419992 -0.18390574 -0.055001587 0.08220896 0.13523974 -0.2250837 0.04735035 0.048558965 0.02401046 -0.19109403 -0.12984547 -0.022691024 -0.08202166 0.10092019 -0.13960873 -0.08366282 -0.05578423 -0.10096077 0.19053027 0.07047075 -0.07886396 0.03343124 -0.21602961 0.16209099 0.057281606 -0.10064449 0.14058913 0.14352764 -0.053198326 0.07395222 -0.19850534 0.064400464 0.062287297 0.005404093 0.008751806 -0.24573742 -0.02221836 0.12623706 0.113362856 -0.20058255 0.23618111 -0.004602941 0.046508748 0.028467111 0.010780301 -0.01809881 0.24435917 0.12788364 -0.05751299 -0.18487243 -0.12490769 0.015858743 0.06711417 0.21860494 -0.06679008 0.15367194 -0.19308592 -0.10621678 0.059723638 -0.18034247 0.03607505 0.2120682 0.15663902 0.08880166 -0.07313724 0.15610081 0.112645246 -0.22210976 0.07523773 -0.046043426 0.046055008 -0.12607609 0.09683576 -0.15975955 0.14000571 -0.16693884 0.10215787 0.022922734 -0.15483327 -0.07359783 -0.19475603 -0.14056031 -0.3104709 -0.06437944 0.22475298 -0.04687278 -0.061731983 -0.14466603 0.13179283 -0.17272261 0.16347589 0.08440587 -0.24179809 0.04737565 0.12110941 0.013317638 -0.17284857 -0.10250965 0.13316303 -0.0074962713
psych -0.028123321 -0.18166493 -0.060066037 0.08476597 0.14175236 -0.22766998 0.05098814 0.04160365 0.02807976 -0.193009 -0.13041955 -0.022526465 -0.076312214 0.10188074 -0.13777371 -0.08710011 -0.054779623 -0.0990986 0.19111122 0.07147626 -0.07850951 0.039152663 -0.22309493 0.16549234 0.049667515 -0.09869889 0.13706587 0.14964038 -0.056716453 0.069698334 -0.20570128 0.06709094 0.054019086 0.008283527 0.008901699 -0.25132465 -0.020049166 0.13127041 0.1180967 -0.19642429 0.23671868 -0.00360997 0.04294651 0.023500841 0.020128611 -0.021555936 0.2506864 0.12640065 -0.0591868 -0.19394232 -0.12871121 0.021830782 0.07169642 0.21250811 -0.069873914 0.1604893 -0.19666079 -0.1100573 0.059688304 -0.1805364 0.030337278 0.22225367 0.15977618 0.08370094 -0.07385387 0.15070407 0.10988425 -0.22582975 0.06993011 -0.03859762 0.041958146 -0.1233139 0.09691199 -0.1593051 0.13444765 -0.17030604 0.10179733 0.028427377 -0.14985032 -0.07110139 -0.18998154 -0.1370728 -0.30440244 -0.06077204 0.22123802 -0.038025647 -0.057487316 -0.14784153 0.12883584 -0.17336324 0.17304593 0.08327419 -0.25076795 0.04990075 0.12543897 0.009475428 -0.1828087 -0.10542993 0.13044941 -0.0024866608
known -0.032998804 -0.1989672 -0.06534996 0.0890466 0.15746136 -0.25538176 0.05748629 0.04617631 0.02853099 -0.21130806 -0.14180541 -0.024659729 -0.09349726 0.11538193 -0.15099482 -0.08885674 -0.060866 -0.120002985 0.21034725 0.07990871 -0.09480823 0.036855776 -0.24233109 0.18621334 0.057687767 -0.1045916 0.14945696 0.16553304 -0.056017745 0.07997835 -0.23316468 0.07060939 0.066667326 0.015652554 0.003969315 -0.27546966 -0.022983292 0.14705049 0.13001108 -0.22427723 0.27052572 -0.0035015673 0.05681475 0.024043292 0.020886127 -0.021824565 0.27235252 0.14470218 -0.065536045 -0.21726778 -0.14187029 0.018963352 0.07504364 0.24319354 -0.07923156 0.17094275 -0.21574631 -0.12530448 0.058668256 -0.1992266 0.04033159 0.2427052 0.17401287 0.09482919 -0.08088676 0.16597866 0.12871051 -0.24637292 0.08009007 -0.04448782 0.04345533 -0.14075601 0.10961445 -0.17594431 0.15566987 -0.19166511 0.11452574 0.023530286 -0.16346198 -0.08550531 -0.21641189 -0.15916954 -0.34780198 -0.0724034 0.24841402 -0.049096234 -0.0685869 -0.16520475 0.14612031 -0.19478683 0.18763512 0.09494846 -0.28102282 0.048298925 0.14266309 0.013466388 -0.20132694 -0.12300602 0.1448364 -0.005720936
ideation -0.033761825 -0.1786862 -0.05925279 0.08308369 0.13915516 -0.22683021 0.052370034 0.04413588 0.026050104 -0.19183378 -0.12844305 -0.019374602 -0.08520148 0.10471262 -0.14004327 -0.08514007 -0.054485645 -0.10267442 0.18372774 0.06467329 -0.08292312 0.031227788 -0.2227083 0.16402599 0.056799937 -0.09480595 0.13624622 0.153453 -0.049339104 0.076606184 -0.20352674 0.05931112 0.058071744 0.005826488 0.0069309026 -0.24849156 -0.014906428 0.13514654 0.11939247 -0.19318062 0.24427553 -0.0042120535 0.05201149 0.022821642 0.011480474 -0.018950623 0.251738 0.124193795 -0.05956339 -0.18803895 -0.13055095 0.014066447 0.06731728 0.22061484 -0.06675807 0.15609527 -0.19513908 -0.10723636 0.060284287 -0.177619 0.03698384 0.21790646 0.16243692 0.08637986 -0.07480301 0.157339 0.11888746 -0.22107656 0.07840048 -0.044104338 0.038759604 -0.120149486 0.10160326 -0.15815571 0.13178407 -0.16715223 0.10633592 0.020047082 -0.1473019 -0.07993239 -0.18934491 -0.13754325 -0.30946088 -0.064951345 0.22016896 -0.04561768 -0.058971565 -0.14755124 0.13043864 -0.17623605 0.16723163 0.082962394 -0.25004652 0.049101476 0.13078015 0.014603607 -0.18312572 -0.103006415 0.1309059 -0.0016518637
consulted -0.03356241 -0.21462685 -0.0688438 0.09707983 0.1599044 -0.26963347 0.057061195 0.056956124 0.031344514 -0.23014902 -0.15496564 -0.029552158 -0.092943296 0.12018796 -0.16193138 -0.09375617 -0.07046824 -0.12576346 0.21922095 0.08239024 -0.098517016 0.03863626 -0.25950015 0.18848561 0.064657584 -0.11311812 0.16347985 0.17677917 -0.06674066 0.087954946 -0.246814 0.07348793 0.064700834 0.012603996 0.0019710427 -0.29828867 -0.028138742 0.15322252 0.13318895 -0.23170722 0.28234896 -0.008521427 0.056502327 0.03139311 0.016848864 -0.017896337 0.29386213 0.15320079 -0.069532655 -0.22149862 -0.154733 0.022621082 0.08354038 0.26172966 -0.087227084 0.1867206 -0.23300356 -0.13208783 0.06620456 -0.20511653 0.039023478 0.25983652 0.18265972 0.09914564 -0.095481694 0.18611696 0.13843487 -0.2691626 0.088856824 -0.050929062 0.044292923 -0.14885153 0.113354765 -0.1858773 0.16525626 -0.19752623 0.120631956 0.03140342 -0.17989457 -0.08884909 -0.23197511 -0.16975474 -0.36977094 -0.07066569 0.26341483 -0.05458236 -0.06547214 -0.16979286 0.15441093 -0.20571224 0.19947088 0.09815078 -0.2935069 0.058599494 0.15095593 0.012706171 -0.21224862 -0.1251596 0.15613353 -0.01121482
inpatient -0.037971094 -0.2075111 -0.0727893 0.10052223 0.16786246 -0.2642547 0.054653004 0.056190178 0.025306165 -0.22486569 -0.14976156 -0.022340585 -0.09733353 0.115492664 -0.1581003 -0.100286454 -0.06081633 -0.12358251 0.21959399 0.082857385 -0.09490533 0.042874712 -0.2602563 0.1881666 0.06755681 -0.11776481 0.16254261 0.17569436 -0.062344212 0.0831434 -0.24082613 0.077832706 0.06449512 0.0124617275 0.0028344805 -0.29206696 -0.018458776 0.1519602 0.1326173 -0.22758359 0.2796067 -0.0023416684 0.061093707 0.026699655 0.02070759 -0.024875995 0.28706107 0.14486459 -0.064384505 -0.22639513 -0.1505891 0.016339567 0.08350686 0.25877333 -0.08109175 0.18759285 -0.22341269 -0.12555708 0.06616822 -0.20316336 0.03735746 0.25804645 0.18839581 0.103421345 -0.08841502 0.1811727 0.13776973 -0.26024997 0.09012829 -0.04425253 0.053362034 -0.14510746 0.11106457 -0.18601139 0.15612885 -0.19553964 0.12186781 0.025776329 -0.17969137 -0.09284059 -0.22913294 -0.1627251 -0.36141515 -0.07167086 0.26135087 -0.05047827 -0.06553673 -0.17228352 0.1552698 -0.20493434 0.20047775 0.09916303 -0.2865741 0.048735727 0.14626764 0.013884116 -0.20946175 -0.1310512 0.15444188 -0.0067054587
chronic -0.031682994 -0.16580617 -0.050479695 0.08287236 0.13263199 -0.21815644 0.04791028 0.040728793 0.025213692 -0.1852963 -0.11767229 -0.026242 -0.070712015 0.094288446 -0.12988752 -0.078656584 -0.05384328 -0.097015284 0.1774777 0.063474774 -0.08099998 0.038814656 -0.21164164 0.15627222 0.050163504 -0.08869047 0.13136806 0.13943592 -0.048996236 0.0680097 -0.19181421 0.06142561 0.057433613 0.011657081 0.010004659 -0.23948942 -0.015685286 0.12522493 0.103597045 -0.18794046 0.22772425 -0.0046296995 0.045158543 0.018910887 0.015154266 -0.020548841 0.23163861 0.11865983 -0.049944002 -0.18231201 -0.12232044 0.012540484 0.06279487 0.20234074 -0.06763142 0.15328535 -0.18005419 -0.101830915 0.051197935 -0.16959347 0.029734205 0.21011005 0.14469263 0.08328418 -0.07536724 0.14211605 0.111540355 -0.2132082 0.07417801 -0.03822124 0.044033926 -0.121744975 0.09270578 -0.15385453 0.1328358 -0.15829808 0.09570733 0.018022368 -0.13900198 -0.07013113 -0.18308945 -0.12993807 -0.2897007 -0.063003786 0.21011572 -0.04328679 -0.056417514 -0.14127325 0.12217759 -0.1618744 0.15946145 0.07834308 -0.23898792 0.040936634 0.12191062 0.0051631867 -0.16819249 -0.10379465 0.126078 -0.0081404615
further -0.029738808 -0.17020342 -0.05750606 0.075907126 0.12481411 -0.2080254 0.04687584 0.03611152 0.021157015 -0.18134008 -0.12193905 -0.02512304 -0.0731438 0.09883339 -0.12664719 -0.07681626 -0.04875215 -0.09561301 0.17451024 0.0649582 -0.074007235 0.031652637 -0.1985277 0.14892314 0.052584335 -0.087474 0.123884544 0.14259468 -0.051622313 0.06338809 -0.18775117 0.053744648 0.056790218 0.013236787 0.0045111296 -0.2261718 -0.022759873 0.124566816 0.101969 -0.17906101 0.22420645 -0.002045368 0.045069437 0.027468165 0.009921444 -0.01734069 0.22830871 0.119421475 -0.055412993 -0.17805135 -0.12206428 0.016039092 0.06719604 0.19953349 -0.06698242 0.14400826 -0.17696287 -0.098136194 0.055961836 -0.16127595 0.030425612 0.19811748 0.14435205 0.08437996 -0.0755238 0.13719621 0.1085016 -0.2111987 0.063278824 -0.03805625 0.038139492 -0.11629661 0.094361454 -0.14555492 0.13012676 -0.15666169 0.09519103 0.026361 -0.14099206 -0.06576728 -0.17591976 -0.1258771 -0.28251633 -0.05979903 0.21019319 -0.03794549 -0.055822514 -0.13641535 0.124522045 -0.15782993 0.15387535 0.078583926 -0.2328831 0.04203078 0.11525063 0.0091234725 -0.1611022 -0.10233729 0.1243495 -0.008472293
bipolar -0.031018864 -0.18660398 -0.05919151 0.08777453 0.14203465 -0.23011343 0.056441963 0.049300697 0.025182897 -0.1979481 -0.13520662 -0.020165611 -0.081595585 0.101377204 -0.14292537 -0.08269378 -0.060077004 -0.10286672 0.19018646 0.073711835 -0.08156934 0.034218732 -0.22938924 0.16655323 0.056159645 -0.099625565 0.13882996 0.15298505 -0.04979202 0.07872381 -0.20907578 0.06498011 0.055239405 0.014651905 0.0065152915 -0.2564406 -0.022575708 0.13067515 0.1228568 -0.20245647 0.24267308 -0.010696849 0.04608946 0.026420677 0.017060114 -0.0181765 0.2552192 0.12782688 -0.061259795 -0.19190851 -0.13454665 0.014725291 0.0743169 0.2268552 -0.07352241 0.16401361 -0.20080203 -0.11742422 0.05549689 -0.17952669 0.03152151 0.22783361 0.16446866 0.08750707 -0.075083606 0.15555327 0.11843816 -0.22839251 0.075210586 -0.043704953 0.038306672 -0.12693089 0.10085343 -0.16585764 0.13603024 -0.17698675 0.10276353 0.029115222 -0.15175106 -0.077088356 -0.19257455 -0.14559492 -0.3136823 -0.06740532 0.22710632 -0.04258668 -0.054802675 -0.15138872 0.13447347 -0.17987323 0.17160773 0.08244215 -0.24995473 0.045616295 0.12983578 0.012182941 -0.17818002 -0.108617015 0.13272156 -0.0069823936
discharged -0.020954559 -0.14913806 -0.052351013 0.06686633 0.122281045 -0.19172303 0.04709454 0.042365577 0.024326323 -0.16550744 -0.107838 -0.01717603 -0.064495675 0.089002505 -0.11976647 -0.07280522 -0.049103 -0.08853054 0.15951087 0.060407408 -0.07013248 0.027404929 -0.18154871 0.13891362 0.049665287 -0.077052034 0.11158116 0.12278522 -0.04486497 0.062363293 -0.1778094 0.054774858 0.048549097 0.008780149 0.0026108962 -0.21430461 -0.020824201 0.114314236 0.096039325 -0.17152925 0.20565411 -0.003204323 0.037690718 0.021867577 0.015069695 -0.019619185 0.21446995 0.108598664 -0.04542303 -0.16083291 -0.11246378 0.01820351 0.06327798 0.18862817 -0.05770938 0.13199762 -0.16198078 -0.09603251 0.051000196 -0.15366498 0.026843544 0.18138541 0.13783637 0.07439574 -0.066253744 0.12898405 0.098827794 -0.18589053 0.06337481 -0.03888727 0.03142654 -0.10381563 0.081508644 -0.14039885 0.120553896 -0.13989693 0.08990434 0.016955966 -0.13031852 -0.06687929 -0.16378322 -0.1208199 -0.25638482 -0.054769974 0.19112052 -0.03564696 -0.049696274 -0.12593226 0.11029039 -0.15249832 0.14787002 0.073484376 -0.2097991 0.04024953 0.108020365 0.008617587 -0.15579662 -0.09453391 0.10706613 -0.004618088
felt -0.031240687 -0.18221061 -0.06095206 0.08052628 0.14605494 -0.2353176 0.053665727 0.04229584 0.019792287 -0.20187919 -0.13188289 -0.018363317 -0.08549071 0.10994535 -0.13388887 -0.081577085 -0.060789052 -0.10678707 0.1940234 0.07266534 -0.089912444 0.03708151 -0.22363076 0.16903646 0.051532075 -0.10297501 0.1355193 0.15616651 -0.051560365 0.0741561 -0.20795196 0.06873161 0.058845278 0.013762215 0.0035596213 -0.25957853 -0.01961374 0.13216636 0.115834914 -0.20194231 0.24319352 -0.0028064935 0.046359368 0.028084446 0.020309333 -0.023352388 0.252954 0.13135235 -0.053560674 -0.19929695 -0.12877603 0.019926297 0.07173638 0.21684109 -0.07223727 0.16295172 -0.2001414 -0.1098933 0.057574045 -0.1835991 0.03648377 0.21956775 0.16483827 0.090723895 -0.07965699 0.15566804 0.11426661 -0.23423208 0.0796143 -0.044906925 0.037611656 -0.13098446 0.0968822 -0.16518897 0.14192331 -0.16732523 0.10484834 0.027516196 -0.15144296 -0.07328385 -0.1995803 -0.1421718 -0.31547266 -0.06455618 0.22445853 -0.0478792 -0.058580935 -0.15237853 0.13487431 -0.1820351 0.16745731 0.085777916 -0.24917014 0.043962557 0.12912545 0.008280837 -0.18376853 -0.11057694 0.13117136 -0.0054557617
years -0.030718654 -0.17507447 -0.05202948 0.0771199 0.1317396 -0.21794736 0.04621272 0.04657806 0.01804575 -0.18092668 -0.124322094 -0.023654133 -0.07907689 0.09815734 -0.12575081 -0.08075824 -0.051820125 -0.099877045 0.18232302 0.062103607 -0.08130728 0.03886639 -0.20582214 0.15375964 0.054722834 -0.08782626 0.132424 0.14297041 -0.046181653 0.06810835 -0.18890402 0.055861816 0.057033777 0.007727415 0.006858448 -0.23971659 -0.015928838 0.12067099 0.110053964 -0.18468413 0.22780783 -0.0055538793 0.048222553 0.022822881 0.015044964 -0.016400222 0.2317786 0.11659686 -0.05245981 -0.18396898 -0.119063005 0.016285451 0.06866136 0.20396304 -0.06765336 0.14970393 -0.18136455 -0.104495995 0.05006552 -0.1717399 0.02708542 0.21015234 0.15063937 0.08247441 -0.06821766 0.14801157 0.10678512 -0.2141773 0.072900616 -0.041621342 0.03559102 -0.114796616 0.09121604 -0.15359837 0.12914144 -0.16003442 0.09175562 0.01962801 -0.14214097 -0.073827446 -0.184855 -0.13188782 -0.2890248 -0.063833766 0.20920831 -0.04550538 -0.059135757 -0.13632302 0.12261422 -0.17001078 0.15813214 0.0749287 -0.22921048 0.044583388 0.120947585 0.01403065 -0.17392291 -0.10637798 0.12128284 -0.0013049396
seizures -0.020400893 -0.15897776 -0.047142237 0.0680719 0.11430566 -0.19477527 0.040848255 0.03763278 0.015451753 -0.17021303 -0.11322992 -0.016322736 -0.0706662 0.088729054 -0.114823826 -0.0710253 -0.04965957 -0.09046566 0.15570112 0.057507865 -0.07413186 0.029620962 -0.18858284 0.13806517 0.045801077 -0.08644732 0.116897464 0.12289859 -0.04443405 0.06280693 -0.17917278 0.058933523 0.05050932 0.012425784 0.0005333624 -0.20964612 -0.015337526 0.11477837 0.09339697 -0.16559382 0.21002316 -0.004858365 0.042533956 0.017865384 0.010451594 -0.01502855 0.21195532 0.10864234 -0.052820116 -0.1662067 -0.10781935 0.014902134 0.061909895 0.19002472 -0.06315249 0.13217747 -0.16892831 -0.09756662 0.04408498 -0.15154122 0.02413563 0.18605433 0.13008706 0.071429886 -0.06415793 0.13209009 0.09953036 -0.19617307 0.0673299 -0.036103174 0.032421783 -0.1056674 0.08823608 -0.139866 0.11385851 -0.14127208 0.09001298 0.020182246 -0.13273768 -0.060413253 -0.16669296 -0.124432445 -0.25903034 -0.0515028 0.19566698 -0.03993481 -0.05214061 -0.12156024 0.10888176 -0.15350989 0.1405704 0.0742485 -0.21149836 0.03621537 0.10811712 0.007330886 -0.1538557 -0.09151836 0.10904477 -0.0065427674
acute -0.021986209 -0.14095902 -0.042354908 0.06415396 0.107000194 -0.17885067 0.040799715 0.03715513 0.023054834 -0.15768841 -0.09992014 -0.021022374 -0.062364414 0.08357336 -0.108038224 -0.069773 -0.048297383 -0.087198615 0.14969313 0.054803587 -0.06484256 0.027620086 -0.17975436 0.12731414 0.045467243 -0.07444608 0.11134057 0.124360755 -0.04653315 0.058308594 -0.16655828 0.05143711 0.04789111 0.011741238 0.0019041684 -0.20318735 -0.01927383 0.10623021 0.09751038 -0.15854739 0.19936775 -0.0053770114 0.037064064 0.024440637 0.0076270876 -0.017496618 0.1975688 0.10641222 -0.043182448 -0.1576219 -0.106564194 0.015191457 0.05225742 0.17255528 -0.059000637 0.122402504 -0.16171178 -0.08889231 0.040265102 -0.14041553 0.029686987 0.17464125 0.13184467 0.07495681 -0.062719464 0.12365608 0.09258867 -0.17947273 0.05622135 -0.038558397 0.03564864 -0.10350627 0.078774735 -0.12930243 0.113491096 -0.13295627 0.08534561 0.023743322 -0.1228826 -0.060982123 -0.15366043 -0.113930784 -0.2496175 -0.051630326 0.17985074 -0.035272036 -0.050853882 -0.11564319 0.109839424 -0.14297764 0.13474321 0.068675056 -0.2045536 0.034947403 0.09732186 0.009688667 -0.14087202 -0.0895213 0.1019067 -0.005622922
exam -0.030739358 -0.1800164 -0.05367171 0.082221575 0.14098088 -0.2299344 0.054800153 0.043861862 0.023028038 -0.1970044 -0.12341747 -0.021079235 -0.07790658 0.10549697 -0.1389911 -0.0858968 -0.057119925 -0.10398988 0.18755928 0.06538158 -0.08757106 0.039031874 -0.2241501 0.16210553 0.052631456 -0.096786164 0.1360058 0.1511174 -0.05699453 0.077199124 -0.2009955 0.06611947 0.061600674 0.009859485 0.005599951 -0.2491131 -0.020468399 0.13321485 0.11940398 -0.1971641 0.23849769 -0.0013258315 0.051939193 0.02418891 0.011062578 -0.018930001 0.25023222 0.13057016 -0.05367991 -0.1898144 -0.12838344 0.015552894 0.07360612 0.21457624 -0.072878264 0.16008388 -0.19527878 -0.10641753 0.055343002 -0.17838423 0.035196677 0.21342161 0.15885179 0.08654291 -0.07532444 0.1508854 0.11583654 -0.22871143 0.07816534 -0.03864612 0.043640886 -0.11977009 0.10246002 -0.16482924 0.13472308 -0.166453 0.09900367 0.021271447 -0.14929293 -0.07480564 -0.1888379 -0.13545072 -0.30495846 -0.06222186 0.22393896 -0.04403241 -0.053210042 -0.14484467 0.12756668 -0.17290571 0.17199375 0.084766336 -0.25144437 0.04877951 0.12988193 0.007866186 -0.1801788 -0.10931265 0.13468733 -0.002513736
allergies -0.03371327 -0.19043215 -0.05546551 0.090128414 0.14087808 -0.23317048 0.052458957 0.043252837 0.023730148 -0.20353855 -0.13063733 -0.020325124 -0.088470496 0.10807286 -0.14285038 -0.086334884 -0.059666935 -0.10534196 0.19209218 0.06892987 -0.08201574 0.035916433 -0.22946104 0.1664456 0.05160993 -0.10578033 0.14507884 0.15623505 -0.052231453 0.07749784 -0.21202062 0.06893555 0.058953006 0.011109104 0.0064728856 -0.26117912 -0.021027688 0.1372746 0.11996377 -0.20120461 0.24976808 -0.0019719335 0.050807994 0.026231539 0.014096951 -0.019583143 0.25879782 0.12896936 -0.055510707 -0.19930556 -0.13185622 0.01915686 0.073993616 0.22462021 -0.07069823 0.16656235 -0.1984692 -0.11381349 0.05545669 -0.1812176 0.03648163 0.22867511 0.16780701 0.092363305 -0.07786087 0.15600303 0.11494481 -0.23229267 0.07916984 -0.03969454 0.04676462 -0.12477809 0.104659855 -0.16259831 0.1410444 -0.17427489 0.1072935 0.021770269 -0.1573445 -0.07415099 -0.19420603 -0.14646734 -0.32425225 -0.07065236 0.23076496 -0.041050747 -0.05790769 -0.15371457 0.13287608 -0.18238391 0.17826745 0.08291696 -0.2613696 0.04930595 0.13043216 0.01054189 -0.1893758 -0.10734898 0.13193192 -0.0033368338
sitter -0.030749394 -0.18431795 -0.062392775 0.079157084 0.13453041 -0.22855228 0.0459063 0.047384042 0.02449465 -0.19596021 -0.124529034 -0.024435591 -0.07624502 0.097359784 -0.13461064 -0.08379087 -0.0587036 -0.09824845 0.19156681 0.07108905 -0.08203625 0.04010139 -0.21750969 0.1612009 0.053397536 -0.09673188 0.13913593 0.14873947 -0.05644727 0.06891606 -0.20462462 0.058200236 0.059689853 0.0071565267 0.0047193915 -0.24620171 -0.018693708 0.13139345 0.118546404 -0.19602644 0.23747167 -0.008396482 0.048924956 0.023519153 0.010110146 -0.021747334 0.24156192 0.12729196 -0.05258933 -0.1931133 -0.13364318 0.01881678 0.06970346 0.22101454 -0.06462121 0.15535477 -0.19659257 -0.10925484 0.051984333 -0.17376742 0.02868303 0.21985365 0.15287891 0.090836115 -0.07973346 0.15023147 0.11128344 -0.2232376 0.07035166 -0.039009612 0.046280194 -0.120746985 0.10249553 -0.16073462 0.13703915 -0.16381472 0.1000483 0.02525307 -0.15014148 -0.07030915 -0.19070669 -0.14452781 -0.30843443 -0.063558094 0.22666411 -0.044389207 -0.060245786 -0.14531332 0.12910853 -0.17835566 0.16402814 0.08068326 -0.24990442 0.045671728 0.12807122 0.007916695 -0.17778298 -0.10479172 0.1259092 -0.004836876
instructions -0.028619718 -0.18550697 -0.05550927 0.08420431 0.14115267 -0.23698683 0.05061526 0.041928425 0.021232676 -0.2025037 -0.1292951 -0.026861418 -0.08596673 0.10257143 -0.14122897 -0.0825741 -0.057630755 -0.10626165 0.19856523 0.07075285 -0.09126415 0.041518684 -0.23042095 0.16709468 0.05760279 -0.099041566 0.14487566 0.15507302 -0.05917482 0.080342904 -0.21657431 0.0683241 0.06274127 0.0103667565 0.005423099 -0.26131797 -0.015381536 0.13007538 0.11536748 -0.20110705 0.24624963 -0.0109967915 0.051210172 0.02342676 0.013195468 -0.02141375 0.2556379 0.12830223 -0.058089852 -0.19962278 -0.13279879 0.023365822 0.076107696 0.22090344 -0.06960648 0.16131341 -0.19825764 -0.11678804 0.05881637 -0.18207589 0.035927128 0.22434033 0.16423316 0.09325708 -0.079866156 0.15559477 0.11561461 -0.23379855 0.0791601 -0.047136627 0.045269538 -0.13255213 0.1040188 -0.16233063 0.14421065 -0.16878323 0.10369181 0.028643658 -0.15457055 -0.07376639 -0.19454202 -0.14841 -0.31489655 -0.066828966 0.23143908 -0.04877094 -0.05542304 -0.15281919 0.13886566 -0.18356296 0.17881887 0.08459467 -0.25596154 0.049587663 0.13504605 0.007559276 -0.18010543 -0.10994691 0.13546166 -0.0015504077
reports -0.032197557 -0.17110062 -0.051762428 0.072046675 0.13122687 -0.21006481 0.051287513 0.037013564 0.018961929 -0.17633559 -0.120432116 -0.020214597 -0.07927113 0.099809684 -0.1256198 -0.07798271 -0.04746913 -0.09958438 0.17774364 0.06100238 -0.076651916 0.03817272 -0.20657077 0.15165445 0.055015028 -0.093953975 0.13075931 0.13695483 -0.046045404 0.07232626 -0.19230488 0.06138116 0.055069726 0.011177849 0.003834606 -0.23570424 -0.02137668 0.12056271 0.10619004 -0.1854689 0.22446203 -0.0073541086 0.04895947 0.024874717 0.017810173 -0.012752995 0.22964492 0.11560719 -0.054618623 -0.17339559 -0.12530284 0.01301257 0.06603495 0.20343833 -0.0660369 0.14889427 -0.17613718 -0.100399666 0.047678124 -0.16327474 0.026423661 0.20370322 0.14451581 0.08124414 -0.070927605 0.13924542 0.1102239 -0.20495449 0.071450345 -0.04062303 0.037528988 -0.117305316 0.088854015 -0.15306456 0.13026293 -0.15680228 0.09744078 0.021608658 -0.13880925 -0.074739225 -0.17654036 -0.12864313 -0.2859107 -0.059896093 0.20542806 -0.040220045 -0.05152422 -0.13407223 0.12529391 -0.16436322 0.15944473 0.08065219 -0.22886665 0.043397326 0.117610596 0.0062323054 -0.16801448 -0.10437669 0.12369254 -0.0032637108
evaluated -0.023207383 -0.16509932 -0.05303618 0.0721158 0.12750301 -0.20476523 0.046411615 0.0370883 0.017771648 -0.16855836 -0.116024025 -0.02412495 -0.076574445 0.09474432 -0.12192544 -0.073879085 -0.048998818 -0.09062172 0.1654682 0.06586733 -0.07491747 0.03329246 -0.1995668 0.14644833 0.045521934 -0.08781385 0.12138924 0.1363321 -0.046590902 0.064878285 -0.17835997 0.052639987 0.053706214 0.010891873 0.008837245 -0.22567703 -0.012629918 0.11471959 0.10182032 -0.17351347 0.22026642 -0.001464775 0.047160804 0.0239171 0.017506627 -0.017030993 0.22353375 0.11858182 -0.05406094 -0.17386688 -0.11881803 0.013214602 0.058264833 0.19683367 -0.05799135 0.13683759 -0.17661288 -0.09672813 0.045383286 -0.1586677 0.031367917 0.19333397 0.1361707 0.078244545 -0.06636107 0.13969386 0.10157588 -0.20142289 0.06229554 -0.04214773 0.04154129 -0.10911083 0.09180217 -0.13925965 0.1185199 -0.14719112 0.09073215 0.017325414 -0.13309559 -0.06628633 -0.1667872 -0.12418841 -0.27232277 -0.05826964 0.19908246 -0.042984713 -0.05549709 -0.12717113 0.11345993 -0.15812016 0.15329102 0.06908836 -0.22426611 0.035889573 0.111477844 0.010968892 -0.15994577 -0.093904495 0.121016495 -0.0030404767
followed -0.031315077 -0.19637038 -0.06010766 0.094207145 0.15377405 -0.24214032 0.057223737 0.052723326 0.03024144 -0.2099429 -0.13721694 -0.0227631 -0.085002534 0.108735986 -0.14336528 -0.08625643 -0.059445802 -0.11131425 0.20379171 0.07670116 -0.09036338 0.034316506 -0.2370542 0.17919886 0.05721624 -0.100782834 0.15064742 0.15565781 -0.055998847 0.0776349 -0.21678573 0.064433604 0.06652759 0.015062346 0.0037757305 -0.2718897 -0.020590696 0.14166346 0.12099127 -0.21413831 0.25991815 -0.008016322 0.054344315 0.024910009 0.014805333 -0.01878738 0.26769638 0.13351674 -0.058060117 -0.20788987 -0.1382929 0.016901642 0.07283949 0.23430178 -0.078370415 0.1684121 -0.21229069 -0.12052226 0.06307525 -0.18942885 0.035127956 0.23615444 0.16458488 0.09011039 -0.08428048 0.16679168 0.12676732 -0.24559757 0.08198172 -0.04859333 0.04014911 -0.136177 0.10565785 -0.17585255 0.14944513 -0.18337068 0.10681224 0.027357757 -0.16355292 -0.083481364 -0.20676823 -0.153686 -0.3320035 -0.06979117 0.23951201 -0.05078228 -0.06321641 -0.15832698 0.13645226 -0.18415919 0.18446682 0.09073803 -0.26941973 0.050135493 0.13295807 0.007385839 -0.19458611 -0.11582618 0.14183389 -0.0041375617
hypertension -0.035045654 -0.19256814 -0.06023943 0.09451411 0.1488952 -0.24616578 0.056980778 0.04679497 0.028265512 -0.20555127 -0.13657455 -0.025992705 -0.08865861 0.112162046 -0.14901638 -0.08751654 -0.058422796 -0.10808115 0.20395209 0.07484 -0.09417967 0.041415676 -0.2352817 0.17368956 0.057318673 -0.107347794 0.14697562 0.15701541 -0.052809577 0.07546599 -0.21952341 0.06601418 0.05866415 0.0066239745 0.008149709 -0.2750388 -0.02256071 0.13749672 0.12707858 -0.21418972 0.25686422 -0.00761205 0.05406973 0.027003659 0.014908621 -0.0203328 0.2723989 0.135621 -0.06085952 -0.20159012 -0.13813975 0.024535138 0.07768883 0.23955998 -0.072762914 0.17434894 -0.20953816 -0.12113291 0.064254336 -0.1926781 0.037108485 0.23828547 0.17479621 0.095466495 -0.08627693 0.1622722 0.12168828 -0.24245171 0.08087021 -0.041815557 0.045045536 -0.13196813 0.11013863 -0.17623627 0.14496589 -0.18031117 0.11144194 0.023650158 -0.16263711 -0.07761031 -0.21147788 -0.1496976 -0.33420086 -0.06910917 0.24422175 -0.05041646 -0.061354645 -0.16120163 0.13695964 -0.19299778 0.18427445 0.09161672 -0.2678359 0.049105987 0.14087774 0.00869767 -0.19547881 -0.120785825 0.13771951 -0.010063949
withdrawal -0.025195023 -0.17835906 -0.059727382 0.08012887 0.13254872 -0.22177428 0.04664647 0.04364772 0.021115055 -0.19152822 -0.1257621 -0.019216562 -0.07671345 0.10430586 -0.13600211 -0.076998204 -0.052336864 -0.098536186 0.17823157 0.06635339 -0.08322684 0.034672398 -0.21036473 0.16130836 0.052752342 -0.099009305 0.1278889 0.14833216 -0.053253185 0.072433904 -0.20180406 0.06464647 0.052263018 0.0121446 0.004114902 -0.23939408 -0.020280797 0.13023846 0.11263329 -0.18914519 0.23803858 -0.005582147 0.045786127 0.02312025 0.014915717 -0.021338113 0.23779514 0.11997978 -0.051739533 -0.18587826 -0.12950146 0.019020105 0.06518638 0.20731243 -0.06571537 0.15021068 -0.18612882 -0.10925006 0.05356153 -0.17485747 0.0330954 0.21289766 0.15163156 0.08475953 -0.07228491 0.14914338 0.115995616 -0.21663003 0.07599229 -0.045328982 0.044643585 -0.12013303 0.09964147 -0.15295087 0.13512382 -0.16330598 0.099820614 0.019421361 -0.14817823 -0.07621085 -0.1811237 -0.13579012 -0.30159056 -0.05859371 0.2157006 -0.03927819 -0.055462755 -0.1445308 0.1250381 -0.17333661 0.16753446 0.08433626 -0.23927054 0.041155428 0.119897276 0.0047929375 -0.17116569 -0.10503133 0.13083367 -0.0017581397
transplant -0.021552816 -0.16030274 -0.04683208 0.06897919 0.12222997 -0.20488405 0.04440602 0.042585324 0.018161101 -0.17106436 -0.116932526 -0.023875456 -0.06631323 0.08806141 -0.119963 -0.07748133 -0.045695145 -0.08736867 0.17222375 0.055835545 -0.072738245 0.03217361 -0.1945029 0.14396667 0.044002675 -0.08731776 0.12658972 0.12947747 -0.04140424 0.06386575 -0.18693931 0.052397955 0.0525795 0.004813144 0.0053535867 -0.22181103 -0.01941085 0.11969829 0.09834118 -0.17007941 0.2197234 -0.0036023534 0.043183915 0.024663381 0.017038163 -0.011714119 0.21544877 0.114647895 -0.050219033 -0.16678159 -0.11317451 0.018083759 0.0656785 0.19738235 -0.056937262 0.13856012 -0.16980259 -0.095205724 0.04781524 -0.15619376 0.03128625 0.19390258 0.13991497 0.07751388 -0.0706499 0.14157689 0.10292797 -0.19987299 0.06407196 -0.040402316 0.040173445 -0.11061777 0.08731712 -0.14702201 0.120866045 -0.14425668 0.08905336 0.018804409 -0.12929264 -0.06565737 -0.17422497 -0.120592564 -0.26878336 -0.05394376 0.20231245 -0.033453494 -0.047504514 -0.12980653 0.11855334 -0.15888873 0.15410188 0.07128501 -0.22415474 0.036682535 0.11325174 0.0037402133 -0.16276745 -0.100237615 0.11543055 -0.0056265914
intubated -0.024396809 -0.16709897 -0.05275085 0.078547254 0.13128544 -0.20782161 0.050568763 0.04236574 0.021982318 -0.18233782 -0.11850144 -0.025660357 -0.069410615 0.09500537 -0.12101355 -0.0720708 -0.049314935 -0.09947233 0.17745791 0.06186466 -0.07452484 0.028432008 -0.201736 0.15069942 0.0541633 -0.09235458 0.12284581 0.14038263 -0.045624856 0.06804916 -0.19447435 0.055095587 0.05019739 0.010125665 0.0010034865 -0.23207381 -0.02221337 0.12518044 0.105601266 -0.18325728 0.22384383 -0.005649452 0.04189667 0.017919766 0.01593839 -0.020672124 0.22797738 0.11875333 -0.04777859 -0.18110248 -0.123893864 0.013960006 0.06176832 0.19739969 -0.05998977 0.14446393 -0.17806381 -0.099927194 0.04677305 -0.1676219 0.030208446 0.20292322 0.14721796 0.08118691 -0.070853 0.14279073 0.10171545 -0.21143018 0.06785507 -0.04257767 0.042329375 -0.11940373 0.090814285 -0.1451641 0.13041157 -0.15431459 0.09044736 0.01669033 -0.14087117 -0.0650016 -0.17672083 -0.13259907 -0.28859177 -0.05334955 0.20456253 -0.03819649 -0.052536085 -0.13804722 0.12397388 -0.16189621 0.16005574 0.074447535 -0.2318302 0.047186494 0.120152704 0.00929238 -0.16271469 -0.101494156 0.116120815 -0.0027888825
artery -0.030811457 -0.16940178 -0.052672178 0.08131716 0.12831336 -0.21486712 0.04688492 0.04193226 0.021729058 -0.18484628 -0.119936146 -0.023408454 -0.07186373 0.095306136 -0.12986964 -0.07775296 -0.05735341 -0.10048909 0.17836276 0.06942741 -0.08154827 0.035027318 -0.2076872 0.15862238 0.049997598 -0.087177135 0.12904212 0.14081031 -0.049864907 0.073645175 -0.1894127 0.06334996 0.058285005 0.008900046 0.0011457389 -0.2375043 -0.021892998 0.123153485 0.11295258 -0.18487501 0.22940257 -0.008282046 0.045984145 0.018806124 0.013043079 -0.019346973 0.23361506 0.12499362 -0.054098148 -0.1786118 -0.123051226 0.013302223 0.06253624 0.2078727 -0.06724548 0.14809336 -0.18443574 -0.10627995 0.056104653 -0.16499175 0.031033376 0.20667349 0.14594488 0.0830041 -0.07133116 0.14494078 0.10406842 -0.21354964 0.06513899 -0.04137906 0.038773727 -0.116109915 0.08769069 -0.14991279 0.1292188 -0.15398861 0.101801686 0.024031892 -0.14665423 -0.07125115 -0.1834466 -0.12761684 -0.28792307 -0.058647174 0.2157224 -0.044471756 -0.055144385 -0.14022891 0.1236237 -0.16526309 0.16368218 0.073784865 -0.22998153 0.040637203 0.11978455 0.0065375236 -0.17093977 -0.10701357 0.12318654 -0.008768592
seroquel -0.033507735 -0.18485855 -0.055141013 0.08455964 0.13761029 -0.23477945 0.05111681 0.048391983 0.026947701 -0.19922973 -0.13432099 -0.020057386 -0.0845071 0.10168301 -0.14135095 -0.08685066 -0.052567996 -0.10966008 0.19522372 0.07045638 -0.08445685 0.03194563 -0.22390245 0.16848731 0.057720054 -0.10204549 0.13864091 0.14666413 -0.054985616 0.07782837 -0.2102166 0.06720572 0.056699827 0.006306963 0.0066324663 -0.2555403 -0.025226247 0.1338942 0.11615763 -0.1972587 0.24156693 -0.006264178 0.05044621 0.0288256 0.014513621 -0.013689642 0.25536045 0.13085096 -0.056323223 -0.19315459 -0.13345268 0.023740325 0.06767665 0.2213775 -0.06634943 0.15648375 -0.2019982 -0.1165879 0.05881713 -0.1834871 0.034617294 0.22465463 0.1569445 0.09026476 -0.07377638 0.15549192 0.116307855 -0.22662759 0.078562506 -0.03977564 0.046459585 -0.13010222 0.09465652 -0.16437317 0.14340551 -0.16520573 0.105511315 0.021386795 -0.14782554 -0.07377551 -0.19113863 -0.14552966 -0.31302452 -0.06736711 0.22389126 -0.04779482 -0.06034297 -0.1516983 0.13091192 -0.18055947 0.17416514 0.08017746 -0.25485662 0.04791934 0.12758118 0.010066921 -0.18584281 -0.10690806 0.1344122 -0.01031027
days -0.01829906 -0.12556694 -0.036785696 0.05867701 0.09460204 -0.16627808 0.03736257 0.031939883 0.019101396 -0.13612095 -0.09650696 -0.014086158 -0.055739343 0.07503196 -0.09634234 -0.058735933 -0.043868773 -0.07589876 0.13420881 0.052730214 -0.06028434 0.024174225 -0.15688366 0.12123807 0.043568622 -0.0725789 0.09883751 0.10863027 -0.03386215 0.058172107 -0.14329837 0.049795818 0.036961984 0.010298092 -0.0011327986 -0.17970717 -0.010423886 0.09171316 0.08630422 -0.1396532 0.17194569 -0.0012119585 0.03353551 0.014126249 0.015538267 -0.012505365 0.173041 0.094263375 -0.037265234 -0.13258238 -0.09396323 0.009955027 0.050081402 0.15474877 -0.051957592 0.11474652 -0.13472162 -0.081437744 0.035648014 -0.1280973 0.021080166 0.1608639 0.11394877 0.06299493 -0.051843762 0.111942984 0.08479306 -0.16584995 0.055530358 -0.031958148 0.032739397 -0.09179128 0.071373865 -0.11529402 0.097676046 -0.11617824 0.069622606 0.012712564 -0.11037564 -0.05558481 -0.14235528 -0.10218084 -0.22325005 -0.049980074 0.15916345 -0.032099005 -0.039564822 -0.10537499 0.09820575 -0.1298936 0.124268524 0.06305012 -0.18023333 0.03425273 0.08682937 0.008443354 -0.12375281 -0.075823575 0.09183533 -0.0057351366
placed -0.027150394 -0.14165531 -0.04794908 0.068399295 0.10678963 -0.18198404 0.044590473 0.034522165 0.020668134 -0.15020567 -0.099780925 -0.021993054 -0.06356181 0.085147716 -0.10578688 -0.061116192 -0.04606045 -0.08601246 0.15119296 0.050442304 -0.06121837 0.025673313 -0.17154095 0.13015723 0.041334577 -0.07875266 0.11142237 0.113995165 -0.037716888 0.062003843 -0.16421662 0.045871325 0.048413172 0.004811468 0.0034700797 -0.19528748 -0.018148514 0.1072766 0.08578333 -0.15933377 0.19488798 -0.00063935865 0.041943297 0.020447409 0.01519993 -0.016656455 0.19480672 0.10120062 -0.047606327 -0.15025413 -0.10113642 0.011985697 0.056581557 0.17168616 -0.05303142 0.12819341 -0.1565461 -0.085633256 0.043318067 -0.13825786 0.024580643 0.17527911 0.122357115 0.06697442 -0.05729876 0.12291265 0.09074075 -0.17924145 0.059733577 -0.029503321 0.035848826 -0.10288143 0.0796262 -0.12823494 0.10616167 -0.12867774 0.08274243 0.023510234 -0.119075224 -0.054853342 -0.14929865 -0.10648391 -0.24523996 -0.050919924 0.17662646 -0.029636517 -0.042449012 -0.11592084 0.099627756 -0.14192471 0.13535266 0.068638705 -0.1917745 0.032031044 0.10383679 0.004709413 -0.14143261 -0.08427051 0.0991176 -0.0010355569
penicillins -0.027555203 -0.15308987 -0.046811856 0.0686052 0.11944763 -0.19847079 0.04727693 0.040377207 0.020022947 -0.16966763 -0.11344391 -0.022838857 -0.07155622 0.08959902 -0.11905637 -0.0711317 -0.052642632 -0.093001984 0.16058493 0.06281047 -0.072681166 0.03396083 -0.187525 0.14373282 0.043946467 -0.08076161 0.119026996 0.12714279 -0.049753048 0.06716021 -0.17770666 0.052681185 0.050851606 0.011881757 0.0015809538 -0.21381775 -0.021491436 0.110220775 0.10297119 -0.17245425 0.20414902 -0.00048768357 0.04356814 0.02317177 0.017560469 -0.014962798 0.21487512 0.104858354 -0.046145186 -0.1589184 -0.1130902 0.018930504 0.061868977 0.18373547 -0.061468966 0.13730557 -0.1626124 -0.096087046 0.04953941 -0.1477208 0.032415982 0.1910806 0.13888454 0.07352562 -0.060980257 0.12920189 0.09923681 -0.19317275 0.05959829 -0.035197895 0.03290087 -0.10300933 0.08336213 -0.13750122 0.112942345 -0.14709628 0.08784492 0.018482402 -0.13270496 -0.06307272 -0.16470087 -0.12221989 -0.2665334 -0.052485242 0.19550282 -0.039430898 -0.05005534 -0.12521744 0.10805309 -0.14705884 0.14316396 0.06824843 -0.21339506 0.036314603 0.111700945 0.01136789 -0.15187241 -0.087868094 0.11392577 -0.0067629665
hepatitis -0.023951706 -0.1352769 -0.046627276 0.0638124 0.10671412 -0.1736466 0.033278488 0.03539104 0.016447848 -0.1495596 -0.09677947 -0.021597888 -0.061827075 0.078363396 -0.09992851 -0.062471844 -0.044135056 -0.073546804 0.14094856 0.054643415 -0.05835577 0.02958857 -0.16451165 0.12461963 0.043205332 -0.06923286 0.098148726 0.11715026 -0.043206595 0.051947683 -0.15129577 0.050596517 0.047253173 0.0055320216 0.0076030195 -0.18750374 -0.016764453 0.10149218 0.090718955 -0.15030687 0.17915547 -0.006825226 0.03800397 0.014448604 0.015258576 -0.015800517 0.18905754 0.091221295 -0.03766525 -0.14414167 -0.09973758 0.013590952 0.057811767 0.16429925 -0.057420634 0.113599874 -0.15072036 -0.08035157 0.044701207 -0.13387708 0.027965743 0.1683135 0.11879296 0.06425125 -0.059972625 0.11551092 0.091470554 -0.16663411 0.051765308 -0.02957458 0.028327059 -0.0927983 0.07886191 -0.123229474 0.09929608 -0.12176176 0.076816164 0.022087203 -0.11489221 -0.05725734 -0.14479166 -0.10152733 -0.23592305 -0.049937706 0.16954178 -0.034895513 -0.042074334 -0.10806354 0.096373856 -0.13182983 0.12580009 0.065050475 -0.18476033 0.037783913 0.09141889 0.012117607 -0.13936388 -0.079314545 0.09885471 -0.00038439903
started -0.03476241 -0.18863876 -0.0566301 0.088420026 0.13992913 -0.2332023 0.055207904 0.049312085 0.02094345 -0.19366574 -0.1309034 -0.018937806 -0.08304327 0.1077905 -0.1386721 -0.08583838 -0.055939347 -0.104700424 0.18932559 0.07374785 -0.08622986 0.038770385 -0.22769338 0.16936217 0.056792527 -0.09767781 0.13892815 0.15222642 -0.05282501 0.07271465 -0.2042723 0.0628046 0.056798313 0.009503052 0.006567142 -0.259549 -0.02352055 0.13385753 0.11718892 -0.19788496 0.25084034 -0.006926391 0.045381162 0.025760671 0.016754337 -0.017539421 0.25320432 0.13038231 -0.059339225 -0.19670145 -0.13575421 0.017137807 0.07287077 0.2208044 -0.066882655 0.15847932 -0.20128247 -0.11487132 0.058641035 -0.17593986 0.033910178 0.2181055 0.16124026 0.09041974 -0.078842565 0.1546598 0.11727735 -0.23316966 0.07467757 -0.03999293 0.041109048 -0.12244978 0.10045239 -0.15860449 0.13377729 -0.17451347 0.10407173 0.026747279 -0.15202935 -0.072764434 -0.19833715 -0.14411446 -0.31555724 -0.06588483 0.2274851 -0.039106127 -0.054751102 -0.14553247 0.12994276 -0.17633858 0.16772693 0.07990447 -0.25606167 0.047493845 0.12937672 0.013965406 -0.18681943 -0.11247982 0.13543616 -0.0052730595
cardiac -0.02430134 -0.1753196 -0.05426885 0.07992881 0.12854439 -0.2201082 0.04753978 0.04570725 0.02035229 -0.18762648 -0.117563754 -0.020195903 -0.0750607 0.10006201 -0.12779701 -0.08204684 -0.05115257 -0.0938588 0.18091384 0.06420437 -0.08024499 0.03130988 -0.2070705 0.15164132 0.051135544 -0.097445 0.12644981 0.13981476 -0.05037678 0.07142395 -0.19822903 0.061741482 0.05686856 0.0068208426 0.0057832478 -0.23978283 -0.018669333 0.1205806 0.10504875 -0.1922247 0.23246464 -0.008468325 0.047326345 0.024284765 0.017035026 -0.017351313 0.23709007 0.12646604 -0.052317455 -0.1835255 -0.12512751 0.022730652 0.06426082 0.20944978 -0.06877386 0.15233365 -0.1859557 -0.10561359 0.05036393 -0.17338456 0.0324566 0.212744 0.14523385 0.084765464 -0.069702156 0.14548877 0.105112515 -0.2152675 0.07252526 -0.04309611 0.0405031 -0.12169171 0.08915392 -0.14984258 0.13259289 -0.15849134 0.09330253 0.020005926 -0.1469049 -0.07286113 -0.18301019 -0.1370851 -0.29466125 -0.060733724 0.20966277 -0.044631235 -0.053093866 -0.13369766 0.121677995 -0.17187524 0.16079153 0.08125913 -0.23656362 0.043008268 0.12116273 0.01294969 -0.17097256 -0.10641986 0.12656513 -0.004212458
denies -0.027033897 -0.15527973 -0.047180872 0.06629956 0.11887167 -0.19856535 0.04538469 0.034974817 0.015800431 -0.16259086 -0.1123058 -0.021966146 -0.066204466 0.09132028 -0.11600633 -0.07346739 -0.047641728 -0.08392011 0.16202597 0.058598172 -0.071549125 0.027363837 -0.18640453 0.13824713 0.04920643 -0.08211101 0.112154715 0.13183588 -0.046166122 0.066055894 -0.17546026 0.05447621 0.052325305 0.006567452 0.007569013 -0.21558437 -0.015306454 0.10844849 0.09365395 -0.16983251 0.20497318 -0.007786604 0.040660497 0.018098779 0.014349497 -0.014797913 0.21023807 0.10485893 -0.050277207 -0.16711661 -0.10676395 0.014275596 0.06327225 0.18502407 -0.058062784 0.13745219 -0.1689476 -0.09716118 0.045771036 -0.15112871 0.022621403 0.1907937 0.12984356 0.073692866 -0.06686879 0.1322012 0.09588825 -0.18967445 0.06510042 -0.037053272 0.036098186 -0.11086421 0.080515996 -0.13614635 0.11804155 -0.14439014 0.09172508 0.020514166 -0.1256515 -0.067724556 -0.16653606 -0.115661055 -0.26727703 -0.053790506 0.19316289 -0.036936954 -0.050063837 -0.1210672 0.10896596 -0.14791387 0.13903962 0.06706291 -0.2139517 0.035709172 0.106504925 0.009073007 -0.14730708 -0.09432946 0.108918615 -0.0024468284
trauma -0.021438275 -0.15468746 -0.04991607 0.070950024 0.12088347 -0.19445634 0.040073216 0.04241276 0.023241708 -0.16282113 -0.111636735 -0.01798593 -0.07342682 0.08649156 -0.11617078 -0.07475976 -0.047733907 -0.09280433 0.16218537 0.056038704 -0.07149714 0.030981136 -0.18853655 0.14306726 0.050532285 -0.08726937 0.11472315 0.13198058 -0.041290402 0.068865106 -0.17608479 0.053640436 0.054285273 0.012682792 0.0068572327 -0.20837463 -0.018619962 0.11206812 0.09369923 -0.16570646 0.2029141 -0.009458701 0.040498827 0.02338844 0.012398606 -0.017705558 0.21500446 0.11092079 -0.04467223 -0.16678807 -0.11607945 0.013525985 0.058543626 0.18228994 -0.05737172 0.13598748 -0.16870017 -0.09410084 0.04384947 -0.1549472 0.026791394 0.18686964 0.13657998 0.07886308 -0.06478457 0.1359918 0.093125015 -0.19074929 0.061766963 -0.030719092 0.035109088 -0.106663875 0.08070542 -0.14103632 0.11298089 -0.14865218 0.08718409 0.022286454 -0.123885594 -0.0683944 -0.16104293 -0.118725464 -0.2679493 -0.057653926 0.18996397 -0.03319403 -0.04752891 -0.12582392 0.112121575 -0.15050203 0.1415825 0.07265645 -0.21721712 0.03908052 0.109656736 0.010948829 -0.15194242 -0.09045839 0.11093345 -0.0050867787
presented -0.028329678 -0.16026114 -0.048512932 0.07917243 0.12736094 -0.20909499 0.046666373 0.03702595 0.021753935 -0.17884278 -0.111428306 -0.024733828 -0.07405651 0.09550246 -0.124414034 -0.07029079 -0.052997425 -0.09626605 0.1716918 0.06426535 -0.076063424 0.0314479 -0.2012311 0.14742912 0.04578917 -0.08602149 0.12350701 0.13780868 -0.045095872 0.06948152 -0.18482779 0.0576065 0.054427925 0.01020746 0.0028231991 -0.22619095 -0.02018517 0.12082132 0.10373476 -0.1749445 0.21990807 -0.0062233997 0.04617134 0.024299148 0.016623707 -0.01325243 0.22483048 0.11704513 -0.04864455 -0.17559837 -0.11736893 0.017318284 0.06217303 0.19505128 -0.05845513 0.14134715 -0.17342988 -0.099775314 0.04918415 -0.15859123 0.034332022 0.20247419 0.14131501 0.08069778 -0.06940813 0.13511486 0.10566946 -0.2049016 0.06581987 -0.041255694 0.03966742 -0.114948116 0.08905276 -0.148203 0.121600635 -0.14702722 0.092380494 0.019304799 -0.13459387 -0.06495661 -0.17456098 -0.13015465 -0.2796692 -0.05209904 0.20077801 -0.03979938 -0.050046753 -0.1286688 0.12241614 -0.15902743 0.14902247 0.0769474 -0.2250438 0.045053195 0.11067693 0.013085964 -0.15770021 -0.09880616 0.12075343 -0.00095662335
cleared -0.023579966 -0.15415536 -0.048146684 0.0728293 0.11776377 -0.19255634 0.045189846 0.039216023 0.02043359 -0.16368166 -0.104093105 -0.018232469 -0.0662379 0.083684154 -0.11951199 -0.0659615 -0.043521896 -0.08565299 0.1542238 0.053558435 -0.07338422 0.033495944 -0.18150976 0.13670132 0.047609255 -0.08387762 0.11841269 0.13091241 -0.039893784 0.06710265 -0.16835271 0.049368523 0.05182562 0.007190629 0.0032235512 -0.20816264 -0.014150404 0.114597626 0.09735033 -0.16856888 0.20398358 -0.008388923 0.045263592 0.025113437 0.008144649 -0.015760748 0.21200415 0.112785555 -0.046970267 -0.16594933 -0.112908304 0.013244876 0.059189487 0.18395278 -0.058513444 0.13559917 -0.17008238 -0.09059511 0.048747875 -0.15359662 0.030429898 0.18760096 0.13214587 0.07046302 -0.0624187 0.1308362 0.09568579 -0.19307847 0.06581874 -0.0370258 0.03647532 -0.10324183 0.08343931 -0.13867891 0.114928946 -0.14034954 0.08425678 0.02517033 -0.12547968 -0.06181953 -0.16313705 -0.1225142 -0.26014647 -0.054612648 0.18968177 -0.03200881 -0.04718097 -0.12031646 0.11481148 -0.147449 0.13842967 0.070217565 -0.20577691 0.03515988 0.10762445 0.00892214 -0.15543124 -0.095210694 0.11400885 -0.0037104539
oral -0.017431203 -0.12976217 -0.041000593 0.0626554 0.09862275 -0.15908393 0.03579938 0.031103846 0.019614274 -0.14145996 -0.09412723 -0.019286446 -0.05738905 0.07212525 -0.10068659 -0.062145766 -0.043867774 -0.07239092 0.13700709 0.052201275 -0.062081292 0.022502374 -0.15382025 0.11710329 0.041823693 -0.067959435 0.096718945 0.10447708 -0.034609415 0.050652206 -0.1465835 0.048602413 0.045023356 0.008732178 0.004069111 -0.17520553 -0.014486985 0.09333307 0.08183116 -0.14303763 0.17737727 -0.002951701 0.030513292 0.014867363 0.008332596 -0.01765461 0.1745903 0.08900303 -0.039139923 -0.13356069 -0.08962685 0.011028137 0.046198327 0.15527454 -0.05277215 0.11096296 -0.13880286 -0.08333255 0.041113745 -0.12419957 0.024652153 0.1534271 0.115304954 0.06796662 -0.05743678 0.10936855 0.08658864 -0.16162656 0.057863276 -0.03147791 0.034549493 -0.093033075 0.07063419 -0.112286836 0.09924585 -0.12215317 0.07287617 0.018393617 -0.11028147 -0.053045522 -0.14316052 -0.09728192 -0.22200806 -0.043155644 0.16179007 -0.03596587 -0.04002405 -0.10159516 0.09478313 -0.1302257 0.12295577 0.063860595 -0.18309478 0.03300894 0.093912244 0.007088323 -0.13063487 -0.07321052 0.093518436 0.00016177773
took -0.021293467 -0.13780773 -0.044223357 0.06162505 0.10711817 -0.16454008 0.04155796 0.033282608 0.014766733 -0.14335944 -0.09506775 -0.019002046 -0.06417859 0.08040439 -0.10152983 -0.057005472 -0.037928186 -0.07517869 0.13425018 0.0529139 -0.057138823 0.030421415 -0.16332945 0.12251441 0.03542682 -0.07000231 0.1008644 0.10932472 -0.033833813 0.050646793 -0.14718844 0.049700268 0.047623023 0.0033547494 0.0020278974 -0.18644908 -0.011343467 0.09888508 0.08547974 -0.14097834 0.17746066 -0.004633389 0.036014624 0.01464581 0.014505346 -0.014495048 0.18522455 0.092710294 -0.042050637 -0.13807255 -0.09886982 0.014022479 0.048580125 0.15509345 -0.05118134 0.114902176 -0.14759779 -0.07726364 0.040549338 -0.12645213 0.028067898 0.15744597 0.11676992 0.06696799 -0.059439242 0.10962101 0.08429026 -0.16829395 0.059213076 -0.028724723 0.03374095 -0.09561575 0.07709368 -0.120083496 0.09572333 -0.12344883 0.0794682 0.021132136 -0.11459239 -0.060202647 -0.13673078 -0.106704794 -0.22891518 -0.041951522 0.16178972 -0.036491588 -0.044726748 -0.10784524 0.099021405 -0.12508631 0.12874854 0.06538004 -0.1796617 0.03603678 0.090179615 0.0035740458 -0.13413784 -0.081730254 0.10100786 -0.0073028845
does -0.023589041 -0.11737489 -0.03748268 0.058939815 0.08564894 -0.14871658 0.037137136 0.02752781 0.017907286 -0.12823135 -0.08168002 -0.010242129 -0.054886006 0.06621384 -0.08479062 -0.050641436 -0.03861444 -0.06998542 0.12672722 0.042503394 -0.051580537 0.027348349 -0.13997862 0.10707369 0.039884634 -0.0675853 0.08420883 0.10214092 -0.03211874 0.04370164 -0.13693418 0.04530958 0.03312173 0.006878445 0.006340398 -0.1641461 -0.014871696 0.08840955 0.07488939 -0.13151033 0.15684652 -0.0012329518 0.02806598 0.018096702 0.009163454 -0.009750472 0.1596317 0.0864849 -0.041864835 -0.12406028 -0.08391534 0.016868928 0.04833769 0.13819629 -0.047470827 0.09892831 -0.12422053 -0.073702894 0.039267864 -0.1181492 0.017075835 0.14334594 0.10582536 0.059969623 -0.049853288 0.10053108 0.07031159 -0.14552361 0.050435536 -0.031864353 0.025739588 -0.085174225 0.06364755 -0.102998406 0.092654355 -0.108996086 0.07111477 0.020053342 -0.099099614 -0.044156477 -0.12521172 -0.089215495 -0.19638002 -0.04319316 0.14775942 -0.031233149 -0.034708336 -0.092957884 0.08821708 -0.11740058 0.1055164 0.058286946 -0.16380715 0.025023783 0.0861421 0.0047369003 -0.11499215 -0.06622166 0.08071178 -0.0074529676
liver -0.024402367 -0.15058152 -0.047461472 0.066302426 0.11575716 -0.18934982 0.044461783 0.036125932 0.020327764 -0.15908507 -0.11348005 -0.023801165 -0.068818785 0.082757995 -0.11621566 -0.0674521 -0.045873918 -0.086377196 0.16308255 0.053816665 -0.06747696 0.030377658 -0.1837964 0.1352306 0.04135062 -0.08287467 0.1158983 0.12524611 -0.048072517 0.06703871 -0.17087376 0.05077972 0.045939747 0.0039743283 0.00850929 -0.20908675 -0.014557985 0.10962498 0.09335721 -0.16889337 0.20468667 -0.0019739484 0.039416425 0.024329832 0.009237344 -0.013092239 0.21040966 0.11289943 -0.048635673 -0.16421716 -0.106883354 0.012237937 0.06421856 0.18410107 -0.061393153 0.12999819 -0.16393459 -0.09661284 0.043674782 -0.15368384 0.02722893 0.18601009 0.12910308 0.076588154 -0.06970592 0.13114622 0.09349174 -0.18984719 0.06268206 -0.032721687 0.033840485 -0.10881237 0.08119579 -0.13097762 0.11152898 -0.14274646 0.08822798 0.022153882 -0.13049823 -0.06059361 -0.15967567 -0.11523361 -0.2633563 -0.0499592 0.1927779 -0.036252547 -0.044601027 -0.124905095 0.11279997 -0.14604068 0.14577223 0.06663859 -0.20745432 0.034415822 0.105991885 0.0060506444 -0.15177007 -0.09019163 0.1101652 -0.0070002186
outpatient -0.02629964 -0.14645064 -0.046777032 0.06903457 0.1123566 -0.186376 0.043739777 0.039143477 0.020641454 -0.15262268 -0.1005239 -0.02230933 -0.059917465 0.07864237 -0.10878606 -0.06813706 -0.047187343 -0.086596705 0.14950205 0.059061237 -0.070710406 0.02511321 -0.17311317 0.12953784 0.04850506 -0.078228496 0.1123078 0.119191036 -0.038680665 0.057726156 -0.16069108 0.055040296 0.04437684 0.004550941 0.0042177816 -0.20059446 -0.015211657 0.10899302 0.09704017 -0.16151617 0.19304343 -0.0070856707 0.035869878 0.022702143 0.008291102 -0.013502712 0.19944996 0.10002552 -0.047601305 -0.15005149 -0.10273941 0.009876766 0.060449306 0.1734663 -0.055063713 0.12816834 -0.16123708 -0.09374287 0.04418568 -0.14299 0.025598021 0.17664675 0.12807176 0.068670735 -0.06460621 0.12428381 0.090433486 -0.18207121 0.05765767 -0.031748313 0.036104795 -0.09792423 0.07554912 -0.12591076 0.11380375 -0.1380239 0.08575232 0.015571126 -0.1263401 -0.056673124 -0.15374056 -0.109261684 -0.24372292 -0.05465285 0.1848286 -0.030029707 -0.051556338 -0.1140411 0.100885846 -0.13982727 0.13923855 0.07065038 -0.20352726 0.041270655 0.09788121 0.0110477265 -0.14749165 -0.08397038 0.10625704 -0.0038775941
cocaine -0.02520789 -0.13956335 -0.050675824 0.062721275 0.11304719 -0.1805193 0.035585843 0.0398708 0.016268464 -0.15643243 -0.10132158 -0.018371737 -0.062139373 0.08695785 -0.10635311 -0.0640114 -0.04276402 -0.08462948 0.1502389 0.05856017 -0.06566518 0.0329862 -0.18023084 0.13442256 0.04520201 -0.07776409 0.10825934 0.115015894 -0.041911982 0.06287457 -0.16730253 0.05587453 0.042715468 0.005909378 -0.00038444606 -0.2002914 -0.015771696 0.099812075 0.090769194 -0.15974192 0.18915857 -0.004805736 0.037040368 0.023491647 0.015379504 -0.018584933 0.19736414 0.0972231 -0.043013886 -0.1537003 -0.100909814 0.01083953 0.05870802 0.17262849 -0.05889925 0.12108665 -0.16021712 -0.08833689 0.04157126 -0.14116572 0.023938349 0.17562537 0.12868035 0.06543111 -0.06505314 0.124814294 0.095625915 -0.17479855 0.06188683 -0.035112623 0.031570323 -0.10432049 0.076945744 -0.124911934 0.11018615 -0.1361097 0.08204667 0.02226549 -0.12075923 -0.058412272 -0.1534199 -0.11060719 -0.24967554 -0.04629483 0.18296097 -0.030470327 -0.04997829 -0.11064997 0.10586506 -0.14489034 0.13806139 0.06781768 -0.19870585 0.03803792 0.09842011 0.010296158 -0.14275154 -0.081924066 0.10640541 -0.0023926683
taking -0.024529804 -0.13139676 -0.04625834 0.060832687 0.10169776 -0.16817753 0.031688962 0.031108497 0.017141512 -0.13811661 -0.094243854 -0.01994401 -0.05394773 0.079349 -0.09397558 -0.058640428 -0.041034665 -0.078257225 0.13614541 0.052219514 -0.06467102 0.025641365 -0.16102229 0.11451134 0.04072621 -0.07551519 0.103097275 0.10648482 -0.04111986 0.04985932 -0.14689235 0.049157094 0.039775133 0.010973976 0.0025403504 -0.1850335 -0.011066203 0.090857655 0.08204766 -0.13905208 0.17474078 0.0001505424 0.036514543 0.015926229 0.012481188 -0.015862128 0.18042181 0.09396505 -0.03771738 -0.14333332 -0.09977615 0.012191986 0.049133096 0.15420245 -0.053067997 0.10969434 -0.14400952 -0.07965267 0.036062557 -0.13087533 0.028380077 0.16274017 0.1167944 0.059811093 -0.05214178 0.11169155 0.08787834 -0.15992072 0.049757533 -0.03365467 0.03144285 -0.08800075 0.068639606 -0.11230448 0.09721617 -0.1265918 0.07051734 0.013190788 -0.10868069 -0.05352468 -0.1436168 -0.105286546 -0.22151619 -0.044065684 0.16776057 -0.031882096 -0.041500766 -0.10998617 0.09362798 -0.13227352 0.12408416 0.059570353 -0.17694241 0.030005759 0.087767534 0.005127094 -0.13171126 -0.07894861 0.09300791 -0.0031751385
fibrillation -0.016319627 -0.12645993 -0.040275943 0.059535615 0.09893989 -0.16303986 0.035933305 0.03244976 0.013899651 -0.14275508 -0.09000882 -0.016329259 -0.058415506 0.07373122 -0.096570484 -0.06143625 -0.043550666 -0.07148333 0.13597703 0.04506048 -0.062619194 0.025715781 -0.15467511 0.11638238 0.034011804 -0.06586678 0.098933384 0.109042384 -0.033549156 0.05423471 -0.14898065 0.04304302 0.03982798 0.0061492245 0.0061764577 -0.17719252 -0.019370873 0.096284814 0.08540979 -0.13895413 0.16937198 -0.0010880973 0.03377445 0.018135188 0.009525602 -0.008143807 0.17846346 0.090810634 -0.04508334 -0.1379263 -0.09525588 0.012375122 0.045962516 0.15515207 -0.050673902 0.11746406 -0.14364581 -0.080455706 0.044530194 -0.1278996 0.022714272 0.16132216 0.11641232 0.060384624 -0.058147267 0.11227568 0.083734125 -0.15910925 0.04985011 -0.027079519 0.030635023 -0.08808638 0.06832396 -0.114548676 0.097094476 -0.117359295 0.07809497 0.018567596 -0.10502217 -0.0561674 -0.14038868 -0.103674576 -0.22462878 -0.04180171 0.15888591 -0.032346573 -0.039777555 -0.105060756 0.09697652 -0.123012066 0.12285382 0.05811966 -0.18053678 0.0292289 0.0906333 0.011035073 -0.13041233 -0.07345014 0.09582236 -0.001773091
stitle -0.021068243 -0.1518898 -0.04436651 0.07157868 0.10913669 -0.18807775 0.04491854 0.034033492 0.02230058 -0.1630026 -0.10433751 -0.023207871 -0.069366 0.079443045 -0.10961942 -0.072092995 -0.04870802 -0.08761245 0.1514357 0.05775271 -0.06903257 0.032893457 -0.18181561 0.13771802 0.04158633 -0.07555979 0.10838134 0.11830099 -0.046073604 0.05826798 -0.17149056 0.055236023 0.05020259 0.004931993 0.0011674728 -0.2001544 -0.015978718 0.111002415 0.098114 -0.1638156 0.19786999 -0.006722373 0.04412063 0.016343398 0.014911647 -0.012238066 0.20775191 0.10678883 -0.05061011 -0.1589918 -0.111755356 0.010925293 0.059242785 0.17727345 -0.058430035 0.13306184 -0.16170254 -0.0932965 0.042102568 -0.14384204 0.022483462 0.17427024 0.12781093 0.07341196 -0.062960476 0.12376752 0.09061801 -0.18805493 0.05941416 -0.034346405 0.035937842 -0.105756275 0.08060331 -0.13112126 0.10962359 -0.13747388 0.08477777 0.015843824 -0.121818595 -0.05903836 -0.15455897 -0.11585752 -0.2540592 -0.049807824 0.18232456 -0.036217984 -0.047472876 -0.12021635 0.1079644 -0.14067252 0.13682798 0.06418764 -0.20215209 0.041879263 0.102831624 0.010015497 -0.14251296 -0.08831103 0.102007866 -0.0075339056
remained -0.022363825 -0.13648358 -0.04284173 0.060486622 0.10736138 -0.18047318 0.035971526 0.03933923 0.021619003 -0.14834413 -0.09639096 -0.022003667 -0.06324632 0.080675334 -0.10370852 -0.06137923 -0.04002398 -0.08387578 0.14379264 0.05291286 -0.06702205 0.032150712 -0.16745509 0.12686191 0.03854239 -0.076678514 0.104546726 0.11580483 -0.042784326 0.05988183 -0.16043673 0.04953785 0.043503094 0.0099360915 0.0066493917 -0.19716895 -0.018413406 0.10185534 0.087958194 -0.14958309 0.19144163 -0.007659249 0.04137074 0.01979178 0.008490967 -0.0148896435 0.19342689 0.10206019 -0.04407304 -0.15223 -0.10466034 0.013057639 0.058902726 0.16613586 -0.056015536 0.12552324 -0.1561258 -0.08743448 0.044383254 -0.1329182 0.026168766 0.17054519 0.1260255 0.07121915 -0.062194135 0.11913154 0.089412294 -0.17730603 0.05454108 -0.032949388 0.03485779 -0.10124777 0.07681094 -0.12283709 0.10377209 -0.13494632 0.07619048 0.021278093 -0.11572388 -0.057196982 -0.14976975 -0.11243932 -0.23550954 -0.05293942 0.17048837 -0.030784363 -0.04508332 -0.11610899 0.098311275 -0.13195588 0.13277708 0.06653557 -0.18777356 0.039987937 0.09935267 0.012411996 -0.13763274 -0.0794722 0.10330307 -0.0021107676
atrial -0.02901817 -0.16305745 -0.05511303 0.07156465 0.12952243 -0.20841122 0.0441512 0.04371827 0.024616195 -0.17533776 -0.117737174 -0.023725776 -0.073728964 0.08941973 -0.11876738 -0.0715121 -0.055292282 -0.09300312 0.17490682 0.061493874 -0.07457417 0.027566662 -0.19642588 0.15226386 0.04801078 -0.092324294 0.1277285 0.13953502 -0.05077651 0.06652456 -0.18817139 0.062575005 0.051145963 0.009012018 0.002712523 -0.22904268 -0.01582475 0.12019907 0.106961444 -0.17971848 0.21830246 -0.00890082 0.044964254 0.019717636 0.010838756 -0.014325295 0.22486009 0.11373371 -0.04707152 -0.1774118 -0.11761363 0.014881118 0.062431082 0.19562793 -0.060473446 0.13934147 -0.17821547 -0.103156276 0.05491067 -0.16100891 0.025534913 0.19737482 0.14712007 0.07715104 -0.066285454 0.1421072 0.10731401 -0.20405023 0.06844339 -0.041835207 0.040034704 -0.11037607 0.092174195 -0.14636374 0.12683985 -0.15169606 0.096014 0.017511018 -0.14017826 -0.06764081 -0.17354709 -0.12798935 -0.2821403 -0.05264639 0.2012575 -0.034487445 -0.048617754 -0.13369067 0.12286328 -0.16018745 0.15432417 0.07948921 -0.21942723 0.043454833 0.11607126 0.007560027 -0.16452552 -0.096020155 0.11941969 -0.0073345555
hours -0.024809767 -0.16059007 -0.047652144 0.07218211 0.1283988 -0.20391566 0.042059418 0.043611754 0.016339602 -0.16738768 -0.11565319 -0.023068368 -0.071965925 0.09237166 -0.1220511 -0.07658182 -0.049264107 -0.0879951 0.16653937 0.059583858 -0.07120282 0.029579176 -0.1927036 0.14435239 0.05129026 -0.0848615 0.12102939 0.12761912 -0.046387475 0.06458308 -0.1868674 0.060950693 0.05456256 0.01199234 0.001552742 -0.22146943 -0.012796079 0.118255034 0.10022563 -0.1795038 0.21516429 -0.006781253 0.047013037 0.01914347 0.011587402 -0.012011272 0.21862714 0.116675645 -0.0463378 -0.17032583 -0.11854984 0.020515308 0.06737466 0.19695522 -0.056998268 0.1396611 -0.17433056 -0.09787294 0.04569281 -0.1586122 0.026680306 0.19822256 0.14475706 0.07448774 -0.067173935 0.13915642 0.09827411 -0.20243439 0.07041783 -0.03237978 0.037075873 -0.10898786 0.084921025 -0.13987154 0.12447256 -0.15366411 0.08606029 0.025356833 -0.12968697 -0.06476631 -0.17020784 -0.1277605 -0.27701926 -0.06055436 0.194841 -0.036407236 -0.054721396 -0.12415486 0.1114472 -0.15970567 0.15470953 0.07196467 -0.2230921 0.037257757 0.114839815 0.010482817 -0.15554786 -0.091265716 0.1147203 -0.00695499
hospital3 -0.033553544 -0.17539309 -0.060009774 0.079635285 0.1363621 -0.22245672 0.04815193 0.039363474 0.023675963 -0.18658507 -0.13054675 -0.026986172 -0.07693588 0.09604309 -0.1294784 -0.08107287 -0.05174327 -0.10634571 0.19024888 0.072274394 -0.086051464 0.040052373 -0.22045448 0.16604659 0.053844105 -0.09374157 0.13685721 0.14731379 -0.05193574 0.071676396 -0.20669374 0.061282918 0.052970964 0.0059105083 0.008337967 -0.24677521 -0.016099524 0.12790172 0.11810315 -0.1938726 0.23966411 -0.010287879 0.05011842 0.023708398 0.016510386 -0.022988422 0.2441337 0.123900525 -0.052581627 -0.1894546 -0.12396469 0.017085673 0.07376998 0.21612172 -0.064384215 0.15707682 -0.18966599 -0.11275727 0.05214867 -0.17170979 0.034300443 0.21494901 0.1564072 0.09042396 -0.07496761 0.14818442 0.11334569 -0.22267962 0.07125596 -0.03916777 0.038418245 -0.11881412 0.09365682 -0.15457714 0.13250268 -0.16731498 0.09713661 0.021947984 -0.14879215 -0.07585187 -0.1917237 -0.1337143 -0.30883306 -0.066804625 0.22634706 -0.04285864 -0.05936379 -0.13828753 0.13161114 -0.1759631 0.17076163 0.08042146 -0.2427395 0.045018278 0.1271633 0.008971145 -0.17969917 -0.106559426 0.1294434 -0.0010533734
died -0.024824696 -0.13365069 -0.04226009 0.06454153 0.10930133 -0.17107567 0.038648035 0.03297564 0.018243574 -0.14309497 -0.09774567 -0.021997701 -0.065005526 0.07977196 -0.104390904 -0.06587635 -0.042989675 -0.082512125 0.14274782 0.051483303 -0.06101326 0.023574399 -0.17273156 0.122305736 0.037755776 -0.07776323 0.102887556 0.11852386 -0.04319591 0.05791536 -0.16113329 0.044243675 0.047756087 0.008007479 0.0052895756 -0.18872353 -0.018972823 0.10385993 0.08934841 -0.15213059 0.18700042 -0.00399265 0.03870353 0.01965815 0.007856118 -0.008964446 0.19338688 0.09989739 -0.04183342 -0.14679915 -0.09439979 0.01625669 0.053411644 0.17028221 -0.04896506 0.12313927 -0.14642444 -0.08051775 0.04260997 -0.13963243 0.019889602 0.17122611 0.12211477 0.06680311 -0.055174448 0.116125196 0.08593299 -0.1708044 0.056114852 -0.031546783 0.03612946 -0.094613045 0.07797861 -0.12144859 0.10516888 -0.13194773 0.08137887 0.019466301 -0.11959963 -0.059404295 -0.15112834 -0.10880366 -0.23416047 -0.049088318 0.17221996 -0.03483199 -0.048217222 -0.10693952 0.09842128 -0.13490096 0.12577303 0.058940034 -0.19074023 0.039115388 0.09789629 0.0054028505 -0.13601363 -0.08677435 0.09855139 -0.0069462396
states -0.021372559 -0.14386742 -0.047251083 0.06886216 0.11489576 -0.18213682 0.04214688 0.032966077 0.020533677 -0.16326004 -0.10839356 -0.013886593 -0.06884563 0.079361565 -0.11562516 -0.071788594 -0.04916059 -0.08921739 0.15431985 0.060468312 -0.07271185 0.027809722 -0.17853323 0.13792753 0.041916955 -0.080668055 0.11439275 0.12574469 -0.039256345 0.0648476 -0.17169838 0.05100196 0.04991511 0.011453368 0.002684131 -0.20384234 -0.01709705 0.10192388 0.096854575 -0.1640289 0.20155776 -0.007840064 0.040013097 0.022581348 0.008362396 -0.012820905 0.20364015 0.10425757 -0.04147289 -0.1541376 -0.10582428 0.017672604 0.058468368 0.18063605 -0.05542929 0.12762517 -0.15573457 -0.08962116 0.05019094 -0.14726686 0.022530459 0.17744486 0.12814102 0.076053396 -0.06320436 0.12481299 0.098181814 -0.183059 0.06203283 -0.031772874 0.032674324 -0.10063256 0.08521224 -0.12691079 0.1154155 -0.13791941 0.08147514 0.016547566 -0.11886425 -0.05923173 -0.15967955 -0.1161278 -0.25437626 -0.052363142 0.18492474 -0.031682335 -0.048512626 -0.11783814 0.10599055 -0.14757994 0.13869564 0.069314845 -0.20218626 0.037937358 0.10366126 0.007222944 -0.14322062 -0.08748511 0.10635979 -0.002259978
followup -0.027380014 -0.14322942 -0.045735367 0.07227329 0.11325212 -0.1854594 0.042866513 0.031975035 0.023498135 -0.15259808 -0.100356355 -0.023241919 -0.06137834 0.08314638 -0.10929619 -0.06767947 -0.044531234 -0.08692447 0.15531452 0.05881578 -0.06666823 0.024931539 -0.17903008 0.13115832 0.045974042 -0.080382064 0.10804126 0.12062206 -0.040813986 0.061454374 -0.16685621 0.055126037 0.049160928 0.013182909 0.0006728712 -0.2018541 -0.019084727 0.10790259 0.095975354 -0.15809196 0.19124244 -0.0065450436 0.038530502 0.023591636 0.015635416 -0.016601207 0.19725683 0.1054056 -0.050524622 -0.1517679 -0.10573771 0.010967382 0.05285448 0.17821611 -0.05221294 0.13175236 -0.15941851 -0.09275402 0.043593697 -0.14650674 0.023771236 0.17730634 0.13124342 0.07323324 -0.06447636 0.12833351 0.08882356 -0.17986612 0.058541775 -0.037926342 0.036261775 -0.09792964 0.07786623 -0.13371678 0.10955895 -0.13611315 0.080067314 0.015701607 -0.12327495 -0.0633003 -0.15193129 -0.11880725 -0.2514942 -0.054154977 0.18454424 -0.034770105 -0.0515065 -0.11302356 0.110866204 -0.14527425 0.13359001 0.06958586 -0.19938067 0.038969856 0.10421783 0.008283976 -0.14249736 -0.09181181 0.10251834 -0.002803173
renal -0.018845635 -0.15035535 -0.0489717 0.069129795 0.10777684 -0.18202402 0.03947235 0.03217075 0.018078895 -0.15320282 -0.10244823 -0.015134402 -0.06024921 0.08047986 -0.10759658 -0.06468368 -0.04736105 -0.08830065 0.15230827 0.05937475 -0.066299 0.03357802 -0.17871255 0.12863335 0.048041567 -0.08319935 0.11148622 0.12552911 -0.046795405 0.058681488 -0.1631146 0.054587595 0.05113399 0.006815507 0.0020575481 -0.19845149 -0.011446525 0.10983683 0.0931576 -0.15635903 0.20110205 -0.0074156923 0.036588732 0.018237082 0.015182093 -0.0107744355 0.20343107 0.101482086 -0.049381867 -0.15285821 -0.10779215 0.01402903 0.06161862 0.17310546 -0.05179458 0.12699182 -0.16132721 -0.08975782 0.043079555 -0.14885041 0.027112471 0.18047878 0.12983193 0.073709816 -0.05950031 0.12944297 0.094031215 -0.18162702 0.058667812 -0.035884704 0.036964267 -0.09899547 0.078106016 -0.13003828 0.11363384 -0.13431348 0.07884776 0.01801889 -0.12747975 -0.06470121 -0.15780227 -0.11849639 -0.25271663 -0.04686078 0.1857874 -0.032733425 -0.041638725 -0.11515851 0.10617065 -0.14254989 0.13454808 0.06971888 -0.20538543 0.03582528 0.10647409 0.003505741 -0.14168012 -0.0886667 0.10987592 -0.0068992293
mellitus -0.02071594 -0.14832202 -0.045237493 0.07411207 0.11427967 -0.19077186 0.04229085 0.032562125 0.019378986 -0.16301954 -0.11407265 -0.014818962 -0.06916833 0.087700486 -0.11165579 -0.069787994 -0.049666733 -0.084274314 0.15595189 0.062122896 -0.06780973 0.03533391 -0.18976387 0.13527094 0.04578056 -0.080025785 0.11734564 0.12978432 -0.04815494 0.06202037 -0.16995716 0.058591396 0.053759772 0.004157082 0.008087723 -0.21663469 -0.017354647 0.11359626 0.1009526 -0.1666482 0.2083811 -0.0064283353 0.037211236 0.02124328 0.009653905 -0.015641667 0.214171 0.11276782 -0.049983595 -0.16179629 -0.10596712 0.012440562 0.058469243 0.18047054 -0.054891497 0.13116352 -0.16750742 -0.08974387 0.047694158 -0.15052408 0.023838038 0.18421693 0.13501894 0.07811407 -0.070082806 0.1275858 0.10203482 -0.19398597 0.06273959 -0.03409685 0.03530539 -0.10674897 0.08287158 -0.13703534 0.1143826 -0.13980873 0.086083554 0.02173609 -0.12826626 -0.067395404 -0.15871136 -0.11957807 -0.2623037 -0.052764617 0.19081467 -0.03931886 -0.049937773 -0.11831322 0.1144889 -0.14874151 0.14135136 0.07258337 -0.21299745 0.040936064 0.10951231 0.008009824 -0.151153 -0.095689535 0.115246125 -0.00013131688
hospitalization -0.026526123 -0.16183005 -0.052746497 0.07602399 0.12443689 -0.20109697 0.043514203 0.041734114 0.023296244 -0.16467203 -0.10863315 -0.016352845 -0.069037355 0.093884476 -0.12163963 -0.07623663 -0.05361079 -0.08759907 0.16160996 0.05980532 -0.0686592 0.030929714 -0.19111112 0.13792236 0.042809352 -0.08091879 0.12184303 0.13141228 -0.04160146 0.06284962 -0.18077454 0.05834784 0.05521354 0.004241972 0.0083823195 -0.22097641 -0.015188743 0.11371505 0.10304102 -0.17162247 0.2129175 -0.009043555 0.03824102 0.01847601 0.008168932 -0.019761255 0.21833663 0.10725082 -0.05086632 -0.16253826 -0.116869494 0.018355064 0.065281704 0.18616836 -0.06492968 0.13928609 -0.16828589 -0.09918189 0.04450989 -0.15860868 0.033065427 0.19229598 0.13343386 0.073120564 -0.06613223 0.13135834 0.10462418 -0.19995601 0.06710003 -0.036643837 0.040318966 -0.10711417 0.08394386 -0.14036073 0.11831366 -0.14940114 0.09229562 0.019088473 -0.13105133 -0.067499705 -0.16472386 -0.12192551 -0.2714828 -0.05332544 0.19899195 -0.03609167 -0.050467927 -0.122150525 0.1131231 -0.15343681 0.14933996 0.07108449 -0.21443428 0.040777087 0.11360674 0.009793237 -0.1531509 -0.096024245 0.1096306 -0.0023008834
hypothyroidism -0.028161854 -0.15534844 -0.05186156 0.06866363 0.12112128 -0.1933788 0.046206035 0.034768365 0.020621343 -0.16445889 -0.11222753 -0.020094195 -0.06583071 0.0905755 -0.11721626 -0.068585165 -0.044569563 -0.08912525 0.15985395 0.059367444 -0.0716207 0.035098948 -0.19119334 0.14328487 0.0506328 -0.08360342 0.11535627 0.12744817 -0.04071733 0.06405044 -0.17700014 0.05261885 0.05060849 0.007254936 0.0092620365 -0.20922485 -0.015031096 0.107074596 0.09303208 -0.16714567 0.20250495 -0.005971283 0.045751117 0.023575952 0.009734722 -0.017067421 0.21448179 0.11050783 -0.04995476 -0.16526535 -0.11190217 0.017194366 0.058008183 0.18226463 -0.061947517 0.12959151 -0.16942815 -0.09477537 0.044448987 -0.15385492 0.023782954 0.18518078 0.13909571 0.07150517 -0.06886299 0.13448662 0.1020138 -0.18989111 0.058507193 -0.039345335 0.03447682 -0.10864155 0.08150193 -0.1402239 0.11840757 -0.14031482 0.08479047 0.021845238 -0.12619358 -0.06665497 -0.16175313 -0.11744597 -0.26591265 -0.05805765 0.18642735 -0.033367112 -0.05261887 -0.119603775 0.115125746 -0.14678167 0.14732994 0.0713586 -0.20748034 0.03961736 0.10835207 0.008383591 -0.15689564 -0.0942223 0.11022545 -0.00060362986
weeks -0.018976089 -0.13142164 -0.04722904 0.0650445 0.10528884 -0.16472755 0.04128717 0.034833267 0.012704385 -0.1458406 -0.09151869 -0.012440488 -0.060812164 0.0726986 -0.10415069 -0.060270842 -0.04532767 -0.07756372 0.14062618 0.04777238 -0.06583903 0.021379724 -0.15796198 0.11537428 0.039413303 -0.07380425 0.09551731 0.1127702 -0.03467887 0.053183395 -0.15365803 0.0489968 0.044953566 0.007271186 0.0071845045 -0.1844988 -0.013319106 0.10034704 0.0823563 -0.1444763 0.17523466 -0.0043333503 0.032245904 0.019808691 0.011810613 -0.013374061 0.1774941 0.09523103 -0.038451694 -0.14199755 -0.09694807 0.010998523 0.05547577 0.16339193 -0.055285692 0.11209414 -0.1412321 -0.078859195 0.036141332 -0.1277968 0.027227392 0.1645841 0.115719035 0.062024537 -0.05573968 0.11045311 0.0854319 -0.16050471 0.050758544 -0.03534205 0.03184812 -0.08810603 0.0714408 -0.12198403 0.096543714 -0.120104425 0.07536113 0.015864836 -0.111600175 -0.059316665 -0.13814428 -0.1073323 -0.22476761 -0.050144494 0.16758384 -0.029894222 -0.03887187 -0.10992647 0.09796751 -0.13035947 0.12185734 0.06341587 -0.18376058 0.030126402 0.08770701 0.004920504 -0.13068606 -0.08122054 0.093796015 -9.243521e-05
pills -0.016415803 -0.12735723 -0.034938328 0.052936908 0.09181258 -0.15234415 0.02895369 0.033132523 0.014513748 -0.13074939 -0.082015924 -0.012040498 -0.0510358 0.070645936 -0.093830965 -0.056485068 -0.0359099 -0.074308746 0.12842198 0.041401803 -0.05456245 0.021249693 -0.14659789 0.109885275 0.03462645 -0.069376715 0.09168152 0.10212695 -0.036160596 0.05067972 -0.13838467 0.038783975 0.03424278 0.008967268 0.0075497525 -0.16670007 -0.015103425 0.08543233 0.08097181 -0.1288889 0.16589993 -0.006255628 0.032374583 0.019807527 0.009556116 -0.013576865 0.17175509 0.08869588 -0.03414526 -0.12710963 -0.089519285 0.009388117 0.04999442 0.15159866 -0.047387276 0.10571769 -0.1336715 -0.07907013 0.038612884 -0.12309903 0.019389933 0.15065174 0.11073463 0.057383172 -0.054864615 0.10368452 0.08008851 -0.15742038 0.050836604 -0.03323164 0.027483724 -0.08280909 0.06798594 -0.103689194 0.08926092 -0.11431411 0.067322806 0.019759364 -0.105054915 -0.046875313 -0.12698697 -0.09152954 -0.20431997 -0.044056524 0.15078014 -0.029279066 -0.04322178 -0.09555007 0.08767893 -0.11948379 0.116250575 0.060758855 -0.16461177 0.033767097 0.08268749 0.0017842873 -0.122919455 -0.07725259 0.08534128 -0.007535075
months -0.023525696 -0.14095195 -0.042119376 0.06203521 0.10787807 -0.17456906 0.035218578 0.031407505 0.014590202 -0.14675945 -0.10201972 -0.0214741 -0.06374585 0.081801824 -0.106488265 -0.059138447 -0.047942672 -0.07718661 0.1509499 0.049591884 -0.063892335 0.024501689 -0.17188682 0.123900235 0.03921308 -0.07514758 0.109580435 0.11519668 -0.039279327 0.0570452 -0.15597013 0.052887134 0.046945114 0.010386153 -0.0004742178 -0.19141053 -0.017503213 0.10224456 0.09266606 -0.15839976 0.19218275 -0.009766809 0.03507742 0.019540258 0.011535943 -0.010500238 0.19526388 0.09970547 -0.042630326 -0.14504805 -0.10367503 0.0100922445 0.05961823 0.16694082 -0.055580154 0.12556234 -0.15603845 -0.08899819 0.045778424 -0.14050506 0.027825924 0.17353192 0.12657085 0.0639421 -0.06178644 0.119122185 0.09464403 -0.17123426 0.05697981 -0.027847184 0.036824603 -0.097032875 0.07302351 -0.12628426 0.10471393 -0.13332394 0.0792962 0.021429844 -0.11906624 -0.061514743 -0.14911781 -0.10812355 -0.24242063 -0.047805168 0.17895289 -0.036314555 -0.04899579 -0.11587238 0.099941775 -0.14121805 0.13353938 0.066370964 -0.18850072 0.038342133 0.09883176 0.009443609 -0.13876188 -0.082912005 0.09922211 -0.006092195
heroin -0.02630214 -0.1375407 -0.043198865 0.06314985 0.10677069 -0.16604051 0.03727597 0.03160649 0.016983712 -0.14296408 -0.09255396 -0.01871386 -0.059024405 0.08057833 -0.097229674 -0.06504402 -0.04063315 -0.07835274 0.14030012 0.046545953 -0.06328622 0.02779635 -0.16608791 0.11633132 0.036701314 -0.071801946 0.1048395 0.11041435 -0.039555512 0.05545077 -0.1489743 0.049916193 0.038664766 0.0077057015 0.0060887616 -0.18566686 -0.014153075 0.09942845 0.081665 -0.142595 0.17987245 -0.00016580816 0.03931691 0.013978415 0.006614068 -0.014737764 0.1862128 0.09727065 -0.046936486 -0.13809185 -0.096341975 0.008599825 0.055131778 0.1614087 -0.05478466 0.113768324 -0.14392821 -0.07703328 0.04494063 -0.13034272 0.023197748 0.16023569 0.114632405 0.06909656 -0.05745904 0.113120615 0.08030717 -0.1667032 0.05252894 -0.034485295 0.028588643 -0.09431586 0.070777394 -0.114808425 0.100909375 -0.12153241 0.07863218 0.016445478 -0.11291183 -0.058808915 -0.14426267 -0.10490612 -0.22796807 -0.045081764 0.1614348 -0.028928159 -0.041784182 -0.10380779 0.09528657 -0.1287608 0.12398207 0.057948492 -0.18176015 0.03383659 0.0907984 0.005060728 -0.1328153 -0.07914934 0.09599904 -0.006993041
